<?xml version="1.0"?>
<opencv_storage>
<cascade>
  <stageType>BOOST</stageType>
  <featureType>HAAR</featureType>
  <height>40</height>
  <width>80</width>
  <stageParams>
    <boostType>GAB</boostType>
    <minHitRate>9.9900001287460327e-01</minHitRate>
    <maxFalseAlarm>5.0000000000000000e-01</maxFalseAlarm>
    <weightTrimRate>9.4999999999999996e-01</weightTrimRate>
    <maxDepth>1</maxDepth>
    <maxWeakCount>100</maxWeakCount></stageParams>
  <featureParams>
    <maxCatCount>0</maxCatCount>
    <featSize>1</featSize>
    <mode>ALL</mode></featureParams>
  <stageNum>20</stageNum>
  <stages>
    <!-- stage 0 -->
    <_>
      <maxWeakCount>14</maxWeakCount>
      <stageThreshold>-1.3210089206695557e+00</stageThreshold>
      <weakClassifiers>
        <_>
          <internalNodes>
            0 -1 282 9.1263529611751437e-04</internalNodes>
          <leafValues>
            -4.3303120881319046e-02 7.2981876134872437e-01</leafValues></_>
        <_>
          <internalNodes>
            0 -1 246 3.6252071149647236e-03</internalNodes>
          <leafValues>
            -1.8632195889949799e-01 6.5568572282791138e-01</leafValues></_>
        <_>
          <internalNodes>
            0 -1 290 -6.9976248778402805e-04</internalNodes>
          <leafValues>
            5.8363831043243408e-01 -2.9017066955566406e-01</leafValues></_>
        <_>
          <internalNodes>
            0 -1 446 3.9102402515709400e-03</internalNodes>
          <leafValues>
            -1.5966792404651642e-01 6.2189185619354248e-01</leafValues></_>
        <_>
          <internalNodes>
            0 -1 383 -5.4260799661278725e-03</internalNodes>
          <leafValues>
            6.4722836017608643e-01 -2.6347446441650391e-01</leafValues></_>
        <_>
          <internalNodes>
            0 -1 27 -5.4218471050262451e-02</internalNodes>
          <leafValues>
            6.7495131492614746e-01 -1.6020199656486511e-01</leafValues></_>
        <_>
          <internalNodes>
            0 -1 368 -2.1196722984313965e-02</internalNodes>
          <leafValues>
            -8.5164982080459595e-01 1.7154559493064880e-01</leafValues></_>
        <_>
          <internalNodes>
            0 -1 457 -2.4534284602850676e-03</internalNodes>
          <leafValues>
            5.6074774265289307e-01 -2.5316223502159119e-01</leafValues></_>
        <_>
          <internalNodes>
            0 -1 214 -2.3205280303955078e-02</internalNodes>
          <leafValues>
            -8.1280869245529175e-01 1.9607588648796082e-01</leafValues></_>
        <_>
          <internalNodes>
            0 -1 462 -7.8717176802456379e-04</internalNodes>
          <leafValues>
            4.4826987385749817e-01 -3.7426692247390747e-01</leafValues></_>
        <_>
          <internalNodes>
            0 -1 401 -1.0248671751469374e-03</internalNodes>
          <leafValues>
            5.2281594276428223e-01 -2.5857996940612793e-01</leafValues></_>
        <_>
          <internalNodes>
            0 -1 396 -1.6462102066725492e-03</internalNodes>
          <leafValues>
            4.8616704344749451e-01 -2.6774844527244568e-01</leafValues></_>
        <_>
          <internalNodes>
            0 -1 190 3.3726487308740616e-03</internalNodes>
          <leafValues>
            -2.2686567902565002e-01 5.3580719232559204e-01</leafValues></_>
        <_>
          <internalNodes>
            0 -1 480 1.5971127897500992e-02</internalNodes>
          <leafValues>
            1.6757072508335114e-01 -9.7880601882934570e-01</leafValues></_></weakClassifiers></_>
    <!-- stage 1 -->
    <_>
      <maxWeakCount>16</maxWeakCount>
      <stageThreshold>-1.3502943515777588e+00</stageThreshold>
      <weakClassifiers>
        <_>
          <internalNodes>
            0 -1 347 1.2877988629043102e-03</internalNodes>
          <leafValues>
            -4.9484536051750183e-02 7.1111112833023071e-01</leafValues></_>
        <_>
          <internalNodes>
            0 -1 327 -2.9274390544742346e-04</internalNodes>
          <leafValues>
            7.4052459001541138e-01 -1.3048353791236877e-01</leafValues></_>
        <_>
          <internalNodes>
            0 -1 318 -3.2530315220355988e-03</internalNodes>
          <leafValues>
            6.4459413290023804e-01 -2.6151123642921448e-01</leafValues></_>
        <_>
          <internalNodes>
            0 -1 277 -1.0641629807651043e-02</internalNodes>
          <leafValues>
            -7.6570844650268555e-01 2.2126865386962891e-01</leafValues></_>
        <_>
          <internalNodes>
            0 -1 326 2.6664137840270996e-04</internalNodes>
          <leafValues>
            -1.9895429909229279e-01 8.0169844627380371e-01</leafValues></_>
        <_>
          <internalNodes>
            0 -1 248 1.6733560711145401e-02</internalNodes>
          <leafValues>
            2.2732664644718170e-01 -7.9874700307846069e-01</leafValues></_>
        <_>
          <internalNodes>
            0 -1 93 -2.3514986969530582e-03</internalNodes>
          <leafValues>
            4.5784124732017517e-01 -3.2050260901451111e-01</leafValues></_>
        <_>
          <internalNodes>
            0 -1 499 -1.5911469236016273e-03</internalNodes>
          <leafValues>
            7.4557501077651978e-01 -1.3205465674400330e-01</leafValues></_>
        <_>
          <internalNodes>
            0 -1 219 -2.3350279778242111e-02</internalNodes>
          <leafValues>
            -9.5071333646774292e-01 1.4170268177986145e-01</leafValues></_>
        <_>
          <internalNodes>
            0 -1 169 6.7360885441303253e-04</internalNodes>
          <leafValues>
            -2.5335741043090820e-01 4.9686044454574585e-01</leafValues></_>
        <_>
          <internalNodes>
            0 -1 304 4.9389118794351816e-04</internalNodes>
          <leafValues>
            -2.6886788010597229e-01 3.9604324102401733e-01</leafValues></_>
        <_>
          <internalNodes>
            0 -1 272 -1.2051878497004509e-02</internalNodes>
          <leafValues>
            -8.6367064714431763e-01 1.5770831704139709e-01</leafValues></_>
        <_>
          <internalNodes>
            0 -1 331 5.2943418268114328e-04</internalNodes>
          <leafValues>
            -2.2327259182929993e-01 7.3615878820419312e-01</leafValues></_>
        <_>
          <internalNodes>
            0 -1 296 7.3768058791756630e-03</internalNodes>
          <leafValues>
            2.0791000127792358e-01 -7.6581877470016479e-01</leafValues></_>
        <_>
          <internalNodes>
            0 -1 302 -1.2389980256557465e-03</internalNodes>
          <leafValues>
            4.7688153386116028e-01 -2.8533962368965149e-01</leafValues></_>
        <_>
          <internalNodes>
            0 -1 583 -9.5072580734267831e-04</internalNodes>
          <leafValues>
            5.8883243799209595e-01 -1.8238221108913422e-01</leafValues></_></weakClassifiers></_>
    <!-- stage 2 -->
    <_>
      <maxWeakCount>21</maxWeakCount>
      <stageThreshold>-1.0425809621810913e+00</stageThreshold>
      <weakClassifiers>
        <_>
          <internalNodes>
            0 -1 320 1.3211024925112724e-03</internalNodes>
          <leafValues>
            2.9972752556204796e-02 7.3547095060348511e-01</leafValues></_>
        <_>
          <internalNodes>
            0 -1 137 2.3809948936104774e-02</internalNodes>
          <leafValues>
            1.7168129980564117e-01 -7.7021515369415283e-01</leafValues></_>
        <_>
          <internalNodes>
            0 -1 375 -3.5248501226305962e-03</internalNodes>
          <leafValues>
            5.3282511234283447e-01 -2.3584453761577606e-01</leafValues></_>
        <_>
          <internalNodes>
            0 -1 160 -2.3321311920881271e-02</internalNodes>
          <leafValues>
            5.9650421142578125e-01 -2.1694910526275635e-01</leafValues></_>
        <_>
          <internalNodes>
            0 -1 176 -7.4296839535236359e-02</internalNodes>
          <leafValues>
            5.1108956336975098e-01 -2.1306782960891724e-01</leafValues></_>
        <_>
          <internalNodes>
            0 -1 309 7.2123929858207703e-03</internalNodes>
          <leafValues>
            -1.9461952149868011e-01 5.8511096239089966e-01</leafValues></_>
        <_>
          <internalNodes>
            0 -1 323 -1.8299738876521587e-03</internalNodes>
          <leafValues>
            5.9389775991439819e-01 -1.7214813828468323e-01</leafValues></_>
        <_>
          <internalNodes>
            0 -1 11 -9.1381138190627098e-05</internalNodes>
          <leafValues>
            -4.7314113378524780e-01 2.2724410891532898e-01</leafValues></_>
        <_>
          <internalNodes>
            0 -1 281 2.4029505439102650e-03</internalNodes>
          <leafValues>
            -3.4459689259529114e-01 3.4057006239891052e-01</leafValues></_>
        <_>
          <internalNodes>
            0 -1 229 1.8858890980482101e-02</internalNodes>
          <leafValues>
            1.6372521221637726e-01 -8.8733220100402832e-01</leafValues></_>
        <_>
          <internalNodes>
            0 -1 456 2.7604606002569199e-03</internalNodes>
          <leafValues>
            -2.6570039987564087e-01 4.5363447070121765e-01</leafValues></_>
        <_>
          <internalNodes>
            0 -1 10 2.9887251002946869e-05</internalNodes>
          <leafValues>
            2.0938290655612946e-01 -4.5509907603263855e-01</leafValues></_>
        <_>
          <internalNodes>
            0 -1 242 1.6613993793725967e-03</internalNodes>
          <leafValues>
            -1.7381401360034943e-01 5.9148335456848145e-01</leafValues></_>
        <_>
          <internalNodes>
            0 -1 370 -2.6356503367424011e-02</internalNodes>
          <leafValues>
            -7.4780130386352539e-01 1.5016517043113708e-01</leafValues></_>
        <_>
          <internalNodes>
            0 -1 354 6.9909053854644299e-04</internalNodes>
          <leafValues>
            -2.3614971339702606e-01 4.5154428482055664e-01</leafValues></_>
        <_>
          <internalNodes>
            0 -1 356 1.7486737342551351e-03</internalNodes>
          <leafValues>
            -2.3367004096508026e-01 4.6305632591247559e-01</leafValues></_>
        <_>
          <internalNodes>
            0 -1 508 8.7831902783364058e-04</internalNodes>
          <leafValues>
            -2.1667693555355072e-01 5.3588789701461792e-01</leafValues></_>
        <_>
          <internalNodes>
            0 -1 0 4.1596445953473449e-05</internalNodes>
          <leafValues>
            2.0685885846614838e-01 -5.8589351177215576e-01</leafValues></_>
        <_>
          <internalNodes>
            0 -1 364 3.7832278758287430e-04</internalNodes>
          <leafValues>
            -1.6869473457336426e-01 7.3158794641494751e-01</leafValues></_>
        <_>
          <internalNodes>
            0 -1 187 2.0374789834022522e-02</internalNodes>
          <leafValues>
            1.6142094135284424e-01 -7.6335984468460083e-01</leafValues></_>
        <_>
          <internalNodes>
            0 -1 174 -2.3966081440448761e-02</internalNodes>
          <leafValues>
            6.7595154047012329e-01 -1.7415654659271240e-01</leafValues></_></weakClassifiers></_>
    <!-- stage 3 -->
    <_>
      <maxWeakCount>27</maxWeakCount>
      <stageThreshold>-1.3355015516281128e+00</stageThreshold>
      <weakClassifiers>
        <_>
          <internalNodes>
            0 -1 304 6.1992695555090904e-04</internalNodes>
          <leafValues>
            -4.9645390361547470e-02 5.8620691299438477e-01</leafValues></_>
        <_>
          <internalNodes>
            0 -1 349 -6.7717321217060089e-03</internalNodes>
          <leafValues>
            6.6960304975509644e-01 -1.2136697769165039e-01</leafValues></_>
        <_>
          <internalNodes>
            0 -1 406 1.7052814364433289e-03</internalNodes>
          <leafValues>
            -2.4682639539241791e-01 4.9439388513565063e-01</leafValues></_>
        <_>
          <internalNodes>
            0 -1 197 1.9919178448617458e-03</internalNodes>
          <leafValues>
            -1.6692470014095306e-01 4.7526192665100098e-01</leafValues></_>
        <_>
          <internalNodes>
            0 -1 164 2.1055918186903000e-03</internalNodes>
          <leafValues>
            -2.0907796919345856e-01 4.5267304778099060e-01</leafValues></_>
        <_>
          <internalNodes>
            0 -1 165 -2.5195728521794081e-03</internalNodes>
          <leafValues>
            5.7771617174148560e-01 -1.6106052696704865e-01</leafValues></_>
        <_>
          <internalNodes>
            0 -1 472 8.6678694933652878e-03</internalNodes>
          <leafValues>
            1.3678854703903198e-01 -8.0415773391723633e-01</leafValues></_>
        <_>
          <internalNodes>
            0 -1 198 -1.4582270756363869e-02</internalNodes>
          <leafValues>
            -8.7306499481201172e-01 9.0010978281497955e-02</leafValues></_>
        <_>
          <internalNodes>
            0 -1 402 -2.0752171985805035e-03</internalNodes>
          <leafValues>
            3.6186122894287109e-01 -2.5444582104682922e-01</leafValues></_>
        <_>
          <internalNodes>
            0 -1 410 6.0522084822878242e-04</internalNodes>
          <leafValues>
            1.2271912395954132e-01 -8.8828307390213013e-01</leafValues></_>
        <_>
          <internalNodes>
            0 -1 66 8.5790134966373444e-02</internalNodes>
          <leafValues>
            -2.0528031885623932e-01 5.2922564744949341e-01</leafValues></_>
        <_>
          <internalNodes>
            0 -1 435 -1.4233568683266640e-02</internalNodes>
          <leafValues>
            -8.4135574102401733e-01 1.0624770820140839e-01</leafValues></_>
        <_>
          <internalNodes>
            0 -1 227 1.7297521699219942e-03</internalNodes>
          <leafValues>
            -1.6722500324249268e-01 5.6692832708358765e-01</leafValues></_>
        <_>
          <internalNodes>
            0 -1 431 -2.0543171558529139e-04</internalNodes>
          <leafValues>
            -6.5366852283477783e-01 1.4610400795936584e-01</leafValues></_>
        <_>
          <internalNodes>
            0 -1 17 -3.7693804188165814e-05</internalNodes>
          <leafValues>
            -4.7261255979537964e-01 1.7515583336353302e-01</leafValues></_>
        <_>
          <internalNodes>
            0 -1 230 -1.4024304691702127e-03</internalNodes>
          <leafValues>
            3.5005715489387512e-01 -2.5305593013763428e-01</leafValues></_>
        <_>
          <internalNodes>
            0 -1 177 1.6450021415948868e-02</internalNodes>
          <leafValues>
            -1.2399850040674210e-01 6.0004401206970215e-01</leafValues></_>
        <_>
          <internalNodes>
            0 -1 328 -6.7253771703690290e-04</internalNodes>
          <leafValues>
            6.0136908292770386e-01 -1.4248071610927582e-01</leafValues></_>
        <_>
          <internalNodes>
            0 -1 106 -2.8261807165108621e-04</internalNodes>
          <leafValues>
            -5.4847085475921631e-01 1.7634564638137817e-01</leafValues></_>
        <_>
          <internalNodes>
            0 -1 299 -1.8058130517601967e-03</internalNodes>
          <leafValues>
            4.4540521502494812e-01 -1.9831855595111847e-01</leafValues></_>
        <_>
          <internalNodes>
            0 -1 223 9.0158637613058090e-03</internalNodes>
          <leafValues>
            1.3660447299480438e-01 -7.8899592161178589e-01</leafValues></_>
        <_>
          <internalNodes>
            0 -1 357 -6.5750088542699814e-03</internalNodes>
          <leafValues>
            6.8855804204940796e-01 -1.4277096092700958e-01</leafValues></_>
        <_>
          <internalNodes>
            0 -1 511 -9.9840527400374413e-04</internalNodes>
          <leafValues>
            3.3590805530548096e-01 -2.5990024209022522e-01</leafValues></_>
        <_>
          <internalNodes>
            0 -1 6 -4.0453727706335485e-05</internalNodes>
          <leafValues>
            -5.9798938035964966e-01 1.4349006116390228e-01</leafValues></_>
        <_>
          <internalNodes>
            0 -1 502 3.2759769819676876e-03</internalNodes>
          <leafValues>
            -1.5211315453052521e-01 5.3428238630294800e-01</leafValues></_>
        <_>
          <internalNodes>
            0 -1 114 -3.7182733416557312e-02</internalNodes>
          <leafValues>
            4.2601346969604492e-01 -2.2074159979820251e-01</leafValues></_>
        <_>
          <internalNodes>
            0 -1 449 3.5595167428255081e-03</internalNodes>
          <leafValues>
            -1.9813838601112366e-01 5.0626480579376221e-01</leafValues></_></weakClassifiers></_>
    <!-- stage 4 -->
    <_>
      <maxWeakCount>25</maxWeakCount>
      <stageThreshold>-1.0538620948791504e+00</stageThreshold>
      <weakClassifiers>
        <_>
          <internalNodes>
            0 -1 303 3.2961005344986916e-03</internalNodes>
          <leafValues>
            1.5136226080358028e-02 6.3218390941619873e-01</leafValues></_>
        <_>
          <internalNodes>
            0 -1 300 -7.5521292164921761e-03</internalNodes>
          <leafValues>
            6.9737595319747925e-01 -7.7025800943374634e-02</leafValues></_>
        <_>
          <internalNodes>
            0 -1 218 -9.1809555888175964e-03</internalNodes>
          <leafValues>
            4.8295000195503235e-01 -1.3161575794219971e-01</leafValues></_>
        <_>
          <internalNodes>
            0 -1 440 3.0775461345911026e-03</internalNodes>
          <leafValues>
            -1.7722105979919434e-01 3.7243220210075378e-01</leafValues></_>
        <_>
          <internalNodes>
            0 -1 399 -6.4227217808365822e-03</internalNodes>
          <leafValues>
            -7.1847695112228394e-01 9.3648977577686310e-02</leafValues></_>
        <_>
          <internalNodes>
            0 -1 342 1.1879589874297380e-03</internalNodes>
          <leafValues>
            -1.5792649984359741e-01 4.8923143744468689e-01</leafValues></_>
        <_>
          <internalNodes>
            0 -1 30 9.3691378831863403e-02</internalNodes>
          <leafValues>
            -1.4454533159732819e-01 6.1223775148391724e-01</leafValues></_>
        <_>
          <internalNodes>
            0 -1 60 -1.1165888607501984e-01</internalNodes>
          <leafValues>
            5.7637155055999756e-01 -1.1566688865423203e-01</leafValues></_>
        <_>
          <internalNodes>
            0 -1 146 -6.1919731087982655e-03</internalNodes>
          <leafValues>
            4.6107894182205200e-01 -1.7936357855796814e-01</leafValues></_>
        <_>
          <internalNodes>
            0 -1 490 -1.9089803099632263e-02</internalNodes>
          <leafValues>
            -9.4237750768661499e-01 7.5274892151355743e-02</leafValues></_>
        <_>
          <internalNodes>
            0 -1 376 -5.9660952538251877e-03</internalNodes>
          <leafValues>
            7.0157200098037720e-01 -1.2411276251077652e-01</leafValues></_>
        <_>
          <internalNodes>
            0 -1 409 1.3137932401150465e-03</internalNodes>
          <leafValues>
            -1.8702577054500580e-01 4.3095493316650391e-01</leafValues></_>
        <_>
          <internalNodes>
            0 -1 308 -6.5932259894907475e-04</internalNodes>
          <leafValues>
            -6.1555123329162598e-01 1.1940597742795944e-01</leafValues></_>
        <_>
          <internalNodes>
            0 -1 520 -4.4878461631014943e-04</internalNodes>
          <leafValues>
            3.8280847668647766e-01 -1.9954559206962585e-01</leafValues></_>
        <_>
          <internalNodes>
            0 -1 563 1.4376951148733497e-03</internalNodes>
          <leafValues>
            -1.3483975827693939e-01 4.7990921139717102e-01</leafValues></_>
        <_>
          <internalNodes>
            0 -1 429 -7.4195425258949399e-04</internalNodes>
          <leafValues>
            -8.3159470558166504e-01 8.5486322641372681e-02</leafValues></_>
        <_>
          <internalNodes>
            0 -1 430 -3.6754884058609605e-04</internalNodes>
          <leafValues>
            3.1707850098609924e-01 -2.2400785982608795e-01</leafValues></_>
        <_>
          <internalNodes>
            0 -1 38 -2.1586725488305092e-02</internalNodes>
          <leafValues>
            6.4378571510314941e-01 -1.1299612373113632e-01</leafValues></_>
        <_>
          <internalNodes>
            0 -1 26 1.8038749694824219e-02</internalNodes>
          <leafValues>
            -1.0834290832281113e-01 5.4838895797729492e-01</leafValues></_>
        <_>
          <internalNodes>
            0 -1 451 -3.3935704268515110e-03</internalNodes>
          <leafValues>
            4.1943958401679993e-01 -1.5927070379257202e-01</leafValues></_>
        <_>
          <internalNodes>
            0 -1 437 -5.5359760299324989e-03</internalNodes>
          <leafValues>
            -5.6294560432434082e-01 1.2174332141876221e-01</leafValues></_>
        <_>
          <internalNodes>
            0 -1 546 1.0072253644466400e-03</internalNodes>
          <leafValues>
            -2.0534369349479675e-01 3.3966946601867676e-01</leafValues></_>
        <_>
          <internalNodes>
            0 -1 275 1.1747198179364204e-02</internalNodes>
          <leafValues>
            1.0621801763772964e-01 -6.7658406496047974e-01</leafValues></_>
        <_>
          <internalNodes>
            0 -1 184 -1.9606798887252808e-03</internalNodes>
          <leafValues>
            4.2695531249046326e-01 -1.8260842561721802e-01</leafValues></_>
        <_>
          <internalNodes>
            0 -1 264 -3.0801836401224136e-03</internalNodes>
          <leafValues>
            4.1374641656875610e-01 -1.8268318474292755e-01</leafValues></_></weakClassifiers></_>
    <!-- stage 5 -->
    <_>
      <maxWeakCount>25</maxWeakCount>
      <stageThreshold>-9.1279947757720947e-01</stageThreshold>
      <weakClassifiers>
        <_>
          <internalNodes>
            0 -1 58 -1.6984853893518448e-02</internalNodes>
          <leafValues>
            -6.0305345058441162e-01 3.2607215642929077e-01</leafValues></_>
        <_>
          <internalNodes>
            0 -1 89 4.5485235750675201e-02</internalNodes>
          <leafValues>
            1.5937896072864532e-01 -6.6108822822570801e-01</leafValues></_>
        <_>
          <internalNodes>
            0 -1 424 -6.3596433028578758e-04</internalNodes>
          <leafValues>
            3.5136049985885620e-01 -2.4928520619869232e-01</leafValues></_>
        <_>
          <internalNodes>
            0 -1 2 -9.6154093625955284e-05</internalNodes>
          <leafValues>
            -5.6487631797790527e-01 1.2457932531833649e-01</leafValues></_>
        <_>
          <internalNodes>
            0 -1 170 -1.8955284729599953e-02</internalNodes>
          <leafValues>
            -7.6805758476257324e-01 8.4886111319065094e-02</leafValues></_>
        <_>
          <internalNodes>
            0 -1 139 4.2311765253543854e-02</internalNodes>
          <leafValues>
            1.0757349431514740e-01 -6.1592817306518555e-01</leafValues></_>
        <_>
          <internalNodes>
            0 -1 351 -7.8897550702095032e-03</internalNodes>
          <leafValues>
            5.0352448225021362e-01 -1.6673453152179718e-01</leafValues></_>
        <_>
          <internalNodes>
            0 -1 189 -1.5035143122076988e-02</internalNodes>
          <leafValues>
            -7.0068591833114624e-01 1.1513908207416534e-01</leafValues></_>
        <_>
          <internalNodes>
            0 -1 262 1.2536735739558935e-03</internalNodes>
          <leafValues>
            -2.5318789482116699e-01 3.1414154171943665e-01</leafValues></_>
        <_>
          <internalNodes>
            0 -1 350 2.3302524350583553e-03</internalNodes>
          <leafValues>
            -1.5707889199256897e-01 3.9847770333290100e-01</leafValues></_>
        <_>
          <internalNodes>
            0 -1 497 1.5438918489962816e-04</internalNodes>
          <leafValues>
            1.1776824295520782e-01 -5.8592188358306885e-01</leafValues></_>
        <_>
          <internalNodes>
            0 -1 99 -4.6175038442015648e-03</internalNodes>
          <leafValues>
            4.2579928040504456e-01 -1.7289389669895172e-01</leafValues></_>
        <_>
          <internalNodes>
            0 -1 285 -9.5979601610451937e-04</internalNodes>
          <leafValues>
            -4.7280758619308472e-01 1.4773650467395782e-01</leafValues></_>
        <_>
          <internalNodes>
            0 -1 122 -2.5369571521878242e-03</internalNodes>
          <leafValues>
            4.1468289494514465e-01 -1.5686692297458649e-01</leafValues></_>
        <_>
          <internalNodes>
            0 -1 43 -1.1632048338651657e-01</internalNodes>
          <leafValues>
            6.5487176179885864e-01 -1.2226651608943939e-01</leafValues></_>
        <_>
          <internalNodes>
            0 -1 49 1.5741327777504921e-02</internalNodes>
          <leafValues>
            -1.3026523590087891e-01 4.8461690545082092e-01</leafValues></_>
        <_>
          <internalNodes>
            0 -1 235 -1.4378312975168228e-02</internalNodes>
          <leafValues>
            -6.4966958761215210e-01 1.1851882934570312e-01</leafValues></_>
        <_>
          <internalNodes>
            0 -1 79 3.9563942700624466e-02</internalNodes>
          <leafValues>
            -1.7981956899166107e-01 3.9983800053596497e-01</leafValues></_>
        <_>
          <internalNodes>
            0 -1 504 8.1088496372103691e-03</internalNodes>
          <leafValues>
            1.3179400563240051e-01 -5.4786592721939087e-01</leafValues></_>
        <_>
          <internalNodes>
            0 -1 538 -1.0324644390493631e-03</internalNodes>
          <leafValues>
            3.2598745822906494e-01 -2.0533947646617889e-01</leafValues></_>
        <_>
          <internalNodes>
            0 -1 589 7.6838550157845020e-03</internalNodes>
          <leafValues>
            -1.5017829835414886e-01 4.8871165513992310e-01</leafValues></_>
        <_>
          <internalNodes>
            0 -1 384 -1.2229455169290304e-03</internalNodes>
          <leafValues>
            4.6725153923034668e-01 -1.3062015175819397e-01</leafValues></_>
        <_>
          <internalNodes>
            0 -1 145 9.1729797422885895e-03</internalNodes>
          <leafValues>
            -1.4033688604831696e-01 4.7228422760963440e-01</leafValues></_>
        <_>
          <internalNodes>
            0 -1 491 7.4080837657675147e-04</internalNodes>
          <leafValues>
            -1.9419635832309723e-01 3.5272908210754395e-01</leafValues></_>
        <_>
          <internalNodes>
            0 -1 500 -3.3987493952736259e-04</internalNodes>
          <leafValues>
            3.8085597753524780e-01 -1.9170746207237244e-01</leafValues></_></weakClassifiers></_>
    <!-- stage 6 -->
    <_>
      <maxWeakCount>27</maxWeakCount>
      <stageThreshold>-9.3836283683776855e-01</stageThreshold>
      <weakClassifiers>
        <_>
          <internalNodes>
            0 -1 150 2.1397368982434273e-02</internalNodes>
          <leafValues>
            3.2746955752372742e-01 -6.8852460384368896e-01</leafValues></_>
        <_>
          <internalNodes>
            0 -1 412 -4.9774628132581711e-04</internalNodes>
          <leafValues>
            3.8236069679260254e-01 -2.1008978784084320e-01</leafValues></_>
        <_>
          <internalNodes>
            0 -1 136 -1.5976522117853165e-02</internalNodes>
          <leafValues>
            -4.9648252129554749e-01 1.4758448302745819e-01</leafValues></_>
        <_>
          <internalNodes>
            0 -1 536 -2.4747070856392384e-03</internalNodes>
          <leafValues>
            6.7977517843246460e-01 -1.2514047324657440e-01</leafValues></_>
        <_>
          <internalNodes>
            0 -1 193 3.4487777156755328e-04</internalNodes>
          <leafValues>
            -2.2209906578063965e-01 3.2373982667922974e-01</leafValues></_>
        <_>
          <internalNodes>
            0 -1 208 -6.0708646196871996e-04</internalNodes>
          <leafValues>
            4.7877359390258789e-01 -9.6770122647285461e-02</leafValues></_>
        <_>
          <internalNodes>
            0 -1 292 3.3076133113354445e-03</internalNodes>
          <leafValues>
            -1.7724175751209259e-01 3.8712719082832336e-01</leafValues></_>
        <_>
          <internalNodes>
            0 -1 345 1.0236182715743780e-03</internalNodes>
          <leafValues>
            -1.0497462749481201e-01 6.1922138929367065e-01</leafValues></_>
        <_>
          <internalNodes>
            0 -1 578 -1.9133817404508591e-03</internalNodes>
          <leafValues>
            3.6491975188255310e-01 -1.7098143696784973e-01</leafValues></_>
        <_>
          <internalNodes>
            0 -1 392 -5.7480195537209511e-03</internalNodes>
          <leafValues>
            -8.6098694801330566e-01 8.9033000171184540e-02</leafValues></_>
        <_>
          <internalNodes>
            0 -1 428 -1.3018077006563544e-03</internalNodes>
          <leafValues>
            3.4401983022689819e-01 -1.9681262969970703e-01</leafValues></_>
        <_>
          <internalNodes>
            0 -1 339 4.6398909762501717e-03</internalNodes>
          <leafValues>
            1.3228432834148407e-01 -5.0275105237960815e-01</leafValues></_>
        <_>
          <internalNodes>
            0 -1 389 8.0655571073293686e-03</internalNodes>
          <leafValues>
            1.1648017913103104e-01 -6.5334051847457886e-01</leafValues></_>
        <_>
          <internalNodes>
            0 -1 280 2.0369093399494886e-03</internalNodes>
          <leafValues>
            -1.5453426539897919e-01 4.9919238686561584e-01</leafValues></_>
        <_>
          <internalNodes>
            0 -1 240 -2.0882952958345413e-03</internalNodes>
          <leafValues>
            4.0610244870185852e-01 -1.8392603099346161e-01</leafValues></_>
        <_>
          <internalNodes>
            0 -1 37 -2.0862035453319550e-02</internalNodes>
          <leafValues>
            4.9500295519828796e-01 -1.2282129377126694e-01</leafValues></_>
        <_>
          <internalNodes>
            0 -1 31 -5.5054493248462677e-02</internalNodes>
          <leafValues>
            6.3210928440093994e-01 -1.0717678070068359e-01</leafValues></_>
        <_>
          <internalNodes>
            0 -1 317 2.8828833252191544e-02</internalNodes>
          <leafValues>
            1.2695959210395813e-01 -6.0835021734237671e-01</leafValues></_>
        <_>
          <internalNodes>
            0 -1 560 -5.6099437642842531e-04</internalNodes>
          <leafValues>
            4.6576666831970215e-01 -1.4479191601276398e-01</leafValues></_>
        <_>
          <internalNodes>
            0 -1 9 3.2568517781328410e-05</internalNodes>
          <leafValues>
            1.2489134818315506e-01 -5.1325213909149170e-01</leafValues></_>
        <_>
          <internalNodes>
            0 -1 41 -7.8062787652015686e-02</internalNodes>
          <leafValues>
            4.4497728347778320e-01 -1.3774479925632477e-01</leafValues></_>
        <_>
          <internalNodes>
            0 -1 381 -2.2975579486228526e-04</internalNodes>
          <leafValues>
            3.2209089398384094e-01 -1.9186249375343323e-01</leafValues></_>
        <_>
          <internalNodes>
            0 -1 178 -1.4768576249480247e-02</internalNodes>
          <leafValues>
            -7.7959465980529785e-01 9.1069065034389496e-02</leafValues></_>
        <_>
          <internalNodes>
            0 -1 568 -1.3740276917815208e-03</internalNodes>
          <leafValues>
            3.6413753032684326e-01 -1.7320106923580170e-01</leafValues></_>
        <_>
          <internalNodes>
            0 -1 332 -6.3458620570600033e-04</internalNodes>
          <leafValues>
            5.8029538393020630e-01 -9.7255967557430267e-02</leafValues></_>
        <_>
          <internalNodes>
            0 -1 57 -7.8824087977409363e-03</internalNodes>
          <leafValues>
            -5.7829290628433228e-01 1.1475868523120880e-01</leafValues></_>
        <_>
          <internalNodes>
            0 -1 284 1.8747944850474596e-03</internalNodes>
          <leafValues>
            8.1224732100963593e-02 -6.9274872541427612e-01</leafValues></_></weakClassifiers></_>
    <!-- stage 7 -->
    <_>
      <maxWeakCount>30</maxWeakCount>
      <stageThreshold>-9.4125324487686157e-01</stageThreshold>
      <weakClassifiers>
        <_>
          <internalNodes>
            0 -1 255 6.2454626895487309e-03</internalNodes>
          <leafValues>
            -3.6630036775022745e-03 5.1600509881973267e-01</leafValues></_>
        <_>
          <internalNodes>
            0 -1 403 4.4924262911081314e-03</internalNodes>
          <leafValues>
            -1.2756493687629700e-01 5.9477150440216064e-01</leafValues></_>
        <_>
          <internalNodes>
            0 -1 485 1.2678265338763595e-03</internalNodes>
          <leafValues>
            -2.4543061852455139e-01 3.0918678641319275e-01</leafValues></_>
        <_>
          <internalNodes>
            0 -1 195 2.6337524875998497e-02</internalNodes>
          <leafValues>
            1.0986018925905228e-01 -5.5216109752655029e-01</leafValues></_>
        <_>
          <internalNodes>
            0 -1 363 1.3664863072335720e-03</internalNodes>
          <leafValues>
            -1.0229764878749847e-01 4.7022745013237000e-01</leafValues></_>
        <_>
          <internalNodes>
            0 -1 329 -1.6065690433606505e-03</internalNodes>
          <leafValues>
            3.9237603545188904e-01 -1.9629424810409546e-01</leafValues></_>
        <_>
          <internalNodes>
            0 -1 433 -3.6189280217513442e-04</internalNodes>
          <leafValues>
            -6.9561672210693359e-01 1.1245118826627731e-01</leafValues></_>
        <_>
          <internalNodes>
            0 -1 464 8.6710631148889661e-04</internalNodes>
          <leafValues>
            -1.3984799385070801e-01 4.2879843711853027e-01</leafValues></_>
        <_>
          <internalNodes>
            0 -1 201 4.6987151727080345e-03</internalNodes>
          <leafValues>
            7.2153367102146149e-02 -8.0397218465805054e-01</leafValues></_>
        <_>
          <internalNodes>
            0 -1 247 1.3390909880399704e-03</internalNodes>
          <leafValues>
            -1.5249215066432953e-01 4.0128344297409058e-01</leafValues></_>
        <_>
          <internalNodes>
            0 -1 228 -3.6689033731818199e-04</internalNodes>
          <leafValues>
            3.5071739554405212e-01 -2.5357392430305481e-01</leafValues></_>
        <_>
          <internalNodes>
            0 -1 413 2.5742910802364349e-03</internalNodes>
          <leafValues>
            1.0087402909994125e-01 -7.3640286922454834e-01</leafValues></_>
        <_>
          <internalNodes>
            0 -1 517 2.8191768797114491e-04</internalNodes>
          <leafValues>
            -1.7480894923210144e-01 3.6643844842910767e-01</leafValues></_>
        <_>
          <internalNodes>
            0 -1 243 3.1003118492662907e-03</internalNodes>
          <leafValues>
            -2.1173857152462006e-01 3.0038630962371826e-01</leafValues></_>
        <_>
          <internalNodes>
            0 -1 379 3.0797333456575871e-03</internalNodes>
          <leafValues>
            -1.7322197556495667e-01 4.7132661938667297e-01</leafValues></_>
        <_>
          <internalNodes>
            0 -1 340 -7.6860077679157257e-03</internalNodes>
          <leafValues>
            -4.9989384412765503e-01 1.6170050203800201e-01</leafValues></_>
        <_>
          <internalNodes>
            0 -1 273 7.0191249251365662e-03</internalNodes>
          <leafValues>
            1.0413350909948349e-01 -6.0909974575042725e-01</leafValues></_>
        <_>
          <internalNodes>
            0 -1 152 -4.2798565700650215e-03</internalNodes>
          <leafValues>
            6.1599248647689819e-01 -1.2638497352600098e-01</leafValues></_>
        <_>
          <internalNodes>
            0 -1 432 4.6448470675386488e-04</internalNodes>
          <leafValues>
            -1.3924130797386169e-01 4.3533575534820557e-01</leafValues></_>
        <_>
          <internalNodes>
            0 -1 155 -6.2170987948775291e-03</internalNodes>
          <leafValues>
            4.9324312806129456e-01 -1.2119244039058685e-01</leafValues></_>
        <_>
          <internalNodes>
            0 -1 202 1.2708237394690514e-02</internalNodes>
          <leafValues>
            -1.4308960735797882e-01 5.1661533117294312e-01</leafValues></_>
        <_>
          <internalNodes>
            0 -1 172 -1.2395178899168968e-02</internalNodes>
          <leafValues>
            3.9435228705406189e-01 -1.5069726109504700e-01</leafValues></_>
        <_>
          <internalNodes>
            0 -1 103 2.7683850377798080e-02</internalNodes>
          <leafValues>
            -1.4917430281639099e-01 4.2967408895492554e-01</leafValues></_>
        <_>
          <internalNodes>
            0 -1 253 -6.5170164452865720e-04</internalNodes>
          <leafValues>
            5.7070064544677734e-01 -9.7402073442935944e-02</leafValues></_>
        <_>
          <internalNodes>
            0 -1 130 1.2606076896190643e-02</internalNodes>
          <leafValues>
            1.0023624449968338e-01 -6.8388289213180542e-01</leafValues></_>
        <_>
          <internalNodes>
            0 -1 387 -8.4733366966247559e-03</internalNodes>
          <leafValues>
            3.6775740981101990e-01 -1.8775169551372528e-01</leafValues></_>
        <_>
          <internalNodes>
            0 -1 144 -2.7418157085776329e-02</internalNodes>
          <leafValues>
            5.4680210351943970e-01 -1.1374551802873611e-01</leafValues></_>
        <_>
          <internalNodes>
            0 -1 168 -1.7621658742427826e-02</internalNodes>
          <leafValues>
            -8.2220816612243652e-01 8.8388077914714813e-02</leafValues></_>
        <_>
          <internalNodes>
            0 -1 362 6.2392168911173940e-04</internalNodes>
          <leafValues>
            -1.0341429710388184e-01 7.1627694368362427e-01</leafValues></_>
        <_>
          <internalNodes>
            0 -1 468 -5.1692628767341375e-04</internalNodes>
          <leafValues>
            -5.9933322668075562e-01 1.3046856224536896e-01</leafValues></_></weakClassifiers></_>
    <!-- stage 8 -->
    <_>
      <maxWeakCount>31</maxWeakCount>
      <stageThreshold>-1.0043656826019287e+00</stageThreshold>
      <weakClassifiers>
        <_>
          <internalNodes>
            0 -1 116 1.9354604184627533e-02</internalNodes>
          <leafValues>
            3.2738503813743591e-01 -5.3846156597137451e-01</leafValues></_>
        <_>
          <internalNodes>
            0 -1 539 6.1841751448810101e-03</internalNodes>
          <leafValues>
            -1.3241538405418396e-01 4.3978446722030640e-01</leafValues></_>
        <_>
          <internalNodes>
            0 -1 450 -7.8689809888601303e-03</internalNodes>
          <leafValues>
            4.2837572097778320e-01 -1.7143619060516357e-01</leafValues></_>
        <_>
          <internalNodes>
            0 -1 250 -2.1061343140900135e-03</internalNodes>
          <leafValues>
            4.7272491455078125e-01 -1.3473908603191376e-01</leafValues></_>
        <_>
          <internalNodes>
            0 -1 441 5.7980546262115240e-04</internalNodes>
          <leafValues>
            -1.6317331790924072e-01 4.1106846928596497e-01</leafValues></_>
        <_>
          <internalNodes>
            0 -1 151 1.4336459338665009e-02</internalNodes>
          <leafValues>
            9.9080748856067657e-02 -8.2173341512680054e-01</leafValues></_>
        <_>
          <internalNodes>
            0 -1 109 -1.1435876600444317e-02</internalNodes>
          <leafValues>
            4.1752865910530090e-01 -1.3850671052932739e-01</leafValues></_>
        <_>
          <internalNodes>
            0 -1 533 -3.1021816539578140e-04</internalNodes>
          <leafValues>
            3.8415360450744629e-01 -1.5048095583915710e-01</leafValues></_>
        <_>
          <internalNodes>
            0 -1 148 6.0365572571754456e-03</internalNodes>
          <leafValues>
            8.5728906095027924e-02 -5.7155901193618774e-01</leafValues></_>
        <_>
          <internalNodes>
            0 -1 200 5.7527329772710800e-04</internalNodes>
          <leafValues>
            -1.8051707744598389e-01 3.5613042116165161e-01</leafValues></_>
        <_>
          <internalNodes>
            0 -1 224 -8.9183785021305084e-03</internalNodes>
          <leafValues>
            -7.9951506853103638e-01 8.8810496032238007e-02</leafValues></_>
        <_>
          <internalNodes>
            0 -1 118 -2.0362206269055605e-03</internalNodes>
          <leafValues>
            3.1620579957962036e-01 -1.8932802975177765e-01</leafValues></_>
        <_>
          <internalNodes>
            0 -1 108 1.9190178718417883e-03</internalNodes>
          <leafValues>
            -1.9233261048793793e-01 3.7905210256576538e-01</leafValues></_>
        <_>
          <internalNodes>
            0 -1 543 -1.4797302428632975e-03</internalNodes>
          <leafValues>
            -6.7511987686157227e-01 8.7549731135368347e-02</leafValues></_>
        <_>
          <internalNodes>
            0 -1 531 2.2192508913576603e-03</internalNodes>
          <leafValues>
            -1.5423870086669922e-01 3.9262330532073975e-01</leafValues></_>
        <_>
          <internalNodes>
            0 -1 386 -1.6588533762842417e-03</internalNodes>
          <leafValues>
            -6.5724188089370728e-01 1.0578785836696625e-01</leafValues></_>
        <_>
          <internalNodes>
            0 -1 519 -1.7008529976010323e-02</internalNodes>
          <leafValues>
            3.4830054640769958e-01 -1.7519070208072662e-01</leafValues></_>
        <_>
          <internalNodes>
            0 -1 74 -1.1201648414134979e-01</internalNodes>
          <leafValues>
            -6.1413395404815674e-01 9.5429442822933197e-02</leafValues></_>
        <_>
          <internalNodes>
            0 -1 361 -1.0036670137196779e-03</internalNodes>
          <leafValues>
            -7.8078305721282959e-01 6.5642409026622772e-02</leafValues></_>
        <_>
          <internalNodes>
            0 -1 551 -3.8603425491601229e-04</internalNodes>
          <leafValues>
            3.2796579599380493e-01 -1.8179048597812653e-01</leafValues></_>
        <_>
          <internalNodes>
            0 -1 68 6.5092239528894424e-03</internalNodes>
          <leafValues>
            -1.4397363364696503e-01 4.4861778616905212e-01</leafValues></_>
        <_>
          <internalNodes>
            0 -1 65 1.0507416725158691e-01</internalNodes>
          <leafValues>
            -1.2636098265647888e-01 4.9520906805992126e-01</leafValues></_>
        <_>
          <internalNodes>
            0 -1 94 -6.3743524253368378e-02</internalNodes>
          <leafValues>
            5.6646519899368286e-01 -1.0865505039691925e-01</leafValues></_>
        <_>
          <internalNodes>
            0 -1 477 -6.7262246739119291e-04</internalNodes>
          <leafValues>
            3.2770663499832153e-01 -1.6342978179454803e-01</leafValues></_>
        <_>
          <internalNodes>
            0 -1 512 1.3344011968001723e-03</internalNodes>
          <leafValues>
            -1.5082953870296478e-01 4.3196097016334534e-01</leafValues></_>
        <_>
          <internalNodes>
            0 -1 40 -2.9078353691147640e-05</internalNodes>
          <leafValues>
            -3.7399089336395264e-01 1.8308424949645996e-01</leafValues></_>
        <_>
          <internalNodes>
            0 -1 334 7.5319278985261917e-03</internalNodes>
          <leafValues>
            -1.0880647599697113e-01 5.5122882127761841e-01</leafValues></_>
        <_>
          <internalNodes>
            0 -1 167 -3.9865583181381226e-02</internalNodes>
          <leafValues>
            -6.5832108259201050e-01 9.8012477159500122e-02</leafValues></_>
        <_>
          <internalNodes>
            0 -1 192 3.9979550638236105e-04</internalNodes>
          <leafValues>
            -1.4812561869621277e-01 4.4824954867362976e-01</leafValues></_>
        <_>
          <internalNodes>
            0 -1 76 1.2420438230037689e-02</internalNodes>
          <leafValues>
            9.6193067729473114e-02 -6.9726473093032837e-01</leafValues></_>
        <_>
          <internalNodes>
            0 -1 549 6.4839248079806566e-04</internalNodes>
          <leafValues>
            -1.5301777422428131e-01 4.1896930336952209e-01</leafValues></_></weakClassifiers></_>
    <!-- stage 9 -->
    <_>
      <maxWeakCount>28</maxWeakCount>
      <stageThreshold>-8.8498312234878540e-01</stageThreshold>
      <weakClassifiers>
        <_>
          <internalNodes>
            0 -1 313 4.8245326615869999e-03</internalNodes>
          <leafValues>
            3.2601234316825867e-01 -5.2447551488876343e-01</leafValues></_>
        <_>
          <internalNodes>
            0 -1 271 2.2075637243688107e-03</internalNodes>
          <leafValues>
            -2.1247898042201996e-01 3.4473040699958801e-01</leafValues></_>
        <_>
          <internalNodes>
            0 -1 305 -1.2821792624890804e-03</internalNodes>
          <leafValues>
            3.8220751285552979e-01 -1.8596468865871429e-01</leafValues></_>
        <_>
          <internalNodes>
            0 -1 481 1.8637182656675577e-03</internalNodes>
          <leafValues>
            9.7235180437564850e-02 -5.8371710777282715e-01</leafValues></_>
        <_>
          <internalNodes>
            0 -1 391 -1.5443348092958331e-04</internalNodes>
          <leafValues>
            -4.4412207603454590e-01 1.4645335078239441e-01</leafValues></_>
        <_>
          <internalNodes>
            0 -1 307 1.7899175873026252e-04</internalNodes>
          <leafValues>
            9.3889564275741577e-02 -4.8391363024711609e-01</leafValues></_>
        <_>
          <internalNodes>
            0 -1 352 -1.4819678617641330e-03</internalNodes>
          <leafValues>
            7.7649569511413574e-01 -6.8877555429935455e-02</leafValues></_>
        <_>
          <internalNodes>
            0 -1 394 -3.5396537277847528e-03</internalNodes>
          <leafValues>
            2.9314902424812317e-01 -2.1072246134281158e-01</leafValues></_>
        <_>
          <internalNodes>
            0 -1 388 1.3807564973831177e-03</internalNodes>
          <leafValues>
            -1.9731920957565308e-01 3.2023224234580994e-01</leafValues></_>
        <_>
          <internalNodes>
            0 -1 143 -9.6955355256795883e-03</internalNodes>
          <leafValues>
            -8.6925882101058960e-01 6.1279617249965668e-02</leafValues></_>
        <_>
          <internalNodes>
            0 -1 330 8.0846808850765228e-04</internalNodes>
          <leafValues>
            -9.7093924880027771e-02 6.4473158121109009e-01</leafValues></_>
        <_>
          <internalNodes>
            0 -1 478 -1.4972407370805740e-03</internalNodes>
          <leafValues>
            -5.8538436889648438e-01 1.1038240790367126e-01</leafValues></_>
        <_>
          <internalNodes>
            0 -1 239 -1.0105978697538376e-02</internalNodes>
          <leafValues>
            -8.5383003950119019e-01 5.9340074658393860e-02</leafValues></_>
        <_>
          <internalNodes>
            0 -1 343 -1.6408871859312057e-02</internalNodes>
          <leafValues>
            -7.1898216009140015e-01 6.9263637065887451e-02</leafValues></_>
        <_>
          <internalNodes>
            0 -1 85 -1.1329248809488490e-04</internalNodes>
          <leafValues>
            -4.4372490048408508e-01 1.1689792573451996e-01</leafValues></_>
        <_>
          <internalNodes>
            0 -1 555 -2.2737104445695877e-03</internalNodes>
          <leafValues>
            4.3255379796028137e-01 -1.3730719685554504e-01</leafValues></_>
        <_>
          <internalNodes>
            0 -1 283 -4.5417557703331113e-04</internalNodes>
          <leafValues>
            2.9345589876174927e-01 -1.7699278891086578e-01</leafValues></_>
        <_>
          <internalNodes>
            0 -1 408 3.9931881474331021e-04</internalNodes>
          <leafValues>
            9.2228241264820099e-02 -6.1841410398483276e-01</leafValues></_>
        <_>
          <internalNodes>
            0 -1 70 -2.4004258215427399e-02</internalNodes>
          <leafValues>
            -8.0904465913772583e-01 5.6894604116678238e-02</leafValues></_>
        <_>
          <internalNodes>
            0 -1 156 1.5419013798236847e-03</internalNodes>
          <leafValues>
            -2.1843597292900085e-01 2.8838211297988892e-01</leafValues></_>
        <_>
          <internalNodes>
            0 -1 179 -2.3874104954302311e-03</internalNodes>
          <leafValues>
            3.9490920305252075e-01 -1.7073403298854828e-01</leafValues></_>
        <_>
          <internalNodes>
            0 -1 14 -6.6580440034158528e-05</internalNodes>
          <leafValues>
            -3.7322315573692322e-01 1.5469783544540405e-01</leafValues></_>
        <_>
          <internalNodes>
            0 -1 1 -3.6474091757554561e-05</internalNodes>
          <leafValues>
            -4.8814657330513000e-01 1.0031805932521820e-01</leafValues></_>
        <_>
          <internalNodes>
            0 -1 62 7.4281871318817139e-02</internalNodes>
          <leafValues>
            -8.8912852108478546e-02 6.2753599882125854e-01</leafValues></_>
        <_>
          <internalNodes>
            0 -1 92 -2.5708526372909546e-02</internalNodes>
          <leafValues>
            3.6231812834739685e-01 -1.6192799806594849e-01</leafValues></_>
        <_>
          <internalNodes>
            0 -1 484 5.0794810522347689e-04</internalNodes>
          <leafValues>
            -7.5394876301288605e-02 6.5720981359481812e-01</leafValues></_>
        <_>
          <internalNodes>
            0 -1 259 8.2651097327470779e-03</internalNodes>
          <leafValues>
            9.6210502088069916e-02 -6.7584866285324097e-01</leafValues></_>
        <_>
          <internalNodes>
            0 -1 569 1.4440855011343956e-03</internalNodes>
          <leafValues>
            -9.8484717309474945e-02 6.2809187173843384e-01</leafValues></_></weakClassifiers></_>
    <!-- stage 10 -->
    <_>
      <maxWeakCount>33</maxWeakCount>
      <stageThreshold>-8.8345891237258911e-01</stageThreshold>
      <weakClassifiers>
        <_>
          <internalNodes>
            0 -1 124 -1.2579779140651226e-02</internalNodes>
          <leafValues>
            -5.5555558204650879e-01 3.1886023283004761e-01</leafValues></_>
        <_>
          <internalNodes>
            0 -1 115 5.5229850113391876e-03</internalNodes>
          <leafValues>
            2.0253397524356842e-01 -3.4749323129653931e-01</leafValues></_>
        <_>
          <internalNodes>
            0 -1 423 1.0886160889640450e-03</internalNodes>
          <leafValues>
            -1.6017904877662659e-01 4.4643655419349670e-01</leafValues></_>
        <_>
          <internalNodes>
            0 -1 393 8.4797391900792718e-04</internalNodes>
          <leafValues>
            -2.2778987884521484e-01 2.4508738517761230e-01</leafValues></_>
        <_>
          <internalNodes>
            0 -1 206 1.4305189251899719e-02</internalNodes>
          <leafValues>
            9.4516932964324951e-02 -6.1240410804748535e-01</leafValues></_>
        <_>
          <internalNodes>
            0 -1 358 3.1569672282785177e-03</internalNodes>
          <leafValues>
            -1.3142506778240204e-01 4.9843224883079529e-01</leafValues></_>
        <_>
          <internalNodes>
            0 -1 506 2.0201340317726135e-02</internalNodes>
          <leafValues>
            5.1331475377082825e-02 -8.3876484632492065e-01</leafValues></_>
        <_>
          <internalNodes>
            0 -1 210 -9.4729848206043243e-03</internalNodes>
          <leafValues>
            4.3499547243118286e-01 -1.2429404258728027e-01</leafValues></_>
        <_>
          <internalNodes>
            0 -1 521 -2.0814172923564911e-02</internalNodes>
          <leafValues>
            -7.8580838441848755e-01 7.8274279832839966e-02</leafValues></_>
        <_>
          <internalNodes>
            0 -1 158 -2.7421932667493820e-02</internalNodes>
          <leafValues>
            -8.0823779106140137e-01 5.2618719637393951e-02</leafValues></_>
        <_>
          <internalNodes>
            0 -1 266 1.9119713688269258e-03</internalNodes>
          <leafValues>
            1.0021990537643433e-01 -4.8572069406509399e-01</leafValues></_>
        <_>
          <internalNodes>
            0 -1 474 -3.5689762444235384e-04</internalNodes>
          <leafValues>
            2.2236269712448120e-01 -2.2480818629264832e-01</leafValues></_>
        <_>
          <internalNodes>
            0 -1 100 -2.6059227529913187e-03</internalNodes>
          <leafValues>
            3.7433636188507080e-01 -1.3061551749706268e-01</leafValues></_>
        <_>
          <internalNodes>
            0 -1 33 2.9828739352524281e-03</internalNodes>
          <leafValues>
            -1.5901616215705872e-01 3.3826428651809692e-01</leafValues></_>
        <_>
          <internalNodes>
            0 -1 73 3.7134008016437292e-04</internalNodes>
          <leafValues>
            8.3459489047527313e-02 -6.3109642267227173e-01</leafValues></_>
        <_>
          <internalNodes>
            0 -1 587 -9.6357311122119427e-04</internalNodes>
          <leafValues>
            4.4442549347877502e-01 -1.2994445860385895e-01</leafValues></_>
        <_>
          <internalNodes>
            0 -1 32 2.1940302103757858e-02</internalNodes>
          <leafValues>
            -6.5164111554622650e-02 6.6346782445907593e-01</leafValues></_>
        <_>
          <internalNodes>
            0 -1 575 2.8856778517365456e-03</internalNodes>
          <leafValues>
            -7.8680157661437988e-02 6.1133414506912231e-01</leafValues></_>
        <_>
          <internalNodes>
            0 -1 421 -2.5453674606978893e-03</internalNodes>
          <leafValues>
            6.5727275609970093e-01 -7.4389956891536713e-02</leafValues></_>
        <_>
          <internalNodes>
            0 -1 534 8.9354184456169605e-04</internalNodes>
          <leafValues>
            1.0926354676485062e-01 -5.2002173662185669e-01</leafValues></_>
        <_>
          <internalNodes>
            0 -1 128 -2.7666129171848297e-02</internalNodes>
          <leafValues>
            -7.3953974246978760e-01 6.9845840334892273e-02</leafValues></_>
        <_>
          <internalNodes>
            0 -1 522 -3.5137910163030028e-04</internalNodes>
          <leafValues>
            2.7998408675193787e-01 -2.0574006438255310e-01</leafValues></_>
        <_>
          <internalNodes>
            0 -1 220 9.9296914413571358e-04</internalNodes>
          <leafValues>
            -1.3277401030063629e-01 4.0868693590164185e-01</leafValues></_>
        <_>
          <internalNodes>
            0 -1 182 -2.5447714142501354e-04</internalNodes>
          <leafValues>
            2.9886528849601746e-01 -1.8027503788471222e-01</leafValues></_>
        <_>
          <internalNodes>
            0 -1 525 -1.0744588449597359e-02</internalNodes>
          <leafValues>
            -6.6060769557952881e-01 8.1104405224323273e-02</leafValues></_>
        <_>
          <internalNodes>
            0 -1 191 4.3628565035760403e-03</internalNodes>
          <leafValues>
            -1.8229050934314728e-01 3.4666502475738525e-01</leafValues></_>
        <_>
          <internalNodes>
            0 -1 404 6.0029729502275586e-04</internalNodes>
          <leafValues>
            -1.1316045373678207e-01 4.7989457845687866e-01</leafValues></_>
        <_>
          <internalNodes>
            0 -1 344 1.3301176950335503e-03</internalNodes>
          <leafValues>
            -7.4652016162872314e-02 7.1606343984603882e-01</leafValues></_>
        <_>
          <internalNodes>
            0 -1 333 1.7462878022342920e-03</internalNodes>
          <leafValues>
            -1.2396702915430069e-01 4.0101248025894165e-01</leafValues></_>
        <_>
          <internalNodes>
            0 -1 23 -5.3331116214394569e-03</internalNodes>
          <leafValues>
            -6.9862210750579834e-01 8.8602863252162933e-02</leafValues></_>
        <_>
          <internalNodes>
            0 -1 75 2.2190690040588379e-02</internalNodes>
          <leafValues>
            6.7561738193035126e-02 -6.5501016378402710e-01</leafValues></_>
        <_>
          <internalNodes>
            0 -1 509 6.3781545031815767e-04</internalNodes>
          <leafValues>
            -8.3955571055412292e-02 7.2294056415557861e-01</leafValues></_>
        <_>
          <internalNodes>
            0 -1 161 2.2895955480635166e-03</internalNodes>
          <leafValues>
            1.6395466029644012e-01 -3.3832687139511108e-01</leafValues></_></weakClassifiers></_>
    <!-- stage 11 -->
    <_>
      <maxWeakCount>30</maxWeakCount>
      <stageThreshold>-9.1209381818771362e-01</stageThreshold>
      <weakClassifiers>
        <_>
          <internalNodes>
            0 -1 132 1.6511555761098862e-02</internalNodes>
          <leafValues>
            3.2426920533180237e-01 -5.9689921140670776e-01</leafValues></_>
        <_>
          <internalNodes>
            0 -1 452 -8.9639477664604783e-05</internalNodes>
          <leafValues>
            -4.7883903980255127e-01 1.5597000718116760e-01</leafValues></_>
        <_>
          <internalNodes>
            0 -1 482 -1.3152442406862974e-03</internalNodes>
          <leafValues>
            4.0415626764297485e-01 -1.4544190466403961e-01</leafValues></_>
        <_>
          <internalNodes>
            0 -1 265 -2.1713005844503641e-03</internalNodes>
          <leafValues>
            -5.8309453725814819e-01 8.2509621977806091e-02</leafValues></_>
        <_>
          <internalNodes>
            0 -1 18 3.5054232284892350e-05</internalNodes>
          <leafValues>
            1.0461384803056717e-01 -4.3979781866073608e-01</leafValues></_>
        <_>
          <internalNodes>
            0 -1 46 1.4873464591801167e-02</internalNodes>
          <leafValues>
            -1.7046688497066498e-01 4.0177369117736816e-01</leafValues></_>
        <_>
          <internalNodes>
            0 -1 270 6.8669747561216354e-03</internalNodes>
          <leafValues>
            1.7343470454216003e-01 -4.0203723311424255e-01</leafValues></_>
        <_>
          <internalNodes>
            0 -1 439 -2.5920937769114971e-03</internalNodes>
          <leafValues>
            5.2868032455444336e-01 -1.4060738682746887e-01</leafValues></_>
        <_>
          <internalNodes>
            0 -1 288 -8.4461662918329239e-03</internalNodes>
          <leafValues>
            3.9047205448150635e-01 -1.2480109930038452e-01</leafValues></_>
        <_>
          <internalNodes>
            0 -1 203 3.9556450210511684e-03</internalNodes>
          <leafValues>
            1.2131834775209427e-01 -4.6241536736488342e-01</leafValues></_>
        <_>
          <internalNodes>
            0 -1 260 2.2680913098156452e-03</internalNodes>
          <leafValues>
            -9.1858208179473877e-02 5.9160119295120239e-01</leafValues></_>
        <_>
          <internalNodes>
            0 -1 244 -4.4973980402573943e-04</internalNodes>
          <leafValues>
            2.3863378167152405e-01 -2.4989929795265198e-01</leafValues></_>
        <_>
          <internalNodes>
            0 -1 294 3.8514505140483379e-03</internalNodes>
          <leafValues>
            9.2633470892906189e-02 -6.5722906589508057e-01</leafValues></_>
        <_>
          <internalNodes>
            0 -1 526 -1.1728007346391678e-02</internalNodes>
          <leafValues>
            -4.8817470669746399e-01 1.0182382166385651e-01</leafValues></_>
        <_>
          <internalNodes>
            0 -1 19 -1.3719000853598118e-02</internalNodes>
          <leafValues>
            5.0588524341583252e-01 -1.1460515111684799e-01</leafValues></_>
        <_>
          <internalNodes>
            0 -1 123 1.6641847789287567e-02</internalNodes>
          <leafValues>
            8.0220155417919159e-02 -7.8536915779113770e-01</leafValues></_>
        <_>
          <internalNodes>
            0 -1 487 -2.2811177186667919e-03</internalNodes>
          <leafValues>
            2.9287236928939819e-01 -1.8675601482391357e-01</leafValues></_>
        <_>
          <internalNodes>
            0 -1 4 9.0970583260059357e-03</internalNodes>
          <leafValues>
            -1.0537065565586090e-01 5.0194728374481201e-01</leafValues></_>
        <_>
          <internalNodes>
            0 -1 87 1.8588222155813128e-04</internalNodes>
          <leafValues>
            1.2014166265726089e-01 -4.9165347218513489e-01</leafValues></_>
        <_>
          <internalNodes>
            0 -1 518 -4.8240995965898037e-04</internalNodes>
          <leafValues>
            -5.2061933279037476e-01 9.8603449761867523e-02</leafValues></_>
        <_>
          <internalNodes>
            0 -1 443 -1.7818955238908529e-03</internalNodes>
          <leafValues>
            3.5059759020805359e-01 -1.5312159061431885e-01</leafValues></_>
        <_>
          <internalNodes>
            0 -1 455 -8.7389175314456224e-04</internalNodes>
          <leafValues>
            2.7361306548118591e-01 -2.4839094281196594e-01</leafValues></_>
        <_>
          <internalNodes>
            0 -1 559 -8.2439405377954245e-04</internalNodes>
          <leafValues>
            4.0681016445159912e-01 -1.4930558204650879e-01</leafValues></_>
        <_>
          <internalNodes>
            0 -1 445 -6.3167308690026402e-04</internalNodes>
          <leafValues>
            -7.0458203554153442e-01 9.0078487992286682e-02</leafValues></_>
        <_>
          <internalNodes>
            0 -1 52 1.3931496068835258e-02</internalNodes>
          <leafValues>
            -1.1361757665872574e-01 5.6672012805938721e-01</leafValues></_>
        <_>
          <internalNodes>
            0 -1 311 -1.7035324126482010e-03</internalNodes>
          <leafValues>
            3.4149146080017090e-01 -1.5594898164272308e-01</leafValues></_>
        <_>
          <internalNodes>
            0 -1 465 -1.5816639643162489e-04</internalNodes>
          <leafValues>
            3.0117639899253845e-01 -1.9936536252498627e-01</leafValues></_>
        <_>
          <internalNodes>
            0 -1 476 1.8515005649533123e-04</internalNodes>
          <leafValues>
            -1.3687899708747864e-01 3.8894459605216980e-01</leafValues></_>
        <_>
          <internalNodes>
            0 -1 433 7.0211663842201233e-04</internalNodes>
          <leafValues>
            7.6389104127883911e-02 -7.9794073104858398e-01</leafValues></_>
        <_>
          <internalNodes>
            0 -1 492 2.6325481012463570e-03</internalNodes>
          <leafValues>
            -1.4488488435745239e-01 3.9687484502792358e-01</leafValues></_></weakClassifiers></_>
    <!-- stage 12 -->
    <_>
      <maxWeakCount>35</maxWeakCount>
      <stageThreshold>-8.9535373449325562e-01</stageThreshold>
      <weakClassifiers>
        <_>
          <internalNodes>
            0 -1 188 7.0520313456654549e-03</internalNodes>
          <leafValues>
            3.1600546836853027e-01 -4.4927537441253662e-01</leafValues></_>
        <_>
          <internalNodes>
            0 -1 336 1.7230503726750612e-04</internalNodes>
          <leafValues>
            1.4702335000038147e-01 -4.6570414304733276e-01</leafValues></_>
        <_>
          <internalNodes>
            0 -1 256 4.7632688656449318e-03</internalNodes>
          <leafValues>
            -2.2023820877075195e-01 2.3027497529983521e-01</leafValues></_>
        <_>
          <internalNodes>
            0 -1 377 3.8721747696399689e-03</internalNodes>
          <leafValues>
            -1.3033634424209595e-01 3.9915204048156738e-01</leafValues></_>
        <_>
          <internalNodes>
            0 -1 293 5.6914798915386200e-03</internalNodes>
          <leafValues>
            9.9794194102287292e-02 -6.2619560956954956e-01</leafValues></_>
        <_>
          <internalNodes>
            0 -1 279 -1.4261161908507347e-02</internalNodes>
          <leafValues>
            5.2252340316772461e-01 -1.1353918164968491e-01</leafValues></_>
        <_>
          <internalNodes>
            0 -1 276 2.3535159416496754e-03</internalNodes>
          <leafValues>
            -2.5447544455528259e-01 2.3609168827533722e-01</leafValues></_>
        <_>
          <internalNodes>
            0 -1 149 7.0480839349329472e-03</internalNodes>
          <leafValues>
            -9.5411546528339386e-02 5.8263659477233887e-01</leafValues></_>
        <_>
          <internalNodes>
            0 -1 107 4.1059307754039764e-02</internalNodes>
          <leafValues>
            -1.1229492723941803e-01 3.8295128941535950e-01</leafValues></_>
        <_>
          <internalNodes>
            0 -1 222 1.2186506763100624e-02</internalNodes>
          <leafValues>
            5.9731312096118927e-02 -8.5569459199905396e-01</leafValues></_>
        <_>
          <internalNodes>
            0 -1 237 -5.4766505490988493e-04</internalNodes>
          <leafValues>
            2.7624794840812683e-01 -1.8625122308731079e-01</leafValues></_>
        <_>
          <internalNodes>
            0 -1 96 -9.8493304103612900e-03</internalNodes>
          <leafValues>
            -3.5911586880683899e-01 1.3980907201766968e-01</leafValues></_>
        <_>
          <internalNodes>
            0 -1 8 2.2249765606829897e-05</internalNodes>
          <leafValues>
            9.8431691527366638e-02 -4.2055922746658325e-01</leafValues></_>
        <_>
          <internalNodes>
            0 -1 479 1.8856526585295796e-03</internalNodes>
          <leafValues>
            -1.1132000386714935e-01 4.2571955919265747e-01</leafValues></_>
        <_>
          <internalNodes>
            0 -1 315 -1.9680371508002281e-02</internalNodes>
          <leafValues>
            -7.1611559391021729e-01 6.9722622632980347e-02</leafValues></_>
        <_>
          <internalNodes>
            0 -1 353 1.0330453515052795e-03</internalNodes>
          <leafValues>
            -1.1310353130102158e-01 4.4060310721397400e-01</leafValues></_>
        <_>
          <internalNodes>
            0 -1 564 -2.0196372643113136e-03</internalNodes>
          <leafValues>
            3.9336097240447998e-01 -1.1345425993204117e-01</leafValues></_>
        <_>
          <internalNodes>
            0 -1 580 -2.0062886178493500e-03</internalNodes>
          <leafValues>
            4.2059013247489929e-01 -1.2116654962301254e-01</leafValues></_>
        <_>
          <internalNodes>
            0 -1 82 -1.4497496886178851e-04</internalNodes>
          <leafValues>
            -3.7963610887527466e-01 1.3823075592517853e-01</leafValues></_>
        <_>
          <internalNodes>
            0 -1 78 -4.7357041388750076e-02</internalNodes>
          <leafValues>
            3.6609819531440735e-01 -1.2898635864257812e-01</leafValues></_>
        <_>
          <internalNodes>
            0 -1 576 1.3211188837885857e-02</internalNodes>
          <leafValues>
            -1.3901002705097198e-01 4.0727475285530090e-01</leafValues></_>
        <_>
          <internalNodes>
            0 -1 454 6.7582735791802406e-03</internalNodes>
          <leafValues>
            9.4855040311813354e-02 -5.9325933456420898e-01</leafValues></_>
        <_>
          <internalNodes>
            0 -1 554 -2.2704689763486385e-03</internalNodes>
          <leafValues>
            3.3831241726875305e-01 -1.5602253377437592e-01</leafValues></_>
        <_>
          <internalNodes>
            0 -1 494 -1.5562411863356829e-03</internalNodes>
          <leafValues>
            2.4990035593509674e-01 -1.9199147820472717e-01</leafValues></_>
        <_>
          <internalNodes>
            0 -1 380 2.5633757468312979e-03</internalNodes>
          <leafValues>
            -8.8963404297828674e-02 6.1233425140380859e-01</leafValues></_>
        <_>
          <internalNodes>
            0 -1 127 2.2580783814191818e-02</internalNodes>
          <leafValues>
            8.2190372049808502e-02 -6.9529986381530762e-01</leafValues></_>
        <_>
          <internalNodes>
            0 -1 42 -3.8123004138469696e-02</internalNodes>
          <leafValues>
            5.1625311374664307e-01 -1.1848255246877670e-01</leafValues></_>
        <_>
          <internalNodes>
            0 -1 64 2.6041861623525620e-02</internalNodes>
          <leafValues>
            -1.5081506967544556e-01 3.7092685699462891e-01</leafValues></_>
        <_>
          <internalNodes>
            0 -1 104 -1.2852826155722141e-02</internalNodes>
          <leafValues>
            3.6137670278549194e-01 -1.3182163238525391e-01</leafValues></_>
        <_>
          <internalNodes>
            0 -1 135 1.1141415685415268e-02</internalNodes>
          <leafValues>
            -1.4041224122047424e-01 3.6904937028884888e-01</leafValues></_>
        <_>
          <internalNodes>
            0 -1 371 2.3465636186301708e-03</internalNodes>
          <leafValues>
            -8.3164222538471222e-02 5.8429425954818726e-01</leafValues></_>
        <_>
          <internalNodes>
            0 -1 463 -5.4165918845683336e-04</internalNodes>
          <leafValues>
            2.7851879596710205e-01 -1.9892111420631409e-01</leafValues></_>
        <_>
          <internalNodes>
            0 -1 524 1.2770991306751966e-03</internalNodes>
          <leafValues>
            -1.6564466059207916e-01 3.0106756091117859e-01</leafValues></_>
        <_>
          <internalNodes>
            0 -1 338 3.1699938699603081e-03</internalNodes>
          <leafValues>
            7.1415416896343231e-02 -6.8723952770233154e-01</leafValues></_>
        <_>
          <internalNodes>
            0 -1 471 -8.9393332600593567e-03</internalNodes>
          <leafValues>
            -7.2982811927795410e-01 5.3667731583118439e-02</leafValues></_></weakClassifiers></_>
    <!-- stage 13 -->
    <_>
      <maxWeakCount>35</maxWeakCount>
      <stageThreshold>-8.2143044471740723e-01</stageThreshold>
      <weakClassifiers>
        <_>
          <internalNodes>
            0 -1 36 -6.9066854193806648e-03</internalNodes>
          <leafValues>
            -3.4375000000000000e-01 3.3096590638160706e-01</leafValues></_>
        <_>
          <internalNodes>
            0 -1 166 -3.7149330601096153e-03</internalNodes>
          <leafValues>
            4.6880683302879333e-01 -1.0770548880100250e-01</leafValues></_>
        <_>
          <internalNodes>
            0 -1 157 5.3278952836990356e-03</internalNodes>
          <leafValues>
            -1.4536890387535095e-01 4.3875715136528015e-01</leafValues></_>
        <_>
          <internalNodes>
            0 -1 444 -4.0097458986565471e-04</internalNodes>
          <leafValues>
            -6.2249594926834106e-01 8.0339379608631134e-02</leafValues></_>
        <_>
          <internalNodes>
            0 -1 131 5.1826229318976402e-03</internalNodes>
          <leafValues>
            9.5716752111911774e-02 -4.8328980803489685e-01</leafValues></_>
        <_>
          <internalNodes>
            0 -1 355 1.2725968845188618e-03</internalNodes>
          <leafValues>
            -1.5766270458698273e-01 2.9859241843223572e-01</leafValues></_>
        <_>
          <internalNodes>
            0 -1 374 -8.4151339251548052e-04</internalNodes>
          <leafValues>
            3.6436650156974792e-01 -1.6684412956237793e-01</leafValues></_>
        <_>
          <internalNodes>
            0 -1 385 2.3268600925803185e-02</internalNodes>
          <leafValues>
            -1.3935828208923340e-01 4.0194272994995117e-01</leafValues></_>
        <_>
          <internalNodes>
            0 -1 102 2.3862246423959732e-02</internalNodes>
          <leafValues>
            -1.0466508567333221e-01 4.4740447402000427e-01</leafValues></_>
        <_>
          <internalNodes>
            0 -1 335 -2.2275219671428204e-03</internalNodes>
          <leafValues>
            -5.9647840261459351e-01 7.5651153922080994e-02</leafValues></_>
        <_>
          <internalNodes>
            0 -1 153 4.1067935526371002e-03</internalNodes>
          <leafValues>
            6.9743901491165161e-02 -8.4428048133850098e-01</leafValues></_>
        <_>
          <internalNodes>
            0 -1 544 2.1018441766500473e-03</internalNodes>
          <leafValues>
            8.8619038462638855e-02 -5.2456682920455933e-01</leafValues></_>
        <_>
          <internalNodes>
            0 -1 134 -2.3697502911090851e-02</internalNodes>
          <leafValues>
            5.7451182603836060e-01 -8.2620881497859955e-02</leafValues></_>
        <_>
          <internalNodes>
            0 -1 553 1.2971832184121013e-03</internalNodes>
          <leafValues>
            -1.3772594928741455e-01 3.8038125634193420e-01</leafValues></_>
        <_>
          <internalNodes>
            0 -1 5 1.7936304211616516e-02</internalNodes>
          <leafValues>
            -9.6375383436679840e-02 4.9115639925003052e-01</leafValues></_>
        <_>
          <internalNodes>
            0 -1 574 -9.4808766152709723e-04</internalNodes>
          <leafValues>
            3.0724355578422546e-01 -1.3821451365947723e-01</leafValues></_>
        <_>
          <internalNodes>
            0 -1 226 -5.3010211559012532e-05</internalNodes>
          <leafValues>
            -3.2115501165390015e-01 1.3559120893478394e-01</leafValues></_>
        <_>
          <internalNodes>
            0 -1 312 -2.9641720466315746e-03</internalNodes>
          <leafValues>
            -5.8576333522796631e-01 8.5187420248985291e-02</leafValues></_>
        <_>
          <internalNodes>
            0 -1 252 1.7963705584406853e-02</internalNodes>
          <leafValues>
            6.1576392501592636e-02 -7.0086032152175903e-01</leafValues></_>
        <_>
          <internalNodes>
            0 -1 297 4.6420786529779434e-03</internalNodes>
          <leafValues>
            -1.6513474285602570e-01 3.4633520245552063e-01</leafValues></_>
        <_>
          <internalNodes>
            0 -1 324 -6.0692867264151573e-03</internalNodes>
          <leafValues>
            5.5983936786651611e-01 -1.0680293291807175e-01</leafValues></_>
        <_>
          <internalNodes>
            0 -1 425 -6.8098970223218203e-04</internalNodes>
          <leafValues>
            2.5727859139442444e-01 -1.9376614689826965e-01</leafValues></_>
        <_>
          <internalNodes>
            0 -1 80 -9.8844408057630062e-04</internalNodes>
          <leafValues>
            2.7558413147926331e-01 -1.8964360654354095e-01</leafValues></_>
        <_>
          <internalNodes>
            0 -1 268 5.4907361045479774e-03</internalNodes>
          <leafValues>
            -1.4234673976898193e-01 3.7065747380256653e-01</leafValues></_>
        <_>
          <internalNodes>
            0 -1 537 1.7214452847838402e-02</internalNodes>
          <leafValues>
            7.3725029826164246e-02 -8.0598169565200806e-01</leafValues></_>
        <_>
          <internalNodes>
            0 -1 238 -7.5079961679875851e-03</internalNodes>
          <leafValues>
            -4.4242113828659058e-01 1.1400912702083588e-01</leafValues></_>
        <_>
          <internalNodes>
            0 -1 473 -4.0448427898809314e-04</internalNodes>
          <leafValues>
            1.9988310337066650e-01 -2.5303909182548523e-01</leafValues></_>
        <_>
          <internalNodes>
            0 -1 147 -8.0902408808469772e-03</internalNodes>
          <leafValues>
            3.8781934976577759e-01 -1.4233072102069855e-01</leafValues></_>
        <_>
          <internalNodes>
            0 -1 319 -8.3201741799712181e-03</internalNodes>
          <leafValues>
            5.4748487472534180e-01 -9.6032962203025818e-02</leafValues></_>
        <_>
          <internalNodes>
            0 -1 232 4.3356546666473150e-04</internalNodes>
          <leafValues>
            -2.0585361123085022e-01 2.5990369915962219e-01</leafValues></_>
        <_>
          <internalNodes>
            0 -1 582 -1.2855781242251396e-03</internalNodes>
          <leafValues>
            3.7958738207817078e-01 -1.4655047655105591e-01</leafValues></_>
        <_>
          <internalNodes>
            0 -1 216 -1.7844334244728088e-02</internalNodes>
          <leafValues>
            5.3337168693542480e-01 -9.5047302544116974e-02</leafValues></_>
        <_>
          <internalNodes>
            0 -1 436 3.0456429813057184e-03</internalNodes>
          <leafValues>
            9.8677746951580048e-02 -6.0289049148559570e-01</leafValues></_>
        <_>
          <internalNodes>
            0 -1 291 2.1508242934942245e-03</internalNodes>
          <leafValues>
            -2.2024908661842346e-01 2.6046356558799744e-01</leafValues></_>
        <_>
          <internalNodes>
            0 -1 24 5.6629996834089980e-06</internalNodes>
          <leafValues>
            1.9524346292018890e-01 -2.6944983005523682e-01</leafValues></_></weakClassifiers></_>
    <!-- stage 14 -->
    <_>
      <maxWeakCount>32</maxWeakCount>
      <stageThreshold>-6.2654834985733032e-01</stageThreshold>
      <weakClassifiers>
        <_>
          <internalNodes>
            0 -1 54 -1.9631495699286461e-02</internalNodes>
          <leafValues>
            -8.2456141710281372e-01 2.8969541192054749e-01</leafValues></_>
        <_>
          <internalNodes>
            0 -1 366 6.1672489391639829e-04</internalNodes>
          <leafValues>
            1.0871201008558273e-01 -4.4879117608070374e-01</leafValues></_>
        <_>
          <internalNodes>
            0 -1 316 4.9623576924204826e-03</internalNodes>
          <leafValues>
            -1.5281113982200623e-01 2.9742407798767090e-01</leafValues></_>
        <_>
          <internalNodes>
            0 -1 372 -3.4354571253061295e-03</internalNodes>
          <leafValues>
            -5.5313324928283691e-01 7.3324002325534821e-02</leafValues></_>
        <_>
          <internalNodes>
            0 -1 254 4.9377875402569771e-03</internalNodes>
          <leafValues>
            -1.6573643684387207e-01 2.5774383544921875e-01</leafValues></_>
        <_>
          <internalNodes>
            0 -1 378 1.9875110592693090e-03</internalNodes>
          <leafValues>
            -1.9052891433238983e-01 4.1574624180793762e-01</leafValues></_>
        <_>
          <internalNodes>
            0 -1 233 2.0894734188914299e-03</internalNodes>
          <leafValues>
            1.8146826326847076e-01 -3.2631576061248779e-01</leafValues></_>
        <_>
          <internalNodes>
            0 -1 50 -9.7346231341362000e-02</internalNodes>
          <leafValues>
            5.5702036619186401e-01 -6.6537536680698395e-02</leafValues></_>
        <_>
          <internalNodes>
            0 -1 213 -5.5321389809250832e-03</internalNodes>
          <leafValues>
            3.3509826660156250e-01 -1.5364040434360504e-01</leafValues></_>
        <_>
          <internalNodes>
            0 -1 395 -4.2696529999375343e-03</internalNodes>
          <leafValues>
            -8.7868446111679077e-01 4.6589724719524384e-02</leafValues></_>
        <_>
          <internalNodes>
            0 -1 501 -1.1788886040449142e-03</internalNodes>
          <leafValues>
            3.2789552211761475e-01 -1.5624064207077026e-01</leafValues></_>
        <_>
          <internalNodes>
            0 -1 415 -1.8508646171540022e-03</internalNodes>
          <leafValues>
            -6.8592000007629395e-01 7.2170950472354889e-02</leafValues></_>
        <_>
          <internalNodes>
            0 -1 20 -1.5079416334629059e-04</internalNodes>
          <leafValues>
            -3.7532570958137512e-01 1.2069985270500183e-01</leafValues></_>
        <_>
          <internalNodes>
            0 -1 217 -4.3455106788314879e-04</internalNodes>
          <leafValues>
            3.0525884032249451e-01 -1.4848805963993073e-01</leafValues></_>
        <_>
          <internalNodes>
            0 -1 322 8.0825609620660543e-04</internalNodes>
          <leafValues>
            -6.3234128057956696e-02 7.9054641723632812e-01</leafValues></_>
        <_>
          <internalNodes>
            0 -1 63 1.4839013107120991e-02</internalNodes>
          <leafValues>
            -8.4274925291538239e-02 4.6056059002876282e-01</leafValues></_>
        <_>
          <internalNodes>
            0 -1 263 2.2629522718489170e-03</internalNodes>
          <leafValues>
            7.3786050081253052e-02 -6.6986769437789917e-01</leafValues></_>
        <_>
          <internalNodes>
            0 -1 571 -5.9074452146887779e-03</internalNodes>
          <leafValues>
            8.4155970811843872e-01 -6.2585063278675079e-02</leafValues></_>
        <_>
          <internalNodes>
            0 -1 514 2.4169005919247866e-03</internalNodes>
          <leafValues>
            -1.7293973267078400e-01 2.5738722085952759e-01</leafValues></_>
        <_>
          <internalNodes>
            0 -1 498 2.3127635940909386e-03</internalNodes>
          <leafValues>
            -1.1117570102214813e-01 4.7394138574600220e-01</leafValues></_>
        <_>
          <internalNodes>
            0 -1 113 -1.9877191632986069e-02</internalNodes>
          <leafValues>
            4.0888941287994385e-01 -1.3085524737834930e-01</leafValues></_>
        <_>
          <internalNodes>
            0 -1 306 3.9290382119361311e-05</internalNodes>
          <leafValues>
            1.3059775531291962e-01 -4.0447828173637390e-01</leafValues></_>
        <_>
          <internalNodes>
            0 -1 314 1.4273659326136112e-02</internalNodes>
          <leafValues>
            5.9242583811283112e-02 -8.6855381727218628e-01</leafValues></_>
        <_>
          <internalNodes>
            0 -1 251 -1.4172648079693317e-02</internalNodes>
          <leafValues>
            -6.5595519542694092e-01 6.0928706079721451e-02</leafValues></_>
        <_>
          <internalNodes>
            0 -1 3 -1.2862952644354664e-05</internalNodes>
          <leafValues>
            -2.7000713348388672e-01 1.7488233745098114e-01</leafValues></_>
        <_>
          <internalNodes>
            0 -1 405 -7.2698267176747322e-03</internalNodes>
          <leafValues>
            4.0330418944358826e-01 -1.2536484003067017e-01</leafValues></_>
        <_>
          <internalNodes>
            0 -1 360 4.0283678099513054e-03</internalNodes>
          <leafValues>
            -1.3388608396053314e-01 3.8666015863418579e-01</leafValues></_>
        <_>
          <internalNodes>
            0 -1 45 -1.7188753932714462e-02</internalNodes>
          <leafValues>
            -5.5106037855148315e-01 1.0440325736999512e-01</leafValues></_>
        <_>
          <internalNodes>
            0 -1 458 -1.0519897332414985e-03</internalNodes>
          <leafValues>
            2.1488569676876068e-01 -2.3572738468647003e-01</leafValues></_>
        <_>
          <internalNodes>
            0 -1 442 -8.5695404559373856e-03</internalNodes>
          <leafValues>
            -7.0923209190368652e-01 7.1336776018142700e-02</leafValues></_>
        <_>
          <internalNodes>
            0 -1 48 1.5049646608531475e-02</internalNodes>
          <leafValues>
            -1.0531515628099442e-01 5.2474415302276611e-01</leafValues></_>
        <_>
          <internalNodes>
            0 -1 159 1.9614905118942261e-02</internalNodes>
          <leafValues>
            -9.3827538192272186e-02 5.8080947399139404e-01</leafValues></_></weakClassifiers></_>
    <!-- stage 15 -->
    <_>
      <maxWeakCount>38</maxWeakCount>
      <stageThreshold>-8.7683248519897461e-01</stageThreshold>
      <weakClassifiers>
        <_>
          <internalNodes>
            0 -1 460 -4.5977983972989023e-05</internalNodes>
          <leafValues>
            -2.2068965435028076e-01 3.5419848561286926e-01</leafValues></_>
        <_>
          <internalNodes>
            0 -1 398 -1.4726615045219660e-03</internalNodes>
          <leafValues>
            3.3575239777565002e-01 -1.6522745788097382e-01</leafValues></_>
        <_>
          <internalNodes>
            0 -1 110 -5.4478056728839874e-02</internalNodes>
          <leafValues>
            -4.5441222190856934e-01 1.0065039247274399e-01</leafValues></_>
        <_>
          <internalNodes>
            0 -1 515 1.2020956724882126e-02</internalNodes>
          <leafValues>
            -8.0869130790233612e-02 5.1536184549331665e-01</leafValues></_>
        <_>
          <internalNodes>
            0 -1 234 4.5838812366127968e-04</internalNodes>
          <leafValues>
            7.4552968144416809e-02 -5.2829915285110474e-01</leafValues></_>
        <_>
          <internalNodes>
            0 -1 348 2.6711570098996162e-03</internalNodes>
          <leafValues>
            -2.2855392098426819e-01 2.3054333031177521e-01</leafValues></_>
        <_>
          <internalNodes>
            0 -1 274 9.5150843262672424e-03</internalNodes>
          <leafValues>
            1.3408103585243225e-01 -4.7310310602188110e-01</leafValues></_>
        <_>
          <internalNodes>
            0 -1 59 -7.0793535560369492e-03</internalNodes>
          <leafValues>
            2.8739684820175171e-01 -1.9233697652816772e-01</leafValues></_>
        <_>
          <internalNodes>
            0 -1 503 -8.7322695180773735e-03</internalNodes>
          <leafValues>
            -6.5049535036087036e-01 1.0118927061557770e-01</leafValues></_>
        <_>
          <internalNodes>
            0 -1 434 6.6963303834199905e-04</internalNodes>
          <leafValues>
            6.0803793370723724e-02 -6.0644739866256714e-01</leafValues></_>
        <_>
          <internalNodes>
            0 -1 77 8.1726564094424248e-03</internalNodes>
          <leafValues>
            -7.4308075010776520e-02 6.4338904619216919e-01</leafValues></_>
        <_>
          <internalNodes>
            0 -1 411 -2.7855671942234039e-04</internalNodes>
          <leafValues>
            -4.1604492068290710e-01 1.1418308317661285e-01</leafValues></_>
        <_>
          <internalNodes>
            0 -1 579 -5.7281996123492718e-04</internalNodes>
          <leafValues>
            3.7832573056221008e-01 -1.4178261160850525e-01</leafValues></_>
        <_>
          <internalNodes>
            0 -1 205 2.6048172265291214e-02</internalNodes>
          <leafValues>
            -1.2257040292024612e-01 3.9478066563606262e-01</leafValues></_>
        <_>
          <internalNodes>
            0 -1 585 1.1377551127225161e-03</internalNodes>
          <leafValues>
            -1.2421644479036331e-01 3.4349903464317322e-01</leafValues></_>
        <_>
          <internalNodes>
            0 -1 126 -1.2259235372766852e-03</internalNodes>
          <leafValues>
            3.8583436608314514e-01 -1.0921261459589005e-01</leafValues></_>
        <_>
          <internalNodes>
            0 -1 55 -1.0016206651926041e-02</internalNodes>
          <leafValues>
            6.8020772933959961e-01 -6.8400017917156219e-02</leafValues></_>
        <_>
          <internalNodes>
            0 -1 186 -2.5065878871828318e-03</internalNodes>
          <leafValues>
            -5.6080555915832520e-01 1.0000652074813843e-01</leafValues></_>
        <_>
          <internalNodes>
            0 -1 86 -1.3670678250491619e-02</internalNodes>
          <leafValues>
            5.8217453956604004e-01 -8.8857598602771759e-02</leafValues></_>
        <_>
          <internalNodes>
            0 -1 180 -1.5865331515669823e-03</internalNodes>
          <leafValues>
            3.1256496906280518e-01 -1.4468441903591156e-01</leafValues></_>
        <_>
          <internalNodes>
            0 -1 507 5.8816297678276896e-04</internalNodes>
          <leafValues>
            -1.5232408046722412e-01 3.2872876524925232e-01</leafValues></_>
        <_>
          <internalNodes>
            0 -1 47 -3.7648747675120831e-03</internalNodes>
          <leafValues>
            -6.9880557060241699e-01 6.8012997508049011e-02</leafValues></_>
        <_>
          <internalNodes>
            0 -1 163 -1.2911073863506317e-03</internalNodes>
          <leafValues>
            3.8954871892929077e-01 -1.1838316917419434e-01</leafValues></_>
        <_>
          <internalNodes>
            0 -1 527 -2.2051434498280287e-03</internalNodes>
          <leafValues>
            -5.2919918298721313e-01 9.8715059459209442e-02</leafValues></_>
        <_>
          <internalNodes>
            0 -1 486 -1.1672772467136383e-02</internalNodes>
          <leafValues>
            -9.1567683219909668e-01 4.5402515679597855e-02</leafValues></_>
        <_>
          <internalNodes>
            0 -1 211 -1.3844858585798647e-05</internalNodes>
          <leafValues>
            -3.0589666962623596e-01 1.4605157077312469e-01</leafValues></_>
        <_>
          <internalNodes>
            0 -1 545 1.8207158427685499e-03</internalNodes>
          <leafValues>
            -1.7470301687717438e-01 2.6050901412963867e-01</leafValues></_>
        <_>
          <internalNodes>
            0 -1 588 -1.3135453627910465e-04</internalNodes>
          <leafValues>
            2.4465803802013397e-01 -1.8657059967517853e-01</leafValues></_>
        <_>
          <internalNodes>
            0 -1 154 -7.3751769959926605e-03</internalNodes>
          <leafValues>
            3.5542458295822144e-01 -1.2884156405925751e-01</leafValues></_>
        <_>
          <internalNodes>
            0 -1 321 1.3926974497735500e-03</internalNodes>
          <leafValues>
            -9.3694053590297699e-02 4.8896694183349609e-01</leafValues></_>
        <_>
          <internalNodes>
            0 -1 586 3.5629275953397155e-04</internalNodes>
          <leafValues>
            -1.4125283062458038e-01 3.1969115138053894e-01</leafValues></_>
        <_>
          <internalNodes>
            0 -1 162 -9.7830037702806294e-05</internalNodes>
          <leafValues>
            2.4802236258983612e-01 -1.9212903082370758e-01</leafValues></_>
        <_>
          <internalNodes>
            0 -1 470 7.9386059951502830e-05</internalNodes>
          <leafValues>
            8.8540568947792053e-02 -5.3928864002227783e-01</leafValues></_>
        <_>
          <internalNodes>
            0 -1 69 2.0475178025662899e-03</internalNodes>
          <leafValues>
            6.4757771790027618e-02 -6.4736002683639526e-01</leafValues></_>
        <_>
          <internalNodes>
            0 -1 572 -1.1267384979873896e-03</internalNodes>
          <leafValues>
            3.0970317125320435e-01 -1.5087011456489563e-01</leafValues></_>
        <_>
          <internalNodes>
            0 -1 562 -1.5080049633979797e-02</internalNodes>
          <leafValues>
            -9.1229748725891113e-01 4.9225419759750366e-02</leafValues></_>
        <_>
          <internalNodes>
            0 -1 542 7.0743439719080925e-03</internalNodes>
          <leafValues>
            9.9736168980598450e-02 -4.4057953357696533e-01</leafValues></_>
        <_>
          <internalNodes>
            0 -1 56 6.6731991246342659e-03</internalNodes>
          <leafValues>
            8.3842180669307709e-02 -5.7284641265869141e-01</leafValues></_></weakClassifiers></_>
    <!-- stage 16 -->
    <_>
      <maxWeakCount>35</maxWeakCount>
      <stageThreshold>-7.2367900609970093e-01</stageThreshold>
      <weakClassifiers>
        <_>
          <internalNodes>
            0 -1 185 1.7490112222731113e-03</internalNodes>
          <leafValues>
            1.0672646015882492e-01 5.7938146591186523e-01</leafValues></_>
        <_>
          <internalNodes>
            0 -1 209 -3.3131949603557587e-03</internalNodes>
          <leafValues>
            -8.3291357755661011e-01 6.7706793546676636e-02</leafValues></_>
        <_>
          <internalNodes>
            0 -1 447 -1.1555003002285957e-03</internalNodes>
          <leafValues>
            7.9841792583465576e-01 -5.0293851643800735e-02</leafValues></_>
        <_>
          <internalNodes>
            0 -1 171 1.1861147359013557e-02</internalNodes>
          <leafValues>
            5.8513641357421875e-02 -6.1853933334350586e-01</leafValues></_>
        <_>
          <internalNodes>
            0 -1 111 1.7263678833842278e-02</internalNodes>
          <leafValues>
            6.2232319265604019e-02 -6.5753561258316040e-01</leafValues></_>
        <_>
          <internalNodes>
            0 -1 382 -4.8048282042145729e-03</internalNodes>
          <leafValues>
            4.3964919447898865e-01 -1.1843556910753250e-01</leafValues></_>
        <_>
          <internalNodes>
            0 -1 407 1.4498782344162464e-02</internalNodes>
          <leafValues>
            8.1156201660633087e-02 -4.8959416151046753e-01</leafValues></_>
        <_>
          <internalNodes>
            0 -1 532 7.8899209620431066e-04</internalNodes>
          <leafValues>
            -1.4698831737041473e-01 2.8019842505455017e-01</leafValues></_>
        <_>
          <internalNodes>
            0 -1 556 -7.6631089905276895e-04</internalNodes>
          <leafValues>
            2.6211857795715332e-01 -1.8642061948776245e-01</leafValues></_>
        <_>
          <internalNodes>
            0 -1 337 -7.6694069430232048e-03</internalNodes>
          <leafValues>
            3.0494436621665955e-01 -1.2740774452686310e-01</leafValues></_>
        <_>
          <internalNodes>
            0 -1 310 -3.7118066102266312e-02</internalNodes>
          <leafValues>
            3.9427542686462402e-01 -1.1286899447441101e-01</leafValues></_>
        <_>
          <internalNodes>
            0 -1 541 2.1757981739938259e-03</internalNodes>
          <leafValues>
            -8.5213005542755127e-02 4.1478464007377625e-01</leafValues></_>
        <_>
          <internalNodes>
            0 -1 72 -7.8886887058615685e-03</internalNodes>
          <leafValues>
            -9.3641525506973267e-01 5.1322814077138901e-02</leafValues></_>
        <_>
          <internalNodes>
            0 -1 453 -1.4316758140921593e-02</internalNodes>
          <leafValues>
            -6.7917734384536743e-01 4.1723735630512238e-02</leafValues></_>
        <_>
          <internalNodes>
            0 -1 278 4.2834910564124584e-03</internalNodes>
          <leafValues>
            -2.0920060575008392e-01 2.0859389007091522e-01</leafValues></_>
        <_>
          <internalNodes>
            0 -1 258 -1.5282925451174378e-03</internalNodes>
          <leafValues>
            4.8359850049018860e-01 -1.1937689036130905e-01</leafValues></_>
        <_>
          <internalNodes>
            0 -1 7 1.7098367607104592e-05</internalNodes>
          <leafValues>
            1.3408473134040833e-01 -3.2065293192863464e-01</leafValues></_>
        <_>
          <internalNodes>
            0 -1 418 -2.8556429315358400e-03</internalNodes>
          <leafValues>
            -5.3362447023391724e-01 7.1091219782829285e-02</leafValues></_>
        <_>
          <internalNodes>
            0 -1 584 -6.8931952118873596e-03</internalNodes>
          <leafValues>
            3.5239559412002563e-01 -1.1886199563741684e-01</leafValues></_>
        <_>
          <internalNodes>
            0 -1 140 -1.0078916326165199e-02</internalNodes>
          <leafValues>
            -5.6136792898178101e-01 7.5431019067764282e-02</leafValues></_>
        <_>
          <internalNodes>
            0 -1 236 7.3447159957140684e-04</internalNodes>
          <leafValues>
            9.2543423175811768e-02 -4.4269806146621704e-01</leafValues></_>
        <_>
          <internalNodes>
            0 -1 373 -8.1861799117177725e-06</internalNodes>
          <leafValues>
            2.2407232224941254e-01 -1.9650948047637939e-01</leafValues></_>
        <_>
          <internalNodes>
            0 -1 346 -1.1592593509703875e-03</internalNodes>
          <leafValues>
            5.1516550779342651e-01 -1.0000074654817581e-01</leafValues></_>
        <_>
          <internalNodes>
            0 -1 29 5.8689562138170004e-05</internalNodes>
          <leafValues>
            1.8304237723350525e-01 -2.5420743227005005e-01</leafValues></_>
        <_>
          <internalNodes>
            0 -1 21 -4.9216607585549355e-03</internalNodes>
          <leafValues>
            3.9623364806175232e-01 -1.1450084298849106e-01</leafValues></_>
        <_>
          <internalNodes>
            0 -1 71 1.1173563078045845e-02</internalNodes>
          <leafValues>
            1.0847141593694687e-01 -4.6554350852966309e-01</leafValues></_>
        <_>
          <internalNodes>
            0 -1 570 -1.3240514323115349e-02</internalNodes>
          <leafValues>
            -8.1717771291732788e-01 5.1415644586086273e-02</leafValues></_>
        <_>
          <internalNodes>
            0 -1 529 1.7122502904385328e-03</internalNodes>
          <leafValues>
            -1.2689357995986938e-01 3.9911174774169922e-01</leafValues></_>
        <_>
          <internalNodes>
            0 -1 183 -1.9110417924821377e-03</internalNodes>
          <leafValues>
            3.1944283843040466e-01 -1.4672693610191345e-01</leafValues></_>
        <_>
          <internalNodes>
            0 -1 112 6.8315281532704830e-03</internalNodes>
          <leafValues>
            1.1593847721815109e-01 -4.1348195075988770e-01</leafValues></_>
        <_>
          <internalNodes>
            0 -1 561 -2.0976518280804157e-03</internalNodes>
          <leafValues>
            4.6102172136306763e-01 -1.0563912987709045e-01</leafValues></_>
        <_>
          <internalNodes>
            0 -1 573 -6.8772479426115751e-04</internalNodes>
          <leafValues>
            2.7788463234901428e-01 -1.6373738646507263e-01</leafValues></_>
        <_>
          <internalNodes>
            0 -1 581 1.7664225306361914e-03</internalNodes>
          <leafValues>
            -1.3530507683753967e-01 4.3289956450462341e-01</leafValues></_>
        <_>
          <internalNodes>
            0 -1 557 1.1417811037972569e-05</internalNodes>
          <leafValues>
            1.7571468651294708e-01 -2.6506784558296204e-01</leafValues></_>
        <_>
          <internalNodes>
            0 -1 467 1.3180538080632687e-03</internalNodes>
          <leafValues>
            8.2349665462970734e-02 -5.6545102596282959e-01</leafValues></_></weakClassifiers></_>
    <!-- stage 17 -->
    <_>
      <maxWeakCount>44</maxWeakCount>
      <stageThreshold>-1.0464956760406494e+00</stageThreshold>
      <weakClassifiers>
        <_>
          <internalNodes>
            0 -1 416 -4.0066931396722794e-03</internalNodes>
          <leafValues>
            -5.7575756311416626e-01 3.0446368455886841e-01</leafValues></_>
        <_>
          <internalNodes>
            0 -1 390 -5.1904497668147087e-03</internalNodes>
          <leafValues>
            3.2189717888832092e-01 -1.3571378588676453e-01</leafValues></_>
        <_>
          <internalNodes>
            0 -1 221 2.3977113887667656e-03</internalNodes>
          <leafValues>
            -1.0318470001220703e-01 5.1408195495605469e-01</leafValues></_>
        <_>
          <internalNodes>
            0 -1 215 -9.0598466340452433e-04</internalNodes>
          <leafValues>
            3.1525206565856934e-01 -1.6350536048412323e-01</leafValues></_>
        <_>
          <internalNodes>
            0 -1 121 1.5339216217398643e-02</internalNodes>
          <leafValues>
            7.0081338286399841e-02 -5.8218890428543091e-01</leafValues></_>
        <_>
          <internalNodes>
            0 -1 510 1.3358508003875613e-03</internalNodes>
          <leafValues>
