<?xml version="1.0"?>
<opencv_storage>
<cascade>
  <stageType>BOOST</stageType>
  <featureType>HAAR</featureType>
  <height>40</height>
  <width>80</width>
  <stageParams>
    <boostType>GAB</boostType>
    <minHitRate>9.9900001287460327e-01</minHitRate>
    <maxFalseAlarm>5.0000000000000000e-01</maxFalseAlarm>
    <weightTrimRate>9.4999999999999996e-01</weightTrimRate>
    <maxDepth>1</maxDepth>
    <maxWeakCount>100</maxWeakCount></stageParams>
  <featureParams>
    <maxCatCount>0</maxCatCount>
    <featSize>1</featSize>
    <mode>ALL</mode></featureParams>
  <stageNum>20</stageNum>
  <stages>
    <!-- stage 0 -->
    <_>
      <maxWeakCount>12</maxWeakCount>
      <stageThreshold>-1.2670687437057495e+00</stageThreshold>
      <weakClassifiers>
        <_>
          <internalNodes>
            0 -1 246 6.3207708299160004e-03</internalNodes>
          <leafValues>
            -4.0983605384826660e-01 7.2658771276473999e-01</leafValues></_>
        <_>
          <internalNodes>
            0 -1 241 1.3263993896543980e-03</internalNodes>
          <leafValues>
            -1.6758160293102264e-01 8.0101853609085083e-01</leafValues></_>
        <_>
          <internalNodes>
            0 -1 240 -8.2586694043129683e-04</internalNodes>
          <leafValues>
            7.5764280557632446e-01 -1.7957124114036560e-01</leafValues></_>
        <_>
          <internalNodes>
            0 -1 118 -1.4876044355332851e-02</internalNodes>
          <leafValues>
            -9.4226390123367310e-01 1.9700872898101807e-01</leafValues></_>
        <_>
          <internalNodes>
            0 -1 203 6.4053041860461235e-03</internalNodes>
          <leafValues>
            2.0043453574180603e-01 -8.3639484643936157e-01</leafValues></_>
        <_>
          <internalNodes>
            0 -1 273 9.9286576732993126e-04</internalNodes>
          <leafValues>
            -3.2896238565444946e-01 6.2222981452941895e-01</leafValues></_>
        <_>
          <internalNodes>
            0 -1 312 5.7710898545337841e-05</internalNodes>
          <leafValues>
            -3.8718780875205994e-01 4.7512456774711609e-01</leafValues></_>
        <_>
          <internalNodes>
            0 -1 313 -4.6712797484360635e-04</internalNodes>
          <leafValues>
            7.6473820209503174e-01 -1.8509587645530701e-01</leafValues></_>
        <_>
          <internalNodes>
            0 -1 318 -1.6703981906175613e-02</internalNodes>
          <leafValues>
            7.8490370512008667e-01 -1.9631618261337280e-01</leafValues></_>
        <_>
          <internalNodes>
            0 -1 387 5.1570846699178219e-04</internalNodes>
          <leafValues>
            -1.8239390850067139e-01 7.9829764366149902e-01</leafValues></_>
        <_>
          <internalNodes>
            0 -1 164 -1.1863965541124344e-02</internalNodes>
          <leafValues>
            -8.6192584037780762e-01 2.0463095605373383e-01</leafValues></_>
        <_>
          <internalNodes>
            0 -1 90 -1.3404101133346558e-02</internalNodes>
          <leafValues>
            -7.5797891616821289e-01 1.6780214011669159e-01</leafValues></_></weakClassifiers></_>
    <!-- stage 1 -->
    <_>
      <maxWeakCount>7</maxWeakCount>
      <stageThreshold>-1.4032995700836182e+00</stageThreshold>
      <weakClassifiers>
        <_>
          <internalNodes>
            0 -1 249 1.1084465950261801e-04</internalNodes>
          <leafValues>
            -5.2122241258621216e-01 6.9930762052536011e-01</leafValues></_>
        <_>
          <internalNodes>
            0 -1 230 -3.8260719156824052e-04</internalNodes>
          <leafValues>
            8.0652999877929688e-01 -2.6960450410842896e-01</leafValues></_>
        <_>
          <internalNodes>
            0 -1 232 5.5461621377617121e-04</internalNodes>
          <leafValues>
            -3.1681832671165466e-01 7.9686039686203003e-01</leafValues></_>
        <_>
          <internalNodes>
            0 -1 251 8.6727680172771215e-04</internalNodes>
          <leafValues>
            -2.3990850150585175e-01 7.1355593204498291e-01</leafValues></_>
        <_>
          <internalNodes>
            0 -1 317 2.7550122467800975e-04</internalNodes>
          <leafValues>
            -2.6386758685112000e-01 7.9138207435607910e-01</leafValues></_>
        <_>
          <internalNodes>
            0 -1 315 -2.8772518271580338e-04</internalNodes>
          <leafValues>
            6.6507506370544434e-01 -2.9282745718955994e-01</leafValues></_>
        <_>
          <internalNodes>
            0 -1 308 1.7204551841132343e-04</internalNodes>
          <leafValues>
            -3.7526136636734009e-01 5.0094920396804810e-01</leafValues></_></weakClassifiers></_>
    <!-- stage 2 -->
    <_>
      <maxWeakCount>16</maxWeakCount>
      <stageThreshold>-1.4062179327011108e+00</stageThreshold>
      <weakClassifiers>
        <_>
          <internalNodes>
            0 -1 365 -4.1659288108348846e-03</internalNodes>
          <leafValues>
            5.6218904256820679e-01 -2.7731093764305115e-01</leafValues></_>
        <_>
          <internalNodes>
            0 -1 255 5.6199979735538363e-04</internalNodes>
          <leafValues>
            -1.9172073900699615e-01 7.8719586133956909e-01</leafValues></_>
        <_>
          <internalNodes>
            0 -1 313 3.0827865703031421e-04</internalNodes>
          <leafValues>
            -2.5779962539672852e-01 6.9342899322509766e-01</leafValues></_>
        <_>
          <internalNodes>
            0 -1 94 1.9138887524604797e-02</internalNodes>
          <leafValues>
            2.5407913327217102e-01 -7.5033235549926758e-01</leafValues></_>
        <_>
          <internalNodes>
            0 -1 214 1.3833746779710054e-03</internalNodes>
          <leafValues>
            -2.1990561485290527e-01 8.0298346281051636e-01</leafValues></_>
        <_>
          <internalNodes>
            0 -1 150 -8.4552203770726919e-04</internalNodes>
          <leafValues>
            6.3902866840362549e-01 -2.3618701100349426e-01</leafValues></_>
        <_>
          <internalNodes>
            0 -1 324 -1.0018797911470756e-04</internalNodes>
          <leafValues>
            -7.6667982339859009e-01 1.9326554238796234e-01</leafValues></_>
        <_>
          <internalNodes>
            0 -1 195 8.9980330085381866e-04</internalNodes>
          <leafValues>
            -2.1228536963462830e-01 7.6740998029708862e-01</leafValues></_>
        <_>
          <internalNodes>
            0 -1 357 -6.2877035816200078e-05</internalNodes>
          <leafValues>
            -6.1339890956878662e-01 2.7708646655082703e-01</leafValues></_>
        <_>
          <internalNodes>
            0 -1 309 -6.8022648338228464e-04</internalNodes>
          <leafValues>
            7.0019376277923584e-01 -2.8039392828941345e-01</leafValues></_>
        <_>
          <internalNodes>
            0 -1 215 3.5239339922554791e-04</internalNodes>
          <leafValues>
            -1.9837038218975067e-01 6.1216431856155396e-01</leafValues></_>
        <_>
          <internalNodes>
            0 -1 58 -6.7676596343517303e-02</internalNodes>
          <leafValues>
            6.9131737947463989e-01 -2.3581112921237946e-01</leafValues></_>
        <_>
          <internalNodes>
            0 -1 386 3.4515187144279480e-04</internalNodes>
          <leafValues>
            -1.4180664718151093e-01 6.6900110244750977e-01</leafValues></_>
        <_>
          <internalNodes>
            0 -1 359 -4.7680034185759723e-05</internalNodes>
          <leafValues>
            -7.2234648466110229e-01 2.0245166122913361e-01</leafValues></_>
        <_>
          <internalNodes>
            0 -1 414 8.6462823674082756e-04</internalNodes>
          <leafValues>
            -2.5515872240066528e-01 5.9714835882186890e-01</leafValues></_>
        <_>
          <internalNodes>
            0 -1 394 3.2330914109479636e-05</internalNodes>
          <leafValues>
            2.2173587977886200e-01 -6.2822902202606201e-01</leafValues></_></weakClassifiers></_>
    <!-- stage 3 -->
    <_>
      <maxWeakCount>19</maxWeakCount>
      <stageThreshold>-1.3282154798507690e+00</stageThreshold>
      <weakClassifiers>
        <_>
          <internalNodes>
            0 -1 277 -2.7776141650974751e-03</internalNodes>
          <leafValues>
            5.9533900022506714e-01 -2.4695122241973877e-01</leafValues></_>
        <_>
          <internalNodes>
            0 -1 183 9.4146665651351213e-04</internalNodes>
          <leafValues>
            -1.8550404906272888e-01 7.1587324142456055e-01</leafValues></_>
        <_>
          <internalNodes>
            0 -1 187 -1.3998968061059713e-03</internalNodes>
          <leafValues>
            8.0601394176483154e-01 -1.5776832401752472e-01</leafValues></_>
        <_>
          <internalNodes>
            0 -1 196 6.9076730869710445e-04</internalNodes>
          <leafValues>
            -1.9721019268035889e-01 5.4000526666641235e-01</leafValues></_>
        <_>
          <internalNodes>
            0 -1 289 -3.6582965549314395e-05</internalNodes>
          <leafValues>
            -6.7938661575317383e-01 1.6709963977336884e-01</leafValues></_>
        <_>
          <internalNodes>
            0 -1 289 3.6892961361445487e-05</internalNodes>
          <leafValues>
            1.9136841595172882e-01 -7.6158851385116577e-01</leafValues></_>
        <_>
          <internalNodes>
            0 -1 372 9.1564917238429189e-04</internalNodes>
          <leafValues>
            -2.3432432115077972e-01 6.4148831367492676e-01</leafValues></_>
        <_>
          <internalNodes>
            0 -1 311 8.9998496696352959e-04</internalNodes>
          <leafValues>
            -2.4476060271263123e-01 5.9401774406433105e-01</leafValues></_>
        <_>
          <internalNodes>
            0 -1 284 1.5318470832426101e-04</internalNodes>
          <leafValues>
            -1.8331629037857056e-01 5.1527345180511475e-01</leafValues></_>
        <_>
          <internalNodes>
            0 -1 47 -3.6153629422187805e-02</internalNodes>
          <leafValues>
            4.8224294185638428e-01 -2.5758296251296997e-01</leafValues></_>
        <_>
          <internalNodes>
            0 -1 369 -8.1980536924675107e-04</internalNodes>
          <leafValues>
            6.9419741630554199e-01 -1.6383664309978485e-01</leafValues></_>
        <_>
          <internalNodes>
            0 -1 408 -4.7989531594794244e-05</internalNodes>
          <leafValues>
            -6.7832797765731812e-01 2.0845881104469299e-01</leafValues></_>
        <_>
          <internalNodes>
            0 -1 413 1.4560703421011567e-03</internalNodes>
          <leafValues>
            -1.6384495794773102e-01 7.8002578020095825e-01</leafValues></_>
        <_>
          <internalNodes>
            0 -1 336 -5.8977038133889437e-04</internalNodes>
          <leafValues>
            5.5154371261596680e-01 -1.8264272809028625e-01</leafValues></_>
        <_>
          <internalNodes>
            0 -1 109 8.7786149233579636e-03</internalNodes>
          <leafValues>
            1.5835456550121307e-01 -7.8938168287277222e-01</leafValues></_>
        <_>
          <internalNodes>
            0 -1 221 2.7750963345170021e-02</internalNodes>
          <leafValues>
            -2.4693119525909424e-01 4.6238952875137329e-01</leafValues></_>
        <_>
          <internalNodes>
            0 -1 20 3.0981274903751910e-05</internalNodes>
          <leafValues>
            2.0992770791053772e-01 -5.3803330659866333e-01</leafValues></_>
        <_>
          <internalNodes>
            0 -1 305 -5.6275387760251760e-04</internalNodes>
          <leafValues>
            5.8842086791992188e-01 -1.8608593940734863e-01</leafValues></_>
        <_>
          <internalNodes>
            0 -1 302 6.1503946199081838e-05</internalNodes>
          <leafValues>
            -3.4685161709785461e-01 3.9265659451484680e-01</leafValues></_></weakClassifiers></_>
    <!-- stage 4 -->
    <_>
      <maxWeakCount>14</maxWeakCount>
      <stageThreshold>-9.7736304998397827e-01</stageThreshold>
      <weakClassifiers>
        <_>
          <internalNodes>
            0 -1 179 2.2284402512013912e-03</internalNodes>
          <leafValues>
            -2.5483304262161255e-01 5.2861297130584717e-01</leafValues></_>
        <_>
          <internalNodes>
            0 -1 279 -2.0681326277554035e-03</internalNodes>
          <leafValues>
            6.6422104835510254e-01 -1.7379328608512878e-01</leafValues></_>
        <_>
          <internalNodes>
            0 -1 235 -3.0955094844102859e-03</internalNodes>
          <leafValues>
            7.8033900260925293e-01 -1.3050343096256256e-01</leafValues></_>
        <_>
          <internalNodes>
            0 -1 295 1.5624961815774441e-04</internalNodes>
          <leafValues>
            2.0115645229816437e-01 -5.9231758117675781e-01</leafValues></_>
        <_>
          <internalNodes>
            0 -1 184 6.9107644958421588e-04</internalNodes>
          <leafValues>
            -2.8540086746215820e-01 4.6412968635559082e-01</leafValues></_>
        <_>
          <internalNodes>
            0 -1 121 -6.5489383414387703e-03</internalNodes>
          <leafValues>
            -8.4957182407379150e-01 1.6830439865589142e-01</leafValues></_>
        <_>
          <internalNodes>
            0 -1 351 -1.3363219797611237e-02</internalNodes>
          <leafValues>
            -5.8958351612091064e-01 1.6815648972988129e-01</leafValues></_>
        <_>
          <internalNodes>
            0 -1 320 3.9133138954639435e-02</internalNodes>
          <leafValues>
            1.4201530814170837e-01 -8.7647265195846558e-01</leafValues></_>
        <_>
          <internalNodes>
            0 -1 330 -5.4502836428582668e-03</internalNodes>
          <leafValues>
            2.9664033651351929e-01 -4.0511023998260498e-01</leafValues></_>
        <_>
          <internalNodes>
            0 -1 220 -4.9338184297084808e-02</internalNodes>
          <leafValues>
            6.5376198291778564e-01 -1.9464747607707977e-01</leafValues></_>
        <_>
          <internalNodes>
            0 -1 273 1.6098512569442391e-03</internalNodes>
          <leafValues>
            -1.5222118794918060e-01 5.7415252923965454e-01</leafValues></_>
        <_>
          <internalNodes>
            0 -1 165 -1.1583500541746616e-02</internalNodes>
          <leafValues>
            -6.5371704101562500e-01 1.4452497661113739e-01</leafValues></_>
        <_>
          <internalNodes>
            0 -1 430 1.4601380098611116e-04</internalNodes>
          <leafValues>
            1.6417518258094788e-01 -6.0067927837371826e-01</leafValues></_>
        <_>
          <internalNodes>
            0 -1 37 7.2002792730927467e-03</internalNodes>
          <leafValues>
            -2.2306005656719208e-01 5.1455223560333252e-01</leafValues></_></weakClassifiers></_>
    <!-- stage 5 -->
    <_>
      <maxWeakCount>18</maxWeakCount>
      <stageThreshold>-1.0672502517700195e+00</stageThreshold>
      <weakClassifiers>
        <_>
          <internalNodes>
            0 -1 370 6.0874910559505224e-04</internalNodes>
          <leafValues>
            -1.9607843831181526e-02 7.9584121704101562e-01</leafValues></_>
        <_>
          <internalNodes>
            0 -1 253 1.3243884313851595e-03</internalNodes>
          <leafValues>
            -1.7896494269371033e-01 6.3609480857849121e-01</leafValues></_>
        <_>
          <internalNodes>
            0 -1 254 1.2382809072732925e-03</internalNodes>
          <leafValues>
            -2.4448671936988831e-01 5.8499938249588013e-01</leafValues></_>
        <_>
          <internalNodes>
            0 -1 371 -1.0306427720934153e-03</internalNodes>
          <leafValues>
            6.5716081857681274e-01 -1.7043027281761169e-01</leafValues></_>
        <_>
          <internalNodes>
            0 -1 402 -6.8805622868239880e-04</internalNodes>
          <leafValues>
            5.0368708372116089e-01 -2.2742068767547607e-01</leafValues></_>
        <_>
          <internalNodes>
            0 -1 226 4.1272956877946854e-03</internalNodes>
          <leafValues>
            1.7818486690521240e-01 -6.4654463529586792e-01</leafValues></_>
        <_>
          <internalNodes>
            0 -1 418 -3.0780708766542375e-04</internalNodes>
          <leafValues>
            4.5746335387229919e-01 -2.7133595943450928e-01</leafValues></_>
        <_>
          <internalNodes>
            0 -1 207 -4.3819495476782322e-03</internalNodes>
          <leafValues>
            -7.9039943218231201e-01 1.8707096576690674e-01</leafValues></_>
        <_>
          <internalNodes>
            0 -1 46 -3.5147052258253098e-02</internalNodes>
          <leafValues>
            5.7947659492492676e-01 -2.2823518514633179e-01</leafValues></_>
        <_>
          <internalNodes>
            0 -1 427 4.5678843889618292e-05</internalNodes>
          <leafValues>
            -2.3948839306831360e-01 4.4337949156761169e-01</leafValues></_>
        <_>
          <internalNodes>
            0 -1 425 -5.6886445963755250e-04</internalNodes>
          <leafValues>
            5.9483611583709717e-01 -1.6173246502876282e-01</leafValues></_>
        <_>
          <internalNodes>
            0 -1 442 1.4649934018962085e-04</internalNodes>
          <leafValues>
            -3.7752926349639893e-01 2.7604225277900696e-01</leafValues></_>
        <_>
          <internalNodes>
            0 -1 424 1.5257596969604492e-03</internalNodes>
          <leafValues>
            -1.6938497126102448e-01 5.9097552299499512e-01</leafValues></_>
        <_>
          <internalNodes>
            0 -1 222 1.2984604109078646e-04</internalNodes>
          <leafValues>
            2.0259860157966614e-01 -5.3491216897964478e-01</leafValues></_>
        <_>
          <internalNodes>
            0 -1 334 1.2618214823305607e-03</internalNodes>
          <leafValues>
            -1.9724775850772858e-01 5.3938966989517212e-01</leafValues></_>
        <_>
          <internalNodes>
            0 -1 96 -1.9441420212388039e-02</internalNodes>
          <leafValues>
            -9.6728610992431641e-01 1.2939509749412537e-01</leafValues></_>
        <_>
          <internalNodes>
            0 -1 363 2.0742616616189480e-03</internalNodes>
          <leafValues>
            -1.8503500521183014e-01 6.2149983644485474e-01</leafValues></_>
        <_>
          <internalNodes>
            0 -1 155 8.4816152229905128e-03</internalNodes>
          <leafValues>
            -2.2309891879558563e-01 5.0149923563003540e-01</leafValues></_></weakClassifiers></_>
    <!-- stage 6 -->
    <_>
      <maxWeakCount>20</maxWeakCount>
      <stageThreshold>-9.7818237543106079e-01</stageThreshold>
      <weakClassifiers>
        <_>
          <internalNodes>
            0 -1 231 3.3573289401829243e-03</internalNodes>
          <leafValues>
            5.9636991471052170e-02 7.4717831611633301e-01</leafValues></_>
        <_>
          <internalNodes>
            0 -1 337 3.6727730184793472e-04</internalNodes>
          <leafValues>
            -1.9132088124752045e-01 5.5685681104660034e-01</leafValues></_>
        <_>
          <internalNodes>
            0 -1 313 6.8746152101084590e-04</internalNodes>
          <leafValues>
            -1.9933925569057465e-01 5.5726718902587891e-01</leafValues></_>
        <_>
          <internalNodes>
            0 -1 314 -5.7514698710292578e-04</internalNodes>
          <leafValues>
            4.8997256159782410e-01 -2.1845333278179169e-01</leafValues></_>
        <_>
          <internalNodes>
            0 -1 85 -6.2791253440082073e-03</internalNodes>
          <leafValues>
            -7.2161889076232910e-01 1.5864780545234680e-01</leafValues></_>
        <_>
          <internalNodes>
            0 -1 9 2.1776573732495308e-02</internalNodes>
          <leafValues>
            -1.7132337391376495e-01 5.2770876884460449e-01</leafValues></_>
        <_>
          <internalNodes>
            0 -1 329 8.3557955804280937e-05</internalNodes>
          <leafValues>
            1.3965779542922974e-01 -6.1810398101806641e-01</leafValues></_>
        <_>
          <internalNodes>
            0 -1 146 2.2529819980263710e-03</internalNodes>
          <leafValues>
            -1.5026417374610901e-01 6.2460887432098389e-01</leafValues></_>
        <_>
          <internalNodes>
            0 -1 428 -3.9404012262821198e-02</internalNodes>
          <leafValues>
            -6.2074315547943115e-01 1.2935733795166016e-01</leafValues></_>
        <_>
          <internalNodes>
            0 -1 161 -1.2665708782151341e-03</internalNodes>
          <leafValues>
            5.2434968948364258e-01 -1.7630571126937866e-01</leafValues></_>
        <_>
          <internalNodes>
            0 -1 126 1.9399242475628853e-02</internalNodes>
          <leafValues>
            1.2845452129840851e-01 -8.5994863510131836e-01</leafValues></_>
        <_>
          <internalNodes>
            0 -1 178 -1.4676565304398537e-02</internalNodes>
          <leafValues>
            3.4965088963508606e-01 -2.4645349383354187e-01</leafValues></_>
        <_>
          <internalNodes>
            0 -1 27 5.6921500712633133e-02</internalNodes>
          <leafValues>
            -1.5876188874244690e-01 4.9580782651901245e-01</leafValues></_>
        <_>
          <internalNodes>
            0 -1 145 -6.6857947967946529e-03</internalNodes>
          <leafValues>
            -8.3112859725952148e-01 9.3626245856285095e-02</leafValues></_>
        <_>
          <internalNodes>
            0 -1 133 7.5290678068995476e-03</internalNodes>
          <leafValues>
            8.9869752526283264e-02 -7.9947131872177124e-01</leafValues></_>
        <_>
          <internalNodes>
            0 -1 197 2.7760057710111141e-03</internalNodes>
          <leafValues>
            -1.3903374969959259e-01 7.1526306867599487e-01</leafValues></_>
        <_>
          <internalNodes>
            0 -1 236 6.9386779796332121e-04</internalNodes>
          <leafValues>
            -1.9807249307632446e-01 3.5474553704261780e-01</leafValues></_>
        <_>
          <internalNodes>
            0 -1 139 -5.8590248227119446e-03</internalNodes>
          <leafValues>
            -7.4352580308914185e-01 1.1541686952114105e-01</leafValues></_>
        <_>
          <internalNodes>
            0 -1 281 -4.1254266398027539e-04</internalNodes>
          <leafValues>
            3.5913091897964478e-01 -2.2636871039867401e-01</leafValues></_>
        <_>
          <internalNodes>
            0 -1 287 1.5882556908763945e-04</internalNodes>
          <leafValues>
            -2.4099484086036682e-01 3.8351809978485107e-01</leafValues></_></weakClassifiers></_>
    <!-- stage 7 -->
    <_>
      <maxWeakCount>27</maxWeakCount>
      <stageThreshold>-1.1193132400512695e+00</stageThreshold>
      <weakClassifiers>
        <_>
          <internalNodes>
            0 -1 266 8.9495602878741920e-05</internalNodes>
          <leafValues>
            3.6564505100250244e-01 -5.7360404729843140e-01</leafValues></_>
        <_>
          <internalNodes>
            0 -1 271 -3.2000578939914703e-03</internalNodes>
          <leafValues>
            5.6738376617431641e-01 -1.7543372511863708e-01</leafValues></_>
        <_>
          <internalNodes>
            0 -1 340 3.6030565388500690e-04</internalNodes>
          <leafValues>
            -1.8442435562610626e-01 4.5903494954109192e-01</leafValues></_>
        <_>
          <internalNodes>
            0 -1 328 -6.3468393636867404e-04</internalNodes>
          <leafValues>
            5.1016253232955933e-01 -1.7444396018981934e-01</leafValues></_>
        <_>
          <internalNodes>
            0 -1 365 -4.1664876043796539e-03</internalNodes>
          <leafValues>
            2.1569930016994476e-01 -3.9558956027030945e-01</leafValues></_>
        <_>
          <internalNodes>
            0 -1 264 -4.5590099762193859e-04</internalNodes>
          <leafValues>
            -7.6735645532608032e-01 9.4950363039970398e-02</leafValues></_>
        <_>
          <internalNodes>
            0 -1 97 -6.5558915957808495e-03</internalNodes>
          <leafValues>
            -7.3063099384307861e-01 9.7234509885311127e-02</leafValues></_>
        <_>
          <internalNodes>
            0 -1 382 -6.6178070846945047e-04</internalNodes>
          <leafValues>
            5.1648968458175659e-01 -1.5313188731670380e-01</leafValues></_>
        <_>
          <internalNodes>
            0 -1 407 -3.4619275538716465e-05</internalNodes>
          <leafValues>
            -4.1163039207458496e-01 1.8672510981559753e-01</leafValues></_>
        <_>
          <internalNodes>
            0 -1 385 3.5616959212347865e-04</internalNodes>
          <leafValues>
            -1.5543481707572937e-01 4.8168140649795532e-01</leafValues></_>
        <_>
          <internalNodes>
            0 -1 53 -2.2754821926355362e-02</internalNodes>
          <leafValues>
            -7.1526747941970825e-01 1.0967428982257843e-01</leafValues></_>
        <_>
          <internalNodes>
            0 -1 414 1.0694819502532482e-03</internalNodes>
          <leafValues>
            -1.9244520366191864e-01 3.8719913363456726e-01</leafValues></_>
        <_>
          <internalNodes>
            0 -1 396 -8.5658760508522391e-04</internalNodes>
          <leafValues>
            -3.6696651577949524e-01 1.9152446091175079e-01</leafValues></_>
        <_>
          <internalNodes>
            0 -1 43 1.5094019472599030e-02</internalNodes>
          <leafValues>
            -1.5199112892150879e-01 5.1404708623886108e-01</leafValues></_>
        <_>
          <internalNodes>
            0 -1 373 2.1047454793006182e-03</internalNodes>
          <leafValues>
            -7.8533127903938293e-02 7.2866266965866089e-01</leafValues></_>
        <_>
          <internalNodes>
            0 -1 296 -7.4555398896336555e-05</internalNodes>
          <leafValues>
            -5.6338316202163696e-01 1.2890423834323883e-01</leafValues></_>
        <_>
          <internalNodes>
            0 -1 300 6.7961327731609344e-03</internalNodes>
          <leafValues>
            7.6635017991065979e-02 -8.8162720203399658e-01</leafValues></_>
        <_>
          <internalNodes>
            0 -1 2 -1.3113788736518472e-04</internalNodes>
          <leafValues>
            -6.0589927434921265e-01 1.0764364898204803e-01</leafValues></_>
        <_>
          <internalNodes>
            0 -1 416 6.5012346021831036e-04</internalNodes>
          <leafValues>
            -1.4429324865341187e-01 5.0810748338699341e-01</leafValues></_>
        <_>
          <internalNodes>
            0 -1 391 1.0688722832128406e-03</internalNodes>
          <leafValues>
            -1.5900324285030365e-01 4.5261728763580322e-01</leafValues></_>
        <_>
          <internalNodes>
            0 -1 1 5.5122800404205918e-05</internalNodes>
          <leafValues>
            1.4138779044151306e-01 -5.7649302482604980e-01</leafValues></_>
        <_>
          <internalNodes>
            0 -1 399 -8.8609685190021992e-04</internalNodes>
          <leafValues>
            5.0839066505432129e-01 -1.4420428872108459e-01</leafValues></_>
        <_>
          <internalNodes>
            0 -1 265 -4.6448176726698875e-03</internalNodes>
          <leafValues>
            -7.1848005056381226e-01 1.1152370274066925e-01</leafValues></_>
        <_>
          <internalNodes>
            0 -1 201 4.7032334841787815e-03</internalNodes>
          <leafValues>
            -1.6259679198265076e-01 4.5950832962989807e-01</leafValues></_>
        <_>
          <internalNodes>
            0 -1 32 -2.2025135159492493e-01</internalNodes>
          <leafValues>
            5.6694966554641724e-01 -1.5183211863040924e-01</leafValues></_>
        <_>
          <internalNodes>
            0 -1 61 4.8998761922121048e-03</internalNodes>
          <leafValues>
            -8.1171132624149323e-02 7.4356788396835327e-01</leafValues></_>
        <_>
          <internalNodes>
            0 -1 458 -7.9917476978152990e-04</internalNodes>
          <leafValues>
            3.7172269821166992e-01 -1.7406420409679413e-01</leafValues></_></weakClassifiers></_>
    <!-- stage 8 -->
    <_>
      <maxWeakCount>28</maxWeakCount>
      <stageThreshold>-1.0794403553009033e+00</stageThreshold>
      <weakClassifiers>
        <_>
          <internalNodes>
            0 -1 263 1.0323641821742058e-02</internalNodes>
          <leafValues>
            -1.5231788158416748e-01 4.9397590756416321e-01</leafValues></_>
        <_>
          <internalNodes>
            0 -1 122 4.9313914496451616e-04</internalNodes>
          <leafValues>
            -1.7495718598365784e-01 3.7647527456283569e-01</leafValues></_>
        <_>
          <internalNodes>
            0 -1 292 -6.2239290855359286e-05</internalNodes>
          <leafValues>
            -5.5448555946350098e-01 1.2513855099678040e-01</leafValues></_>
        <_>
          <internalNodes>
            0 -1 431 -4.9830055795609951e-03</internalNodes>
          <leafValues>
            2.9381331801414490e-01 -2.4650557339191437e-01</leafValues></_>
        <_>
          <internalNodes>
            0 -1 137 1.3652762863785028e-03</internalNodes>
          <leafValues>
            -1.4031827449798584e-01 4.9475115537643433e-01</leafValues></_>
        <_>
          <internalNodes>
            0 -1 390 -1.8468674272298813e-02</internalNodes>
          <leafValues>
            4.1845503449440002e-01 -1.8465247750282288e-01</leafValues></_>
        <_>
          <internalNodes>
            0 -1 238 1.9193264888599515e-03</internalNodes>
          <leafValues>
            -1.3313706219196320e-01 5.5576765537261963e-01</leafValues></_>
        <_>
          <internalNodes>
            0 -1 239 -4.5121094444766641e-04</internalNodes>
          <leafValues>
            4.2289549112319946e-01 -1.8329693377017975e-01</leafValues></_>
        <_>
          <internalNodes>
            0 -1 21 1.0428721085190773e-02</internalNodes>
          <leafValues>
            -1.5657457709312439e-01 4.7655552625656128e-01</leafValues></_>
        <_>
          <internalNodes>
            0 -1 141 7.7630383893847466e-03</internalNodes>
          <leafValues>
            1.1968096345663071e-01 -8.5903090238571167e-01</leafValues></_>
        <_>
          <internalNodes>
            0 -1 256 -1.8288217252120376e-03</internalNodes>
          <leafValues>
            7.2344237565994263e-01 -1.2838432192802429e-01</leafValues></_>
        <_>
          <internalNodes>
            0 -1 89 1.2869564816355705e-02</internalNodes>
          <leafValues>
            1.1186196655035019e-01 -8.1502234935760498e-01</leafValues></_>
        <_>
          <internalNodes>
            0 -1 22 -2.5760307908058167e-03</internalNodes>
          <leafValues>
            3.5385200381278992e-01 -1.9221307337284088e-01</leafValues></_>
        <_>
          <internalNodes>
            0 -1 237 -2.8102975338697433e-03</internalNodes>
          <leafValues>
            5.3217947483062744e-01 -1.2285728007555008e-01</leafValues></_>
        <_>
          <internalNodes>
            0 -1 252 -1.0948691051453352e-03</internalNodes>
          <leafValues>
            5.2419054508209229e-01 -1.3195946812629700e-01</leafValues></_>
        <_>
          <internalNodes>
            0 -1 366 7.1240356191992760e-03</internalNodes>
          <leafValues>
            1.2742590904235840e-01 -6.7520421743392944e-01</leafValues></_>
        <_>
          <internalNodes>
            0 -1 87 -1.5178096480667591e-02</internalNodes>
          <leafValues>
            4.7233262658119202e-01 -1.5781436860561371e-01</leafValues></_>
        <_>
          <internalNodes>
            0 -1 74 4.4722603633999825e-03</internalNodes>
          <leafValues>
            -1.9981919229030609e-01 4.0851333737373352e-01</leafValues></_>
        <_>
          <internalNodes>
            0 -1 348 -6.8932218709960580e-04</internalNodes>
          <leafValues>
            -6.1499357223510742e-01 1.2380690872669220e-01</leafValues></_>
        <_>
          <internalNodes>
            0 -1 389 8.5578142898157239e-04</internalNodes>
          <leafValues>
            -1.9707271456718445e-01 3.7605935335159302e-01</leafValues></_>
        <_>
          <internalNodes>
            0 -1 49 -1.5426282770931721e-02</internalNodes>
          <leafValues>
            -6.9578599929809570e-01 1.0783895850181580e-01</leafValues></_>
        <_>
          <internalNodes>
            0 -1 180 6.8799388827756047e-04</internalNodes>
          <leafValues>
            -2.0507483184337616e-01 3.3303263783454895e-01</leafValues></_>
        <_>
          <internalNodes>
            0 -1 98 1.1026776337530464e-04</internalNodes>
          <leafValues>
            -2.9863873124122620e-01 2.3122294247150421e-01</leafValues></_>
        <_>
          <internalNodes>
            0 -1 185 4.3076951988041401e-03</internalNodes>
          <leafValues>
            -8.8680647313594818e-02 7.2291660308837891e-01</leafValues></_>
        <_>
          <internalNodes>
            0 -1 104 -5.7852426543831825e-03</internalNodes>
          <leafValues>
            -6.4982640743255615e-01 1.1695387959480286e-01</leafValues></_>
        <_>
          <internalNodes>
            0 -1 105 1.0307747870683670e-02</internalNodes>
          <leafValues>
            7.2027713060379028e-02 -8.7289285659790039e-01</leafValues></_>
        <_>
          <internalNodes>
            0 -1 124 -3.7058643065392971e-03</internalNodes>
          <leafValues>
            5.6738698482513428e-01 -1.4651948213577271e-01</leafValues></_>
        <_>
          <internalNodes>
            0 -1 344 1.1759053450077772e-03</internalNodes>
          <leafValues>
            1.2364967912435532e-01 -6.1879175901412964e-01</leafValues></_></weakClassifiers></_>
    <!-- stage 9 -->
    <_>
      <maxWeakCount>30</maxWeakCount>
      <stageThreshold>-9.6919596195220947e-01</stageThreshold>
      <weakClassifiers>
        <_>
          <internalNodes>
            0 -1 136 -7.0968968793749809e-03</internalNodes>
          <leafValues>
            4.5072993636131287e-01 -1.8650794029235840e-01</leafValues></_>
        <_>
          <internalNodes>
            0 -1 233 4.5903436839580536e-03</internalNodes>
          <leafValues>
            -1.2857711315155029e-01 6.2466645240783691e-01</leafValues></_>
        <_>
          <internalNodes>
            0 -1 374 -1.8067209748551250e-03</internalNodes>
          <leafValues>
            8.0481982231140137e-01 -6.7722670733928680e-02</leafValues></_>
        <_>
          <internalNodes>
            0 -1 290 7.7694552601315081e-05</internalNodes>
          <leafValues>
            9.0764708817005157e-02 -6.7652171850204468e-01</leafValues></_>
        <_>
          <internalNodes>
            0 -1 355 3.2136158552020788e-05</internalNodes>
          <leafValues>
            1.0661167651414871e-01 -5.6005984544754028e-01</leafValues></_>
        <_>
          <internalNodes>
            0 -1 386 6.0601002769544721e-04</internalNodes>
          <leafValues>
            -1.6582594811916351e-01 4.2871204018592834e-01</leafValues></_>
        <_>
          <internalNodes>
            0 -1 212 -6.2519013881683350e-03</internalNodes>
          <leafValues>
            7.0605099201202393e-01 -1.0162651538848877e-01</leafValues></_>
        <_>
          <internalNodes>
            0 -1 368 1.0421066544950008e-03</internalNodes>
          <leafValues>
            -1.8811969459056854e-01 4.0369984507560730e-01</leafValues></_>
        <_>
          <internalNodes>
            0 -1 108 -5.0512426532804966e-03</internalNodes>
          <leafValues>
            -7.1637445688247681e-01 1.0945340991020203e-01</leafValues></_>
        <_>
          <internalNodes>
            0 -1 55 9.9818436428904533e-03</internalNodes>
          <leafValues>
            -1.4761081337928772e-01 5.7262837886810303e-01</leafValues></_>
        <_>
          <internalNodes>
            0 -1 168 -6.0571813955903053e-03</internalNodes>
          <leafValues>
            -7.9616123437881470e-01 1.1998431384563446e-01</leafValues></_>
        <_>
          <internalNodes>
            0 -1 18 2.8772972524166107e-02</internalNodes>
          <leafValues>
            -1.7390744388103485e-01 4.4614180922508240e-01</leafValues></_>
        <_>
          <internalNodes>
            0 -1 218 -2.8495471924543381e-03</internalNodes>
          <leafValues>
            6.8299353122711182e-01 -8.3748072385787964e-02</leafValues></_>
        <_>
          <internalNodes>
            0 -1 110 3.6435318179428577e-03</internalNodes>
          <leafValues>
            -1.2493053078651428e-01 5.0613296031951904e-01</leafValues></_>
        <_>
          <internalNodes>
            0 -1 131 2.9024374671280384e-03</internalNodes>
          <leafValues>
            -1.4692912995815277e-01 4.9529170989990234e-01</leafValues></_>
        <_>
          <internalNodes>
            0 -1 101 4.8115495592355728e-03</internalNodes>
          <leafValues>
            1.2055895477533340e-01 -7.8328782320022583e-01</leafValues></_>
        <_>
          <internalNodes>
            0 -1 205 3.4103641519322991e-04</internalNodes>
          <leafValues>
            7.9303056001663208e-02 -7.1446704864501953e-01</leafValues></_>
        <_>
          <internalNodes>
            0 -1 176 -1.7214294057339430e-03</internalNodes>
          <leafValues>
            6.1487740278244019e-01 -1.2416168302297592e-01</leafValues></_>
        <_>
          <internalNodes>
            0 -1 192 -8.4176529198884964e-03</internalNodes>
          <leafValues>
            -7.5889766216278076e-01 1.0350765287876129e-01</leafValues></_>
        <_>
          <internalNodes>
            0 -1 213 -6.9739497266709805e-03</internalNodes>
          <leafValues>
            -7.7433848381042480e-01 6.4482063055038452e-02</leafValues></_>
        <_>
          <internalNodes>
            0 -1 19 -2.0372978178784251e-04</internalNodes>
          <leafValues>
            -4.9906793236732483e-01 1.1119518429040909e-01</leafValues></_>
        <_>
          <internalNodes>
            0 -1 86 1.6217364463955164e-04</internalNodes>
          <leafValues>
            -1.7070043087005615e-01 4.0381282567977905e-01</leafValues></_>
        <_>
          <internalNodes>
            0 -1 229 -1.5165758086368442e-03</internalNodes>
          <leafValues>
            6.8657612800598145e-01 -8.3597205579280853e-02</leafValues></_>
        <_>
          <internalNodes>
            0 -1 72 -1.0056359693408012e-02</internalNodes>
          <leafValues>
            4.4117808341979980e-01 -1.4116474986076355e-01</leafValues></_>
        <_>
          <internalNodes>
            0 -1 36 3.5659879446029663e-02</internalNodes>
          <leafValues>
            -1.5921255946159363e-01 4.6345651149749756e-01</leafValues></_>
        <_>
          <internalNodes>
            0 -1 358 -4.0998863987624645e-03</internalNodes>
          <leafValues>
            -5.5234628915786743e-01 1.5586100518703461e-01</leafValues></_>
        <_>
          <internalNodes>
            0 -1 393 4.7092518798308447e-05</internalNodes>
          <leafValues>
            1.0556108504533768e-01 -5.6819534301757812e-01</leafValues></_>
        <_>
          <internalNodes>
            0 -1 310 2.1087275817990303e-03</internalNodes>
          <leafValues>
            -1.0331671684980392e-01 7.0300912857055664e-01</leafValues></_>
        <_>
          <internalNodes>
            0 -1 13 -2.7337770909070969e-02</internalNodes>
          <leafValues>
            4.3388462066650391e-01 -1.5139578282833099e-01</leafValues></_>
        <_>
          <internalNodes>
            0 -1 444 -3.5923521965742111e-02</internalNodes>
          <leafValues>
            9.1571402549743652e-01 -6.6142424941062927e-02</leafValues></_></weakClassifiers></_>
    <!-- stage 10 -->
    <_>
      <maxWeakCount>30</maxWeakCount>
      <stageThreshold>-9.0179187059402466e-01</stageThreshold>
      <weakClassifiers>
        <_>
          <internalNodes>
            0 -1 120 8.1290432717651129e-04</internalNodes>
          <leafValues>
            5.2941177040338516e-02 5.9655171632766724e-01</leafValues></_>
        <_>
          <internalNodes>
            0 -1 461 -4.7818204620853066e-04</internalNodes>
          <leafValues>
            3.6382231116294861e-01 -1.8075938522815704e-01</leafValues></_>
        <_>
          <internalNodes>
            0 -1 138 3.0619474127888680e-03</internalNodes>
          <leafValues>
            -1.0801035165786743e-01 5.7873678207397461e-01</leafValues></_>
        <_>
          <internalNodes>
            0 -1 151 -1.1326702078804374e-03</internalNodes>
          <leafValues>
            3.6242410540580750e-01 -2.2580167651176453e-01</leafValues></_>
        <_>
          <internalNodes>
            0 -1 377 3.5335464053787291e-04</internalNodes>
          <leafValues>
            1.0732303559780121e-01 -7.0381486415863037e-01</leafValues></_>
        <_>
          <internalNodes>
            0 -1 247 6.3837356865406036e-03</internalNodes>
          <leafValues>
            8.7607011198997498e-02 -7.8971862792968750e-01</leafValues></_>
        <_>
          <internalNodes>
            0 -1 225 -4.9261320382356644e-03</internalNodes>
          <leafValues>
            -7.7448874711990356e-01 8.4502846002578735e-02</leafValues></_>
        <_>
          <internalNodes>
            0 -1 171 -1.3343272730708122e-03</internalNodes>
          <leafValues>
            4.5456224679946899e-01 -1.7355795204639435e-01</leafValues></_>
        <_>
          <internalNodes>
            0 -1 219 1.1710507795214653e-02</internalNodes>
          <leafValues>
            1.1243209987878799e-01 -6.4154773950576782e-01</leafValues></_>
        <_>
          <internalNodes>
            0 -1 59 2.1231006830930710e-03</internalNodes>
          <leafValues>
            -1.4331525564193726e-01 5.2676880359649658e-01</leafValues></_>
        <_>
          <internalNodes>
            0 -1 173 -6.6312104463577271e-03</internalNodes>
          <leafValues>
            -7.2248661518096924e-01 8.9091166853904724e-02</leafValues></_>
        <_>
          <internalNodes>
            0 -1 273 1.0415767319500446e-03</internalNodes>
          <leafValues>
            -2.2390745580196381e-01 3.2154080271720886e-01</leafValues></_>
        <_>
          <internalNodes>
            0 -1 297 -2.3925877176225185e-03</internalNodes>
          <leafValues>
            6.1728250980377197e-01 -1.0005269199609756e-01</leafValues></_>
        <_>
          <internalNodes>
            0 -1 248 1.6277667600661516e-04</internalNodes>
          <leafValues>
            1.0464718192815781e-01 -7.1704208850860596e-01</leafValues></_>
        <_>
          <internalNodes>
            0 -1 278 2.1572841797024012e-03</internalNodes>
          <leafValues>
            -1.3555324077606201e-01 6.3147544860839844e-01</leafValues></_>
        <_>
          <internalNodes>
            0 -1 367 4.7068338608369231e-04</internalNodes>
          <leafValues>
            -1.1783324927091599e-01 5.3763484954833984e-01</leafValues></_>
        <_>
          <internalNodes>
            0 -1 181 -4.1107572615146637e-03</internalNodes>
          <leafValues>
            -8.0120772123336792e-01 9.6037581562995911e-02</leafValues></_>
        <_>
          <internalNodes>
            0 -1 411 1.9525819225236773e-03</internalNodes>
          <leafValues>
            -1.1738805472850800e-01 6.2170523405075073e-01</leafValues></_>
        <_>
          <internalNodes>
            0 -1 327 4.1592371417209506e-05</internalNodes>
          <leafValues>
            1.4997109770774841e-01 -4.5652461051940918e-01</leafValues></_>
        <_>
          <internalNodes>
            0 -1 82 7.5368797406554222e-03</internalNodes>
          <leafValues>
            1.5121258795261383e-01 -4.4541782140731812e-01</leafValues></_>
        <_>
          <internalNodes>
            0 -1 453 -3.8383621722459793e-04</internalNodes>
          <leafValues>
            3.2129728794097900e-01 -2.1270087361335754e-01</leafValues></_>
        <_>
          <internalNodes>
            0 -1 111 -7.1566710248589516e-03</internalNodes>
          <leafValues>
            -8.3793169260025024e-01 8.7402887642383575e-02</leafValues></_>
        <_>
          <internalNodes>
            0 -1 434 -1.0572215542197227e-03</internalNodes>
          <leafValues>
            5.5818361043930054e-01 -1.4033032953739166e-01</leafValues></_>
        <_>
          <internalNodes>
            0 -1 447 1.3863248750567436e-03</internalNodes>
          <leafValues>
            -1.9039042294025421e-01 3.7074944376945496e-01</leafValues></_>
        <_>
          <internalNodes>
            0 -1 66 -1.6956496983766556e-02</internalNodes>
          <leafValues>
            5.4289287328720093e-01 -1.2570229172706604e-01</leafValues></_>
        <_>
          <internalNodes>
            0 -1 71 5.8117457665503025e-03</internalNodes>
          <leafValues>
            -2.1007241308689117e-01 3.9202305674552917e-01</leafValues></_>
        <_>
          <internalNodes>
            0 -1 119 7.3687932454049587e-03</internalNodes>
          <leafValues>
            8.2969158887863159e-02 -7.8789645433425903e-01</leafValues></_>
        <_>
          <internalNodes>
            0 -1 316 1.2278023641556501e-03</internalNodes>
          <leafValues>
            -1.4541259407997131e-01 4.8836612701416016e-01</leafValues></_>
        <_>
          <internalNodes>
            0 -1 492 -5.3122101235203445e-05</internalNodes>
          <leafValues>
            -4.1000497341156006e-01 1.5241231024265289e-01</leafValues></_>
        <_>
          <internalNodes>
            0 -1 403 -1.1932710549444892e-05</internalNodes>
          <leafValues>
            2.9044625163078308e-01 -2.2166527807712555e-01</leafValues></_></weakClassifiers></_>
    <!-- stage 11 -->
    <_>
      <maxWeakCount>31</maxWeakCount>
      <stageThreshold>-9.8054069280624390e-01</stageThreshold>
      <weakClassifiers>
        <_>
          <internalNodes>
            0 -1 174 3.7548941327258945e-04</internalNodes>
          <leafValues>
            9.9913120269775391e-02 6.3474386930465698e-01</leafValues></_>
        <_>
          <internalNodes>
            0 -1 5 4.7766454517841339e-03</internalNodes>
          <leafValues>
            -1.3192500174045563e-01 4.1742697358131409e-01</leafValues></_>
        <_>
          <internalNodes>
            0 -1 286 1.8596027512103319e-03</internalNodes>
          <leafValues>
            -1.2482167035341263e-01 5.9091740846633911e-01</leafValues></_>
        <_>
          <internalNodes>
            0 -1 338 1.1044654529541731e-03</internalNodes>
          <leafValues>
            -1.2423740327358246e-01 4.8133111000061035e-01</leafValues></_>
        <_>
          <internalNodes>
            0 -1 62 -1.1519913561642170e-02</internalNodes>
          <leafValues>
            -7.7660274505615234e-01 7.8970916569232941e-02</leafValues></_>
        <_>
          <internalNodes>
            0 -1 406 -4.3198117054998875e-05</internalNodes>
          <leafValues>
            -5.9332472085952759e-01 1.1125955730676651e-01</leafValues></_>
        <_>
          <internalNodes>
            0 -1 283 -3.7795109674334526e-03</internalNodes>
          <leafValues>
            5.2227193117141724e-01 -1.6247615218162537e-01</leafValues></_>
        <_>
          <internalNodes>
            0 -1 42 -1.0962465777993202e-02</internalNodes>
          <leafValues>
            4.4476249814033508e-01 -1.1618106812238693e-01</leafValues></_>
        <_>
          <internalNodes>
            0 -1 154 5.4928963072597980e-03</internalNodes>
          <leafValues>
            -1.0611515492200851e-01 5.5973112583160400e-01</leafValues></_>
        <_>
          <internalNodes>
            0 -1 93 1.3196161016821861e-02</internalNodes>
          <leafValues>
            1.1490764468908310e-01 -5.4457086324691772e-01</leafValues></_>
        <_>
          <internalNodes>
            0 -1 68 7.5271679088473320e-03</internalNodes>
          <leafValues>
            -1.7028684914112091e-01 3.6473104357719421e-01</leafValues></_>
        <_>
          <internalNodes>
            0 -1 421 -5.5710994638502598e-04</internalNodes>
          <leafValues>
            3.1522884964942932e-01 -1.8687199056148529e-01</leafValues></_>
        <_>
          <internalNodes>
            0 -1 63 -7.0888972841203213e-03</internalNodes>
          <leafValues>
            4.8971417546272278e-01 -1.1677250266075134e-01</leafValues></_>
        <_>
          <internalNodes>
            0 -1 172 -1.9838199950754642e-03</internalNodes>
          <leafValues>
            6.0707002878189087e-01 -8.5386224091053009e-02</leafValues></_>
        <_>
          <internalNodes>
            0 -1 163 -3.7701062858104706e-02</internalNodes>
          <leafValues>
            5.7883578538894653e-01 -9.8308838903903961e-02</leafValues></_>
        <_>
          <internalNodes>
            0 -1 95 -1.1779687367379665e-02</internalNodes>
          <leafValues>
            -8.0483621358871460e-01 8.9228980243206024e-02</leafValues></_>
        <_>
          <internalNodes>
            0 -1 199 -2.1171965636312962e-03</internalNodes>
          <leafValues>
            5.4152256250381470e-01 -1.3998326659202576e-01</leafValues></_>
        <_>
          <internalNodes>
            0 -1 257 -3.5896149347536266e-04</internalNodes>
          <leafValues>
            3.8994938135147095e-01 -1.5713442862033844e-01</leafValues></_>
        <_>
          <internalNodes>
            0 -1 244 7.6000168919563293e-03</internalNodes>
          <leafValues>
            1.0292774438858032e-01 -6.3863116502761841e-01</leafValues></_>
        <_>
          <internalNodes>
            0 -1 12 4.0583595633506775e-02</internalNodes>
          <leafValues>
            -1.2324637174606323e-01 5.2481013536453247e-01</leafValues></_>
        <_>
          <internalNodes>
            0 -1 67 6.4375540241599083e-03</internalNodes>
          <leafValues>
            -8.9352160692214966e-02 5.7034009695053101e-01</leafValues></_>
        <_>
          <internalNodes>
            0 -1 44 1.2186525389552116e-02</internalNodes>
          <leafValues>
            -1.4887161552906036e-01 3.8478204607963562e-01</leafValues></_>
        <_>
          <internalNodes>
            0 -1 419 -1.2664067326113582e-03</internalNodes>
          <leafValues>
            -6.5448546409606934e-01 9.0090416371822357e-02</leafValues></_>
        <_>
          <internalNodes>
            0 -1 114 -2.3584798909723759e-03</internalNodes>
          <leafValues>
            4.8850169777870178e-01 -1.1993146687746048e-01</leafValues></_>
        <_>
          <internalNodes>
            0 -1 129 1.5894152456894517e-03</internalNodes>
          <leafValues>
            -1.4062471687793732e-01 4.0952619910240173e-01</leafValues></_>
        <_>
          <internalNodes>
            0 -1 112 -2.9214520473033190e-03</internalNodes>
          <leafValues>
            -6.4940994977951050e-01 9.8799452185630798e-02</leafValues></_>
        <_>
          <internalNodes>
            0 -1 475 -1.3135956833139062e-03</internalNodes>
          <leafValues>
            5.0267744064331055e-01 -1.2774410843849182e-01</leafValues></_>
        <_>
          <internalNodes>
            0 -1 11 3.4769473131746054e-04</internalNodes>
          <leafValues>
            1.1529996991157532e-01 -5.5849647521972656e-01</leafValues></_>
        <_>
          <internalNodes>
            0 -1 144 -4.9401512369513512e-03</internalNodes>
          <leafValues>
            3.7420734763145447e-01 -1.6256600618362427e-01</leafValues></_>
        <_>
          <internalNodes>
            0 -1 466 -3.3406778238713741e-03</internalNodes>
          <leafValues>
            3.3531627058982849e-01 -1.6719110310077667e-01</leafValues></_>
        <_>
          <internalNodes>
            0 -1 498 5.0915488973259926e-03</internalNodes>
          <leafValues>
            -1.1296668648719788e-01 5.5814272165298462e-01</leafValues></_></weakClassifiers></_>
    <!-- stage 12 -->
    <_>
      <maxWeakCount>35</maxWeakCount>
      <stageThreshold>-1.1698013544082642e+00</stageThreshold>
      <weakClassifiers>
        <_>
          <internalNodes>
            0 -1 227 -5.7458388619124889e-03</internalNodes>
          <leafValues>
            4.1009742021560669e-01 -1.3375796377658844e-01</leafValues></_>
        <_>
          <internalNodes>
            0 -1 250 1.3005313230678439e-03</internalNodes>
          <leafValues>
            -1.4873988926410675e-01 4.9691462516784668e-01</leafValues></_>
        <_>
          <internalNodes>
            0 -1 235 -3.7625683471560478e-03</internalNodes>
          <leafValues>
            6.2697792053222656e-01 -9.6841752529144287e-02</leafValues></_>
        <_>
          <internalNodes>
            0 -1 251 1.0702632134780288e-03</internalNodes>
          <leafValues>
            -2.4598133563995361e-01 3.0593642592430115e-01</leafValues></_>
        <_>
          <internalNodes>
            0 -1 206 -5.1075252704322338e-03</internalNodes>
          <leafValues>
            -6.3768386840820312e-01 1.2935157120227814e-01</leafValues></_>
        <_>
          <internalNodes>
            0 -1 356 6.3881350797601044e-05</internalNodes>
          <leafValues>
            1.1126289516687393e-01 -5.9237593412399292e-01</leafValues></_>
        <_>
          <internalNodes>
            0 -1 380 7.1849871892482042e-04</internalNodes>
          <leafValues>
            -1.3724055886268616e-01 4.4630691409111023e-01</leafValues></_>
        <_>
          <internalNodes>
            0 -1 77 -6.3549713231623173e-03</internalNodes>
          <leafValues>
            -7.6123517751693726e-01 8.8386811316013336e-02</leafValues></_>
        <_>
          <internalNodes>
            0 -1 194 2.0384432282298803e-03</internalNodes>
          <leafValues>
            -1.7076353728771210e-01 3.3343687653541565e-01</leafValues></_>
        <_>
          <internalNodes>
            0 -1 323 8.2298240158706903e-05</internalNodes>
          <leafValues>
            1.0884039849042892e-01 -5.8707517385482788e-01</leafValues></_>
        <_>
          <internalNodes>
            0 -1 379 -8.1233195960521698e-03</internalNodes>
          <leafValues>
            -8.1204980611801147e-01 5.0908006727695465e-02</leafValues></_>
        <_>
          <internalNodes>
            0 -1 299 1.3028708053752780e-04</internalNodes>
          <leafValues>
            1.1225717514753342e-01 -4.5108380913734436e-01</leafValues></_>
        <_>
          <internalNodes>
            0 -1 28 6.4007774926722050e-03</internalNodes>
          <leafValues>
            -1.3389232754707336e-01 4.1290488839149475e-01</leafValues></_>
        <_>
          <internalNodes>
            0 -1 452 -2.3745574057102203e-02</internalNodes>
          <leafValues>
            -8.1634628772735596e-01 8.2755200564861298e-02</leafValues></_>
        <_>
          <internalNodes>
            0 -1 48 -8.1463786773383617e-04</internalNodes>
          <leafValues>
            4.0215584635734558e-01 -1.6550560295581818e-01</leafValues></_>
        <_>
          <internalNodes>
            0 -1 15 4.4148287270218134e-04</internalNodes>
          <leafValues>
            7.7473618090152740e-02 -7.7955389022827148e-01</leafValues></_>
        <_>
          <internalNodes>
            0 -1 273 7.8973639756441116e-04</internalNodes>
          <leafValues>
            -2.1199414134025574e-01 2.6830902695655823e-01</leafValues></_>
        <_>
          <internalNodes>
            0 -1 333 5.4621044546365738e-03</internalNodes>
          <leafValues>
            7.2527460753917694e-02 -7.7239370346069336e-01</leafValues></_>
        <_>
          <internalNodes>
            0 -1 312 9.4822549726814032e-05</internalNodes>
          <leafValues>
            -2.2755917906761169e-01 2.5871020555496216e-01</leafValues></_>
        <_>
          <internalNodes>
            0 -1 107 5.6275347014889121e-04</internalNodes>
          <leafValues>
            -1.5723405778408051e-01 3.5740390419960022e-01</leafValues></_>
        <_>
          <internalNodes>
            0 -1 84 -7.0886816829442978e-03</internalNodes>
          <leafValues>
            -7.4249547719955444e-01 8.3771102130413055e-02</leafValues></_>
        <_>
          <internalNodes>
            0 -1 415 6.1733165057376027e-04</internalNodes>
          <leafValues>
            -1.6589939594268799e-01 3.7928017973899841e-01</leafValues></_>
        <_>
          <internalNodes>
            0 -1 448 7.8771379776299000e-04</internalNodes>
          <leafValues>
            1.5280136466026306e-01 -4.2392519116401672e-01</leafValues></_>
        <_>
          <internalNodes>
            0 -1 293 -2.3970559705048800e-03</internalNodes>
          <leafValues>
            -5.3533148765563965e-01 1.0808897763490677e-01</leafValues></_>
        <_>
          <internalNodes>
            0 -1 166 1.8641033675521612e-03</internalNodes>
          <leafValues>
            -1.0736289620399475e-01 5.8415347337722778e-01</leafValues></_>
        <_>
          <internalNodes>
            0 -1 499 2.0206263288855553e-03</internalNodes>
          <leafValues>
            8.0281287431716919e-02 -8.9855170249938965e-01</leafValues></_>
        <_>
          <internalNodes>
            0 -1 132 2.1240240894258022e-03</internalNodes>
          <leafValues>
            -1.2258920818567276e-01 5.3479427099227905e-01</leafValues></_>
        <_>
          <internalNodes>
            0 -1 463 3.3159664599224925e-04</internalNodes>
          <leafValues>
            -1.4024470746517181e-01 3.7721949815750122e-01</leafValues></_>
        <_>
          <internalNodes>
            0 -1 409 -3.5358898458071053e-05</internalNodes>
          <leafValues>
            -5.3029167652130127e-01 1.1333815753459930e-01</leafValues></_>
        <_>
          <internalNodes>
            0 -1 410 5.1233102567493916e-04</internalNodes>
          <leafValues>
            -2.1184912323951721e-01 3.1545084714889526e-01</leafValues></_>
        <_>
          <internalNodes>
            0 -1 460 -1.7560624983161688e-03</internalNodes>
          <leafValues>
            3.9611572027206421e-01 -1.6389679908752441e-01</leafValues></_>
        <_>
          <internalNodes>
            0 -1 0 -4.2473257053643465e-05</internalNodes>
          <leafValues>
            -4.7000041604042053e-01 1.3749799132347107e-01</leafValues></_>
        <_>
          <internalNodes>
            0 -1 14 1.0361760854721069e-02</internalNodes>
          <leafValues>
            -1.2413518130779266e-01 4.9938157200813293e-01</leafValues></_>
        <_>
          <internalNodes>
            0 -1 24 9.2982370406389236e-03</internalNodes>
          <leafValues>
            -1.5177901089191437e-01 4.3454504013061523e-01</leafValues></_>
        <_>
          <internalNodes>
            0 -1 113 4.7320029698312283e-03</internalNodes>
          <leafValues>
            8.8289022445678711e-02 -7.3696929216384888e-01</leafValues></_></weakClassifiers></_>
    <!-- stage 13 -->
    <_>
      <maxWeakCount>31</maxWeakCount>
      <stageThreshold>-1.0378181934356689e+00</stageThreshold>
      <weakClassifiers>
        <_>
          <internalNodes>
            0 -1 70 4.5797348022460938e-02</internalNodes>
          <leafValues>
            3.0371353030204773e-01 -6.3043481111526489e-01</leafValues></_>
        <_>
          <internalNodes>
            0 -1 92 1.9856315106153488e-02</internalNodes>
          <leafValues>
            -7.3942929506301880e-02 6.3013708591461182e-01</leafValues></_>
        <_>
          <internalNodes>
            0 -1 282 -1.3787636999040842e-03</internalNodes>
          <leafValues>
            3.8602682948112488e-01 -1.7320266366004944e-01</leafValues></_>
        <_>
          <internalNodes>
            0 -1 285 9.1201352188363671e-04</internalNodes>
          <leafValues>
            -2.2424162924289703e-01 3.5671001672744751e-01</leafValues></_>
        <_>
          <internalNodes>
            0 -1 270 1.3897885801270604e-03</internalNodes>
          <leafValues>
            -1.7563959956169128e-01 3.8484397530555725e-01</leafValues></_>
        <_>
          <internalNodes>
            0 -1 234 8.5100799333304167e-04</internalNodes>
          <leafValues>
            -2.0190636813640594e-01 3.2789570093154907e-01</leafValues></_>
        <_>
          <internalNodes>
            0 -1 269 -1.1832213029265404e-02</internalNodes>
          <leafValues>
            -7.4945098161697388e-01 7.7879510819911957e-02</leafValues></_>
        <_>
          <internalNodes>
            0 -1 360 -7.0190886617638171e-05</internalNodes>
          <leafValues>
            -4.2218691110610962e-01 1.2780800461769104e-01</leafValues></_>
        <_>
          <internalNodes>
            0 -1 187 -1.4522967394441366e-03</internalNodes>
          <leafValues>
            4.4476962089538574e-01 -1.2778915464878082e-01</leafValues></_>
        <_>
          <internalNodes>
            0 -1 31 9.3690790235996246e-03</internalNodes>
          <leafValues>
            -1.3582031428813934e-01 3.9573541283607483e-01</leafValues></_>
        <_>
          <internalNodes>
            0 -1 117 -6.6252378746867180e-03</internalNodes>
          <leafValues>
            -5.9983444213867188e-01 1.0476440191268921e-01</leafValues></_>
        <_>
          <internalNodes>
            0 -1 354 2.0033547189086676e-03</internalNodes>
          <leafValues>
            -1.0250288993120193e-01 5.8513945341110229e-01</leafValues></_>
        <_>
          <internalNodes>
            0 -1 439 -3.6633286625146866e-02</internalNodes>
          <leafValues>
            -7.3026764392852783e-01 9.1595262289047241e-02</leafValues></_>
        <_>
          <internalNodes>
            0 -1 335 -2.1174345165491104e-03</internalNodes>
          <leafValues>
            -6.2810081243515015e-01 6.8787641823291779e-02</leafValues></_>
        <_>
          <internalNodes>
            0 -1 401 8.6263741832226515e-04</internalNodes>
          <leafValues>
            -1.7905291914939880e-01 3.2362669706344604e-01</leafValues></_>
        <_>
          <internalNodes>
            0 -1 149 -6.4130350947380066e-03</internalNodes>
          <leafValues>
            -6.1011314392089844e-01 8.4605798125267029e-02</leafValues></_>
        <_>
          <internalNodes>
            0 -1 332 -5.7782286603469402e-05</internalNodes>
          <leafValues>
            3.0278146266937256e-01 -1.9925211369991302e-01</leafValues></_>
        <_>
          <internalNodes>
            0 -1 412 -1.6374115366488695e-03</internalNodes>
          <leafValues>
            5.2892541885375977e-01 -1.1977870762348175e-01</leafValues></_>
        <_>
          <internalNodes>
            0 -1 76 7.4259880930185318e-03</internalNodes>
          <leafValues>
            9.3450061976909637e-02 -6.7791408300399780e-01</leafValues></_>
        <_>
          <internalNodes>
            0 -1 451 -1.8026502802968025e-03</internalNodes>
          <leafValues>
            3.8511639833450317e-01 -1.4720807969570160e-01</leafValues></_>
        <_>
          <internalNodes>
            0 -1 202 6.1311107128858566e-04</internalNodes>
          <leafValues>
            8.9864224195480347e-02 -6.7098587751388550e-01</leafValues></_>
        <_>
          <internalNodes>
            0 -1 33 8.1309191882610321e-02</internalNodes>
          <leafValues>
            -1.3395434617996216e-01 4.0692165493965149e-01</leafValues></_>
        <_>
          <internalNodes>
            0 -1 462 -2.6889622677117586e-04</internalNodes>
          <leafValues>
            2.6573324203491211e-01 -2.0987370610237122e-01</leafValues></_>
        <_>
          <internalNodes>
            0 -1 54 -9.3119544908404350e-03</internalNodes>
          <leafValues>
            -4.7106587886810303e-01 1.2728288769721985e-01</leafValues></_>
        <_>
          <internalNodes>
            0 -1 10 1.1462667956948280e-02</internalNodes>
          <leafValues>
            -1.2449987977743149e-01 5.1500177383422852e-01</leafValues></_>
        <_>
          <internalNodes>
            0 -1 291 2.5097213219851255e-03</internalNodes>
          <leafValues>
            -1.0053976625204086e-01 4.9794954061508179e-01</leafValues></_>
        <_>
          <internalNodes>
            0 -1 322 5.2782812417717651e-05</internalNodes>
          <leafValues>
            1.3293272256851196e-01 -4.0000525116920471e-01</leafValues></_>
        <_>
          <internalNodes>
            0 -1 328 -7.0644303923472762e-04</internalNodes>
          <leafValues>
            4.0076178312301636e-01 -1.3759835064411163e-01</leafValues></_>
        <_>
          <internalNodes>
            0 -1 254 1.1947279563173652e-03</internalNodes>
          <leafValues>
            -1.8759040534496307e-01 3.2394245266914368e-01</leafValues></_>
        <_>
          <internalNodes>
            0 -1 375 2.1488375961780548e-02</internalNodes>
          <leafValues>
            1.2791308760643005e-01 -5.0823551416397095e-01</leafValues></_>
        <_>
          <internalNodes>
            0 -1 245 -3.9822431281208992e-03</internalNodes>
          <leafValues>
            -3.6165931820869446e-01 1.6292317211627960e-01</leafValues></_></weakClassifiers></_>
    <!-- stage 14 -->
    <_>
      <maxWeakCount>27</maxWeakCount>
      <stageThreshold>-7.7171772718429565e-01</stageThreshold>
      <weakClassifiers>
        <_>
          <internalNodes>
            0 -1 210 -1.6756062395870686e-03</internalNodes>
          <leafValues>
            3.8079470396041870e-01 -1.5306122601032257e-01</leafValues></_>
        <_>
          <internalNodes>
            0 -1 441 5.6724355090409517e-04</internalNodes>
          <leafValues>
            -1.5113955736160278e-01 3.2303103804588318e-01</leafValues></_>
        <_>
          <internalNodes>
            0 -1 280 6.0492096235975623e-04</internalNodes>
          <leafValues>
            -1.5129847824573517e-01 3.3752310276031494e-01</leafValues></_>
        <_>
          <internalNodes>
            0 -1 274 -2.6916868519037962e-03</internalNodes>
          <leafValues>
            5.4797339439392090e-01 -1.3314583897590637e-01</leafValues></_>
        <_>
          <internalNodes>
            0 -1 476 -2.0940615795552731e-03</internalNodes>
          <leafValues>
            -7.2481262683868408e-01 9.4318494200706482e-02</leafValues></_>
        <_>
          <internalNodes>
            0 -1 272 1.1177789419889450e-03</internalNodes>
          <leafValues>
            -1.7578321695327759e-01 3.0521807074546814e-01</leafValues></_>
        <_>
          <internalNodes>
            0 -1 224 1.0277421679347754e-03</internalNodes>
          <leafValues>
            -2.0922701060771942e-01 2.6416286826133728e-01</leafValues></_>
        <_>
          <internalNodes>
            0 -1 158 -6.0541592538356781e-03</internalNodes>
          <leafValues>
            -6.9314002990722656e-01 9.3124635517597198e-02</leafValues></_>
        <_>
          <internalNodes>
            0 -1 57 -7.8495088964700699e-03</internalNodes>
          <leafValues>
            -4.5785576105117798e-01 1.0433034598827362e-01</leafValues></_>
        <_>
          <internalNodes>
            0 -1 83 -7.2245867922902107e-03</internalNodes>
          <leafValues>
            -7.7814149856567383e-01 8.9670956134796143e-02</leafValues></_>
        <_>
          <internalNodes>
            0 -1 177 6.2654856592416763e-03</internalNodes>
          <leafValues>
            -1.6216878592967987e-01 3.6031606793403625e-01</leafValues></_>
        <_>
          <internalNodes>
            0 -1 457 4.6383135486394167e-04</internalNodes>
          <leafValues>
            -2.1400371193885803e-01 2.9742124676704407e-01</leafValues></_>
        <_>
          <internalNodes>
            0 -1 34 -1.1868767440319061e-02</internalNodes>
          <leafValues>
            4.2510092258453369e-01 -1.4272168278694153e-01</leafValues></_>
        <_>
          <internalNodes>
            0 -1 30 -1.3899899087846279e-02</internalNodes>
          <leafValues>
            3.8719695806503296e-01 -1.4546541869640350e-01</leafValues></_>
        <_>
          <internalNodes>
            0 -1 75 -1.0052783414721489e-02</internalNodes>
          <leafValues>
            4.2950114607810974e-01 -1.3936969637870789e-01</leafValues></_>
        <_>
          <internalNodes>
            0 -1 347 -2.4578699376434088e-03</internalNodes>
          <leafValues>
            3.6044386029243469e-01 -1.6780702769756317e-01</leafValues></_>
        <_>
          <internalNodes>
            0 -1 267 1.2364929541945457e-02</internalNodes>
          <leafValues>
            5.9935275465250015e-02 -8.6800307035446167e-01</leafValues></_>
        <_>
          <internalNodes>
            0 -1 400 -4.8469761386513710e-03</internalNodes>
          <leafValues>
            4.8663187026977539e-01 -1.2395115941762924e-01</leafValues></_>
        <_>
          <internalNodes>
            0 -1 487 6.5901887137442827e-04</internalNodes>
          <leafValues>
            -1.3328677415847778e-01 3.9596864581108093e-01</leafValues></_>
        <_>
          <internalNodes>
            0 -1 392 -7.9314871982205659e-05</internalNodes>
          <leafValues>
            -4.7237235307693481e-01 1.2791071832180023e-01</leafValues></_>
        <_>
          <internalNodes>
            0 -1 169 -1.1695342138409615e-02</internalNodes>
          <leafValues>
            -7.5927442312240601e-01 6.2279537320137024e-02</leafValues></_>
        <_>
          <internalNodes>
            0 -1 142 2.4170842953026295e-03</internalNodes>
          <leafValues>
            -1.0730053484439850e-01 5.6297177076339722e-01</leafValues></_>
        <_>
          <internalNodes>
            0 -1 469 6.0766044771298766e-04</internalNodes>
          <leafValues>
            -1.4340075850486755e-01 3.6167803406715393e-01</leafValues></_>
        <_>
          <internalNodes>
            0 -1 127 -8.7073724716901779e-03</internalNodes>
          <leafValues>
            -8.8842260837554932e-01 6.2570959329605103e-02</leafValues></_>
        <_>
          <internalNodes>
            0 -1 490 -9.1401505051180720e-04</internalNodes>
          <leafValues>
            3.3030092716217041e-01 -1.6814114153385162e-01</leafValues></_>
        <_>
          <internalNodes>
            0 -1 501 1.2278258800506592e-03</internalNodes>
          <leafValues>
            7.6583884656429291e-02 -7.5882083177566528e-01</leafValues></_>
        <_>
          <internalNodes>
            0 -1 500 -8.6166878463700414e-04</internalNodes>
          <leafValues>
            -5.0287240743637085e-01 9.3233950436115265e-02</leafValues></_></weakClassifiers></_>
    <!-- stage 15 -->
    <_>
      <maxWeakCount>31</maxWeakCount>
      <stageThreshold>-8.5850870609283447e-01</stageThreshold>
      <weakClassifiers>
        <_>
          <internalNodes>
            0 -1 361 -5.1910676120314747e-05</internalNodes>
          <leafValues>
            -3.8297873735427856e-01 3.3427762985229492e-01</leafValues></_>
        <_>
          <internalNodes>
            0 -1 99 -4.2581715388223529e-04</internalNodes>
          <leafValues>
            2.4244938790798187e-01 -2.1338512003421783e-01</leafValues></_>
        <_>
          <internalNodes>
            0 -1 353 -2.0095892250537872e-03</internalNodes>
          <leafValues>
            -2.1398802101612091e-01 2.9387056827545166e-01</leafValues></_>
        <_>
          <internalNodes>
            0 -1 426 2.6022430974990129e-03</internalNodes>
          <leafValues>
            -2.9087102413177490e-01 1.9566236436367035e-01</leafValues></_>
        <_>
          <internalNodes>
            0 -1 440 6.9870660081505775e-03</internalNodes>
          <leafValues>
            1.0860157012939453e-01 -4.6468800306320190e-01</leafValues></_>
        <_>
          <internalNodes>
            0 -1 331 -1.0248564649373293e-03</internalNodes>
          <leafValues>
            4.8005783557891846e-01 -1.1543752253055573e-01</leafValues></_>
        <_>
          <internalNodes>
            0 -1 341 2.9929689480923116e-04</internalNodes>
          <leafValues>
            -1.6533815860748291e-01 3.6331892013549805e-01</leafValues></_>
        <_>
          <internalNodes>
            0 -1 50 -1.4777848497033119e-02</internalNodes>
          <leafValues>
            -6.1393874883651733e-01 8.5355632007122040e-02</leafValues></_>
        <_>
          <internalNodes>
            0 -1 17 3.2497616484761238e-03</internalNodes>
          <leafValues>
            -1.4202731847763062e-01 4.0420934557914734e-01</leafValues></_>
        <_>
          <internalNodes>
            0 -1 100 -5.5538848973810673e-03</internalNodes>
          <leafValues>
            -7.1764338016510010e-01 8.0008029937744141e-02</leafValues></_>
        <_>
          <internalNodes>
            0 -1 162 -1.7589007038623095e-03</internalNodes>
          <leafValues>
            5.1497954130172729e-01 -1.2241216003894806e-01</leafValues></_>
        <_>
          <internalNodes>
            0 -1 191 -1.1739589972421527e-03</internalNodes>
          <leafValues>
            5.3850352764129639e-01 -1.0703916102647781e-01</leafValues></_>
        <_>
          <internalNodes>
            0 -1 134 7.0471172221004963e-03</internalNodes>
          <leafValues>
            7.7242180705070496e-02 -8.1287628412246704e-01</leafValues></_>
        <_>
          <internalNodes>
            0 -1 342 -6.5571656450629234e-03</internalNodes>
          <leafValues>
            2.4570561945438385e-01 -2.4386847019195557e-01</leafValues></_>
        <_>
          <internalNodes>
            0 -1 73 7.9781783279031515e-04</internalNodes>
          <leafValues>
            -1.6760754585266113e-01 3.2490265369415283e-01</leafValues></_>
        <_>
          <internalNodes>
            0 -1 69 2.3911049589514732e-02</internalNodes>
          <leafValues>
            9.5979578793048859e-02 -5.6791096925735474e-01</leafValues></_>
        <_>
          <internalNodes>
            0 -1 321 2.7744665741920471e-02</internalNodes>
          <leafValues>
            1.0820047557353973e-01 -4.6270829439163208e-01</leafValues></_>
        <_>
          <internalNodes>
            0 -1 41 -6.0828760266304016e-02</internalNodes>
          <leafValues>
            5.8438324928283691e-01 -9.1223396360874176e-02</leafValues></_>
        <_>
          <internalNodes>
            0 -1 135 -7.4074324220418930e-03</internalNodes>
          <leafValues>
            -7.9677277803421021e-01 7.4883334338665009e-02</leafValues></_>
        <_>
          <internalNodes>
            0 -1 468 -6.5552850719541311e-04</internalNodes>
          <leafValues>
            2.1180324256420135e-01 -2.5351855158805847e-01</leafValues></_>
        <_>
          <internalNodes>
            0 -1 489 -4.9827783368527889e-04</internalNodes>
          <leafValues>
            3.2950434088706970e-01 -1.5774360299110413e-01</leafValues></_>
        <_>
          <internalNodes>
            0 -1 51 -5.4685990326106548e-03</internalNodes>
          <leafValues>
            3.0738696455955505e-01 -1.6144442558288574e-01</leafValues></_>
        <_>
          <internalNodes>
            0 -1 464 1.6433072742074728e-03</internalNodes>
          <leafValues>
            -1.4373122155666351e-01 3.4864318370819092e-01</leafValues></_>
        <_>
          <internalNodes>
            0 -1 306 -3.3133372198790312e-04</internalNodes>
          <leafValues>
            3.0593067407608032e-01 -1.7472191154956818e-01</leafValues></_>
        <_>
          <internalNodes>
            0 -1 38 -1.1402320116758347e-02</internalNodes>
          <leafValues>
            4.1809749603271484e-01 -1.3334572315216064e-01</leafValues></_>
        <_>
          <internalNodes>
            0 -1 160 2.7478062547743320e-03</internalNodes>
          <leafValues>
            -7.2040855884552002e-02 7.6083385944366455e-01</leafValues></_>
        <_>
          <internalNodes>
            0 -1 147 -6.8576154299080372e-03</internalNodes>
          <leafValues>
            5.5087828636169434e-01 -9.3431010842323303e-02</leafValues></_>
        <_>
          <internalNodes>
            0 -1 209 -6.3065979629755020e-03</internalNodes>
          <leafValues>
            -6.4893025159835815e-01 9.3493506312370300e-02</leafValues></_>
        <_>
          <internalNodes>
            0 -1 143 -2.0801378414034843e-03</internalNodes>
          <leafValues>
            2.3792222142219543e-01 -2.3023037612438202e-01</leafValues></_>
        <_>
          <internalNodes>
            0 -1 459 2.9591436032205820e-04</internalNodes>
          <leafValues>
            -1.6263931989669800e-01 3.2068431377410889e-01</leafValues></_>
        <_>
          <internalNodes>
            0 -1 346 2.2626905702054501e-03</internalNodes>
          <leafValues>
            -1.4112271368503571e-01 3.9819997549057007e-01</leafValues></_></weakClassifiers></_>
    <!-- stage 16 -->
    <_>
      <maxWeakCount>32</maxWeakCount>
      <stageThreshold>-9.4189840555191040e-01</stageThreshold>
      <weakClassifiers>
        <_>
          <internalNodes>
            0 -1 352 -1.0954489931464195e-02</internalNodes>
          <leafValues>
            -5.4954952001571655e-01 3.0960375070571899e-01</leafValues></_>
        <_>
          <internalNodes>
            0 -1 188 -1.4777705073356628e-03</internalNodes>
          <leafValues>
            5.8900362253189087e-01 -6.7551530897617340e-02</leafValues></_>
        <_>
          <internalNodes>
            0 -1 303 -2.3035504855215549e-03</internalNodes>
          <leafValues>
            5.7540684938430786e-01 -1.1547780036926270e-01</leafValues></_>
        <_>
          <internalNodes>
            0 -1 298 1.2764552957378328e-04</internalNodes>
          <leafValues>
            1.0090216994285583e-01 -5.2264606952667236e-01</leafValues></_>
        <_>
          <internalNodes>
            0 -1 259 1.6268626495730132e-05</internalNodes>
          <leafValues>
            -2.4491892755031586e-01 2.1144677698612213e-01</leafValues></_>
        <_>
          <internalNodes>
            0 -1 186 -3.0276263132691383e-03</internalNodes>
          <leafValues>
            5.9683442115783691e-01 -8.1985861063003540e-02</leafValues></_>
        <_>
          <internalNodes>
            0 -1 217 2.8300487902015448e-03</internalNodes>
          <leafValues>
            7.9946473240852356e-02 -7.5339782238006592e-01</leafValues></_>
        <_>
          <internalNodes>
            0 -1 125 -1.6716816462576389e-03</internalNodes>
          <leafValues>
            3.0431342124938965e-01 -1.7876432836055756e-01</leafValues></_>
        <_>
          <internalNodes>
            0 -1 200 8.3725564181804657e-03</internalNodes>
          <leafValues>
            -8.6211457848548889e-02 5.3878802061080933e-01</leafValues></_>
        <_>
          <internalNodes>
            0 -1 106 -3.2771043479442596e-02</internalNodes>
          <leafValues>
            -7.7929288148880005e-01 7.0219874382019043e-02</leafValues></_>
        <_>
          <internalNodes>
            0 -1 80 1.3424325734376907e-02</internalNodes>
          <leafValues>
            1.1337631195783615e-01 -4.5735993981361389e-01</leafValues></_>
        <_>
          <internalNodes>
            0 -1 65 -2.1130088716745377e-03</internalNodes>
          <leafValues>
            6.8566131591796875e-01 -7.7901594340801239e-02</leafValues></_>
        <_>
          <internalNodes>
            0 -1 319 5.1595745608210564e-03</internalNodes>
          <leafValues>
            -9.9582351744174957e-02 4.8156747221946716e-01</leafValues></_>
        <_>
          <internalNodes>
            0 -1 383 7.4616243364289403e-04</internalNodes>
          <leafValues>
            -1.4021511375904083e-01 3.6626645922660828e-01</leafValues></_>
        <_>
          <internalNodes>
            0 -1 420 2.3920459207147360e-03</internalNodes>
          <leafValues>
            -1.6854213178157806e-01 3.2145941257476807e-01</leafValues></_>
        <_>
          <internalNodes>
            0 -1 78 -8.8861724361777306e-03</internalNodes>
          <leafValues>
            -6.7462080717086792e-01 9.6125811338424683e-02</leafValues></_>
        <_>
          <internalNodes>
            0 -1 450 1.3065051753073931e-03</internalNodes>
          <leafValues>
            -1.2687878310680389e-01 4.7908595204353333e-01</leafValues></_>
        <_>
          <internalNodes>
            0 -1 502 6.2002637423574924e-04</internalNodes>
          <leafValues>
            -1.5650418400764465e-01 3.5395720601081848e-01</leafValues></_>
        <_>
          <internalNodes>
            0 -1 116 6.1538238078355789e-03</internalNodes>
          <leafValues>
            -1.2898434698581696e-01 3.8091862201690674e-01</leafValues></_>
        <_>
          <internalNodes>
            0 -1 486 -4.2350956937298179e-04</internalNodes>
          <leafValues>
            3.5523113608360291e-01 -1.4813014864921570e-01</leafValues></_>
        <_>
          <internalNodes>
            0 -1 497 1.5224325470626354e-03</internalNodes>
          <leafValues>
            7.6277405023574829e-02 -7.3527097702026367e-01</leafValues></_>
        <_>
          <internalNodes>
            0 -1 362 4.6829646453261375e-04</internalNodes>
          <leafValues>
            -2.0188905298709869e-01 2.8656810522079468e-01</leafValues></_>
        <_>
          <internalNodes>
            0 -1 64 -1.8749732524156570e-02</internalNodes>
          <leafValues>
            4.4267377257347107e-01 -1.2484455108642578e-01</leafValues></_>
        <_>
          <internalNodes>
            0 -1 376 3.5042157396674156e-03</internalNodes>
          <leafValues>
            -1.9631826877593994e-01 2.7435636520385742e-01</leafValues></_>
        <_>
          <internalNodes>
            0 -1 102 1.7778180539608002e-02</internalNodes>
          <leafValues>
            8.1588618457317352e-02 -8.1600528955459595e-01</leafValues></_>
        <_>
          <internalNodes>
            0 -1 395 3.2327166991308331e-05</internalNodes>
          <leafValues>
            1.3556307554244995e-01 -3.6482203006744385e-01</leafValues></_>
        <_>
          <internalNodes>
            0 -1 307 -3.1549885170534253e-04</internalNodes>
          <leafValues>
            3.0606102943420410e-01 -1.7572137713432312e-01</leafValues></_>
        <_>
          <internalNodes>
            0 -1 16 3.8132118061184883e-04</internalNodes>
          <leafValues>
            8.3952061831951141e-02 -6.8999677896499634e-01</leafValues></_>
        <_>
          <internalNodes>
            0 -1 243 -1.2303448747843504e-03</internalNodes>
          <leafValues>
            3.9656102657318115e-01 -1.4649643003940582e-01</leafValues></_>
        <_>
          <internalNodes>
            0 -1 60 8.6963670328259468e-03</internalNodes>
          <leafValues>
            1.6699261963367462e-01 -3.2392555475234985e-01</leafValues></_>
        <_>
          <internalNodes>
            0 -1 404 -4.2490184307098389e-02</internalNodes>
          <leafValues>
            -6.3262826204299927e-01 8.6609996855258942e-02</leafValues></_>
        <_>
          <internalNodes>
            0 -1 189 2.3124488070607185e-03</internalNodes>
          <leafValues>
            -1.6613988578319550e-01 3.4896659851074219e-01</leafValues></_></weakClassifiers></_>
    <!-- stage 17 -->
    <_>
      <maxWeakCount>32</maxWeakCount>
      <stageThreshold>-8.2679158449172974e-01</stageThreshold>
      <weakClassifiers>
        <_>
          <internalNodes>
            0 -1 294 3.3888255711644888e-04</internalNodes>
          <leafValues>
            5.2493438124656677e-03 4.7255370020866394e-01</leafValues></_>
        <_>
          <internalNodes>
            0 -1 167 5.7706902734935284e-03</internalNodes>
          <leafValues>
            8.5790216922760010e-02 -7.6394289731979370e-01</leafValues></_>
        <_>
          <internalNodes>
            0 -1 422 -1.9983849488198757e-03</internalNodes>
          <leafValues>
            3.3976861834526062e-01 -1.4901924133300781e-01</leafValues></_>
        <_>
          <internalNodes>
            0 -1 228 6.1076198471710086e-04</internalNodes>
          <leafValues>
            -1.4695212244987488e-01 3.3653432130813599e-01</leafValues></_>
        <_>
          <internalNodes>
            0 -1 423 1.7856801860034466e-03</internalNodes>
          <leafValues>
            -2.0936682820320129e-01 2.7970680594444275e-01</leafValues></_>
        <_>
          <internalNodes>
            0 -1 81 -6.3470210880041122e-03</internalNodes>
          <leafValues>
            -8.2685911655426025e-01 8.1832803785800934e-02</leafValues></_>
        <_>
          <internalNodes>
            0 -1 223 9.4020826509222388e-05</internalNodes>
          <leafValues>
            1.0894227027893066e-01 -4.5959049463272095e-01</leafValues></_>
        <_>
          <internalNodes>
            0 -1 128 -1.2393694370985031e-02</internalNodes>
          <leafValues>
            -8.8342136144638062e-01 6.0002990067005157e-02</leafValues></_>
        <_>
          <internalNodes>
            0 -1 193 -9.7653418779373169e-03</internalNodes>
          <leafValues>
            -8.6359167098999023e-01 3.7138920277357101e-02</leafValues></_>
        <_>
          <internalNodes>
            0 -1 39 -4.9498282372951508e-02</internalNodes>
          <leafValues>
            6.8121314048767090e-01 -8.3118639886379242e-02</leafValues></_>
        <_>
          <internalNodes>
            0 -1 495 2.5480045005679131e-03</internalNodes>
          <leafValues>
            6.2174513936042786e-02 -7.0270711183547974e-01</leafValues></_>
        <_>
          <internalNodes>
            0 -1 443 1.4097336679697037e-03</internalNodes>
          <leafValues>
            -9.4547212123870850e-02 5.8787238597869873e-01</leafValues></_>
        <_>
          <internalNodes>
            0 -1 130 5.5219214409589767e-03</internalNodes>
          <leafValues>
            -7.1529053151607513e-02 5.7505661249160767e-01</leafValues></_>
        <_>
          <internalNodes>
            0 -1 159 2.7430765330791473e-03</internalNodes>
          <leafValues>
            -1.1026279628276825e-01 4.6702149510383606e-01</leafValues></_>
        <_>
          <internalNodes>
            0 -1 8 -2.9731064569205046e-04</internalNodes>
          <leafValues>
            -6.4742684364318848e-01 9.1561995446681976e-02</leafValues></_>
        <_>
          <internalNodes>
            0 -1 304 -1.0869424790143967e-02</internalNodes>
          <leafValues>
            -8.5785293579101562e-01 4.2009651660919189e-02</leafValues></_>
        <_>
          <internalNodes>
            0 -1 483 2.1652854047715664e-03</internalNodes>
          <leafValues>
            5.0856072455644608e-02 -7.9550331830978394e-01</leafValues></_>
        <_>
          <internalNodes>
            0 -1 477 -4.0010772645473480e-03</internalNodes>
          <leafValues>
            4.3871954083442688e-01 -1.1803816258907318e-01</leafValues></_>
        <_>
          <internalNodes>
            0 -1 140 4.1484259068965912e-02</internalNodes>
          <leafValues>
            7.4216924607753754e-02 -7.5037151575088501e-01</leafValues></_>
        <_>
          <internalNodes>
            0 -1 493 5.7894806377589703e-04</internalNodes>
          <leafValues>
            6.7740350961685181e-02 -5.9246033430099487e-01</leafValues></_>
        <_>
          <internalNodes>
            0 -1 350 2.1242324262857437e-02</internalNodes>
          <leafValues>
            6.3681036233901978e-02 -7.0923960208892822e-01</leafValues></_>
        <_>
          <internalNodes>
            0 -1 364 -1.1489565949887037e-03</internalNodes>
          <leafValues>
            1.6133315861225128e-01 -3.4505692124366760e-01</leafValues></_>
        <_>
          <internalNodes>
            0 -1 481 9.2446821508929133e-04</internalNodes>
          <leafValues>
            -1.4749076962471008e-01 3.8102182745933533e-01</leafValues></_>
        <_>
          <internalNodes>
            0 -1 40 2.1903221204411238e-04</internalNodes>
          <leafValues>
            1.0519146919250488e-01 -5.1336944103240967e-01</leafValues></_>
        <_>
          <internalNodes>
            0 -1 326 -2.9626273317262530e-05</internalNodes>
          <leafValues>
            -4.9890050292015076e-01 9.7390741109848022e-02</leafValues></_>
        <_>
          <internalNodes>
            0 -1 26 -1.9004872441291809e-01</internalNodes>
          <leafValues>
            -6.1131256818771362e-01 8.4326013922691345e-02</leafValues></_>
        <_>
          <internalNodes>
            0 -1 485 -7.9562881728634238e-04</internalNodes>
          <leafValues>
            -6.6818976402282715e-01 6.5861418843269348e-02</leafValues></_>
        <_>
          <internalNodes>
            0 -1 474 -1.2983367778360844e-03</internalNodes>
          <leafValues>
            3.0923974514007568e-01 -2.0115573704242706e-01</leafValues></_>
        <_>
          <internalNodes>
            0 -1 473 2.2431246470659971e-03</internalNodes>
          <leafValues>
            -1.4421708881855011e-01 3.4707331657409668e-01</leafValues></_>
        <_>
          <internalNodes>
            0 -1 4 1.1753665283322334e-02</internalNodes>
          <leafValues>
            -1.6832925379276276e-01 3.0237460136413574e-01</leafValues></_>
        <_>
          <internalNodes>
            0 -1 6 -2.7255509048700333e-02</internalNodes>
          <leafValues>
            4.5401924848556519e-01 -1.0517241805791855e-01</leafValues></_>
        <_>
          <internalNodes>
            0 -1 45 -7.6977908611297607e-03</internalNodes>
          <leafValues>
            -7.2583669424057007e-01 8.3497934043407440e-02</leafValues></_></weakClassifiers></_>
    <!-- stage 18 -->
    <_>
      <maxWeakCount>39</maxWeakCount>
      <stageThreshold>-9.6520692110061646e-01</stageThreshold>
      <weakClassifiers>
        <_>
          <internalNodes>
            0 -1 170 1.2854957021772861e-03</internalNodes>
          <leafValues>
            1.0018214583396912e-01 5.7768923044204712e-01</leafValues></_>
        <_>
          <internalNodes>
            0 -1 343 -8.4043640526942909e-05</internalNodes>
          <leafValues>
            3.3405318856239319e-01 -1.5187750756740570e-01</leafValues></_>
        <_>
          <internalNodes>
            0 -1 198 -5.8999471366405487e-04</internalNodes>
          <leafValues>
            4.2527681589126587e-01 -1.8737354874610901e-01</leafValues></_>
        <_>
          <internalNodes>
            0 -1 175 -3.1324911396950483e-03</internalNodes>
          <leafValues>
            5.5081135034561157e-01 -8.7614811956882477e-02</leafValues></_>
        <_>
          <internalNodes>
            0 -1 397 -8.7685810285620391e-05</internalNodes>
          <leafValues>
            -6.7763441801071167e-01 1.1090636253356934e-01</leafValues></_>
        <_>
          <internalNodes>
            0 -1 148 -8.2060974091291428e-03</internalNodes>
          <leafValues>
            -7.6761269569396973e-01 6.2858246266841888e-02</leafValues></_>
        <_>
          <internalNodes>
            0 -1 432 1.8880730494856834e-03</internalNodes>
          <leafValues>
            -1.2007051706314087e-01 5.5129641294479370e-01</leafValues></_>
        <_>
          <internalNodes>
            0 -1 437 -2.0380655769258738e-03</internalNodes>
          <leafValues>
            1.9636182487010956e-01 -2.4892883002758026e-01</leafValues></_>
        <_>
          <internalNodes>
            0 -1 388 7.1445489302277565e-03</internalNodes>
          <leafValues>
            6.1014339327812195e-02 -7.4848723411560059e-01</leafValues></_>
        <_>
          <internalNodes>
            0 -1 152 -1.8265567719936371e-02</internalNodes>
          <leafValues>
            5.3300619125366211e-01 -9.1542884707450867e-02</leafValues></_>
        <_>
          <internalNodes>
            0 -1 153 4.8288088291883469e-03</internalNodes>
          <leafValues>
            6.1080876737833023e-02 -8.2590162754058838e-01</leafValues></_>
        <_>
          <internalNodes>
            0 -1 429 1.2936313869431615e-03</internalNodes>
          <leafValues>
            -1.6661836206912994e-01 3.0053129792213440e-01</leafValues></_>
        <_>
          <internalNodes>
            0 -1 455 4.4209489715285599e-04</internalNodes>
          <leafValues>
            -1.7198444902896881e-01 2.7900356054306030e-01</leafValues></_>
        <_>
          <internalNodes>
            0 -1 454 -1.5386404702439904e-03</internalNodes>
          <leafValues>
            4.0230387449264526e-01 -1.1066004633903503e-01</leafValues></_>
        <_>
          <internalNodes>
            0 -1 478 1.1502257548272610e-03</internalNodes>
          <leafValues>
            -1.4434361457824707e-01 3.2060310244560242e-01</leafValues></_>
        <_>
          <internalNodes>
            0 -1 276 1.2207735329866409e-02</internalNodes>
          <leafValues>
            8.0340594053268433e-02 -5.6579667329788208e-01</leafValues></_>
        <_>
          <internalNodes>
            0 -1 103 4.3380507268011570e-03</internalNodes>
          <leafValues>
            1.2219694256782532e-01 -4.1013100743293762e-01</leafValues></_>
        <_>
          <internalNodes>
            0 -1 88 3.2850626856088638e-02</internalNodes>
          <leafValues>
            -1.1769954860210419e-01 4.1498765349388123e-01</leafValues></_>
        <_>
          <internalNodes>
            0 -1 115 4.6282326802611351e-03</internalNodes>
          <leafValues>
            -2.2389514744281769e-01 2.4036620557308197e-01</leafValues></_>
        <_>
          <internalNodes>
            0 -1 491 -4.8234313726425171e-04</internalNodes>
          <leafValues>
            2.9848614335060120e-01 -1.8084423243999481e-01</leafValues></_>
        <_>
          <internalNodes>
            0 -1 240 7.2783947689458728e-04</internalNodes>
          <leafValues>
            -1.5716472268104553e-01 3.1787985563278198e-01</leafValues></_>
        <_>
          <internalNodes>
            0 -1 302 1.6213339404202998e-04</internalNodes>
          <leafValues>
            -1.9301781058311462e-01 3.0519452691078186e-01</leafValues></_>
        <_>
          <internalNodes>
            0 -1 456 -6.5837185829877853e-03</internalNodes>
          <leafValues>
            2.9231128096580505e-01 -1.7202179133892059e-01</leafValues></_>
        <_>
          <internalNodes>
            0 -1 433 -5.8733625337481499e-04</internalNodes>
          <leafValues>
            2.9567366838455200e-01 -1.9603733718395233e-01</leafValues></_>
        <_>
          <internalNodes>
            0 -1 258 6.1616927268914878e-05</internalNodes>
          <leafValues>
            -1.8253014981746674e-01 3.3007743954658508e-01</leafValues></_>
        <_>
          <internalNodes>
            0 -1 384 3.3006718149408698e-04</internalNodes>
          <leafValues>
            1.4950664341449738e-01 -4.3111243844032288e-01</leafValues></_>
        <_>
          <internalNodes>
            0 -1 261 1.7621688357394305e-06</internalNodes>
          <leafValues>
            -2.1602271497249603e-01 2.5362586975097656e-01</leafValues></_>
        <_>
          <internalNodes>
            0 -1 471 5.0531933084130287e-04</internalNodes>
          <leafValues>
            -1.3416862487792969e-01 3.5936382412910461e-01</leafValues></_>
        <_>
          <internalNodes>
            0 -1 262 -1.0994145668519195e-05</internalNodes>
          <leafValues>
            2.1162891387939453e-01 -2.6283782720565796e-01</leafValues></_>
        <_>
          <internalNodes>
            0 -1 467 1.5101188328117132e-03</internalNodes>
          <leafValues>
            -1.3552547991275787e-01 3.9640265703201294e-01</leafValues></_>
        <_>
          <internalNodes>
            0 -1 449 -7.7054864959791303e-05</internalNodes>
          <leafValues>
            3.1938579678535461e-01 -1.7559243738651276e-01</leafValues></_>
        <_>
          <internalNodes>
            0 -1 3 -6.4620660850778222e-05</internalNodes>
          <leafValues>
            -3.1990021467208862e-01 1.6913731396198273e-01</leafValues></_>
        <_>
          <internalNodes>
            0 -1 470 2.6461244560778141e-03</internalNodes>
          <leafValues>
            -1.2811794877052307e-01 4.0047103166580200e-01</leafValues></_>
        <_>
          <internalNodes>
            0 -1 378 5.9470614360179752e-05</internalNodes>
          <leafValues>
            1.2459617108106613e-01 -4.7636142373085022e-01</leafValues></_>
        <_>
          <internalNodes>
            0 -1 190 1.3129075989127159e-02</internalNodes>
          <leafValues>
            7.0229135453701019e-02 -6.8566018342971802e-01</leafValues></_>
        <_>
          <internalNodes>
            0 -1 25 1.3487821817398071e-01</internalNodes>
          <leafValues>
            -8.2485437393188477e-02 7.4202948808670044e-01</leafValues></_>
        <_>
          <internalNodes>
            0 -1 435 1.5278275823220611e-03</internalNodes>
          <leafValues>
            -6.7546270787715912e-02 7.0005971193313599e-01</leafValues></_>
        <_>
          <internalNodes>
            0 -1 494 -8.7390444241464138e-04</internalNodes>
          <leafValues>
            -4.6087443828582764e-01 1.3273406028747559e-01</leafValues></_>
        <_>
          <internalNodes>
            0 -1 216 3.6317462217994034e-05</internalNodes>
          <leafValues>
            -1.8181087076663971e-01 3.0314272642135620e-01</leafValues></_></weakClassifiers></_>
    <!-- stage 19 -->
    <_>
      <maxWeakCount>41</maxWeakCount>
      <stageThreshold>-1.0322053432464600e+00</stageThreshold>
      <weakClassifiers>
        <_>
          <internalNodes>
            0 -1 325 1.3571619638241827e-04</internalNodes>
          <leafValues>
            2.9450261592864990e-01 -6.9444441795349121e-01</leafValues></_>
        <_>
          <internalNodes>
            0 -1 7 1.8910082057118416e-02</internalNodes>
          <leafValues>
            -1.3647665083408356e-01 3.2364940643310547e-01</leafValues></_>
        <_>
          <internalNodes>
            0 -1 417 2.9050980228930712e-03</internalNodes>
          <leafValues>
            -7.3021478950977325e-02 7.1281093358993530e-01</leafValues></_>
        <_>
          <internalNodes>
            0 -1 438 3.9887917228043079e-04</internalNodes>
          <leafValues>
            -2.0829433202743530e-01 2.8007233142852783e-01</leafValues></_>
        <_>
          <internalNodes>
            0 -1 91 6.5690963529050350e-03</internalNodes>
          <leafValues>
            8.8467985391616821e-02 -7.0007127523422241e-01</leafValues></_>
        <_>
          <internalNodes>
            0 -1 445 -1.0369396768510342e-03</internalNodes>
          <leafValues>
            3.0984747409820557e-01 -1.5547662973403931e-01</leafValues></_>
        <_>
          <internalNodes>
            0 -1 268 -1.5719269867986441e-04</internalNodes>
          <leafValues>
            2.0327784121036530e-01 -2.3660978674888611e-01</leafValues></_>
        <_>
